tree
version=v3
num_class=1
num_tree_per_iteration=1
label_index=0
max_feature_idx=548
objective=regression
feature_names=Column_0 Column_1 Column_2 Column_3 Column_4 Column_5 Column_6 Column_7 Column_8 Column_9 Column_10 Column_11 Column_12 Column_13 Column_14 Column_15 Column_16 Column_17 Column_18 Column_19 Column_20 Column_21 Column_22 Column_23 Column_24 Column_25 Column_26 Column_27 Column_28 Column_29 Column_30 Column_31 Column_32 Column_33 Column_34 Column_35 Column_36 Column_37 Column_38 Column_39 Column_40 Column_41 Column_42 Column_43 Column_44 Column_45 Column_46 Column_47 Column_48 Column_49 Column_50 Column_51 Column_52 Column_53 Column_54 Column_55 Column_56 Column_57 Column_58 Column_59 Column_60 Column_61 Column_62 Column_63 Column_64 Column_65 Column_66 Column_67 Column_68 Column_69 Column_70 Column_71 Column_72 Column_73 Column_74 Column_75 Column_76 Column_77 Column_78 Column_79 Column_80 Column_81 Column_82 Column_83 Column_84 Column_85 Column_86 Column_87 Column_88 Column_89 Column_90 Column_91 Column_92 Column_93 Column_94 Column_95 Column_96 Column_97 Column_98 Column_99 Column_100 Column_101 Column_102 Column_103 Column_104 Column_105 Column_106 Column_107 Column_108 Column_109 Column_110 Column_111 Column_112 Column_113 Column_114 Column_115 Column_116 Column_117 Column_118 Column_119 Column_120 Column_121 Column_122 Column_123 Column_124 Column_125 Column_126 Column_127 Column_128 Column_129 Column_130 Column_131 Column_132 Column_133 Column_134 Column_135 Column_136 Column_137 Column_138 Column_139 Column_140 Column_141 Column_142 Column_143 Column_144 Column_145 Column_146 Column_147 Column_148 Column_149 Column_150 Column_151 Column_152 Column_153 Column_154 Column_155 Column_156 Column_157 Column_158 Column_159 Column_160 Column_161 Column_162 Column_163 Column_164 Column_165 Column_166 Column_167 Column_168 Column_169 Column_170 Column_171 Column_172 Column_173 Column_174 Column_175 Column_176 Column_177 Column_178 Column_179 Column_180 Column_181 Column_182 Column_183 Column_184 Column_185 Column_186 Column_187 Column_188 Column_189 Column_190 Column_191 Column_192 Column_193 Column_194 Column_195 Column_196 Column_197 Column_198 Column_199 Column_200 Column_201 Column_202 Column_203 Column_204 Column_205 Column_206 Column_207 Column_208 Column_209 Column_210 Column_211 Column_212 Column_213 Column_214 Column_215 Column_216 Column_217 Column_218 Column_219 Column_220 Column_221 Column_222 Column_223 Column_224 Column_225 Column_226 Column_227 Column_228 Column_229 Column_230 Column_231 Column_232 Column_233 Column_234 Column_235 Column_236 Column_237 Column_238 Column_239 Column_240 Column_241 Column_242 Column_243 Column_244 Column_245 Column_246 Column_247 Column_248 Column_249 Column_250 Column_251 Column_252 Column_253 Column_254 Column_255 Column_256 Column_257 Column_258 Column_259 Column_260 Column_261 Column_262 Column_263 Column_264 Column_265 Column_266 Column_267 Column_268 Column_269 Column_270 Column_271 Column_272 Column_273 Column_274 Column_275 Column_276 Column_277 Column_278 Column_279 Column_280 Column_281 Column_282 Column_283 Column_284 Column_285 Column_286 Column_287 Column_288 Column_289 Column_290 Column_291 Column_292 Column_293 Column_294 Column_295 Column_296 Column_297 Column_298 Column_299 Column_300 Column_301 Column_302 Column_303 Column_304 Column_305 Column_306 Column_307 Column_308 Column_309 Column_310 Column_311 Column_312 Column_313 Column_314 Column_315 Column_316 Column_317 Column_318 Column_319 Column_320 Column_321 Column_322 Column_323 Column_324 Column_325 Column_326 Column_327 Column_328 Column_329 Column_330 Column_331 Column_332 Column_333 Column_334 Column_335 Column_336 Column_337 Column_338 Column_339 Column_340 Column_341 Column_342 Column_343 Column_344 Column_345 Column_346 Column_347 Column_348 Column_349 Column_350 Column_351 Column_352 Column_353 Column_354 Column_355 Column_356 Column_357 Column_358 Column_359 Column_360 Column_361 Column_362 Column_363 Column_364 Column_365 Column_366 Column_367 Column_368 Column_369 Column_370 Column_371 Column_372 Column_373 Column_374 Column_375 Column_376 Column_377 Column_378 Column_379 Column_380 Column_381 Column_382 Column_383 Column_384 Column_385 Column_386 Column_387 Column_388 Column_389 Column_390 Column_391 Column_392 Column_393 Column_394 Column_395 Column_396 Column_397 Column_398 Column_399 Column_400 Column_401 Column_402 Column_403 Column_404 Column_405 Column_406 Column_407 Column_408 Column_409 Column_410 Column_411 Column_412 Column_413 Column_414 Column_415 Column_416 Column_417 Column_418 Column_419 Column_420 Column_421 Column_422 Column_423 Column_424 Column_425 Column_426 Column_427 Column_428 Column_429 Column_430 Column_431 Column_432 Column_433 Column_434 Column_435 Column_436 Column_437 Column_438 Column_439 Column_440 Column_441 Column_442 Column_443 Column_444 Column_445 Column_446 Column_447 Column_448 Column_449 Column_450 Column_451 Column_452 Column_453 Column_454 Column_455 Column_456 Column_457 Column_458 Column_459 Column_460 Column_461 Column_462 Column_463 Column_464 Column_465 Column_466 Column_467 Column_468 Column_469 Column_470 Column_471 Column_472 Column_473 Column_474 Column_475 Column_476 Column_477 Column_478 Column_479 Column_480 Column_481 Column_482 Column_483 Column_484 Column_485 Column_486 Column_487 Column_488 Column_489 Column_490 Column_491 Column_492 Column_493 Column_494 Column_495 Column_496 Column_497 Column_498 Column_499 Column_500 Column_501 Column_502 Column_503 Column_504 Column_505 Column_506 Column_507 Column_508 Column_509 Column_510 Column_511 Column_512 Column_513 Column_514 Column_515 Column_516 Column_517 Column_518 Column_519 Column_520 Column_521 Column_522 Column_523 Column_524 Column_525 Column_526 Column_527 Column_528 Column_529 Column_530 Column_531 Column_532 Column_533 Column_534 Column_535 Column_536 Column_537 Column_538 Column_539 Column_540 Column_541 Column_542 Column_543 Column_544 Column_545 Column_546 Column_547 Column_548
feature_infos=[8439.0325266099171:32718.951872980513] [34751.584970525684:686106.72491003748] [24012.782402919871:642454.57714256202] [22986.382314124217:395496.98759035033] [30846.52423637109:607553.11462905526] [19841372.758003376:4810822346.4473219] [9112298.141226938:4208906316.4989328] [8126613.6264213994:1581666710.5608518] [15416607.381924676:3757012548.5658836] [1:17] [1:20] [-6861.0672491003752:6413.5504691244023] [-6424.5457714256199:5497.9492434792492] [-3746.6282732132372:3954.9698759035032] [-6075.5311462905529:5641.261202644313] [1.3627782733414825e-11:1.3862112409468287e-06] [0.050274509100088363:2.6152287085480883] [67.97642227427562:126295.64909170757] [256.00789222321725:339831.47832847328] [49.078590082554996:81769.843055233723] [4.3508596036300524:8070.4597439128138] [8439.0325266099171:32718.951872980513] [34751.584970525684:686106.72491003748] [22986.382314124217:395496.98759035033] [30846.52423637109:607553.11462905526] [19841372.758003376:4810822346.4473219] [9112298.141226938:4208906316.4989328] [8126613.6264213994:1581666710.5608518] [15416607.381924676:3757012548.5658836] [1:17] [1:20] [-6861.0672491003752:6413.5504691244023] [-6424.5457714256199:5497.9492434792492] [-3746.6282732132372:3954.9698759035032] [-6075.5311462905529:5641.261202644313] [1.3627782733414825e-11:1.3862112409468287e-06] [0.050274509100088363:2.6152287085480883] [67.97642227427562:126295.64909170757] [43.295513289914666:25930.732387731809] [256.00789222321725:339831.47832847328] [49.078590082554996:81769.843055233723] [8439.0325266099171:32718.951872980513] [22986.382314124217:395496.98759035033] [30846.52423637109:607553.11462905526] [19841372.758003376:4810822346.4473219] [8126613.6264213994:1581666710.5608518] [15416607.381924676:3757012548.5658836] [1:17] [1:20] [-6861.0672491003752:6413.5504691244023] [-6424.5457714256199:5497.9492434792492] [-3746.6282732132372:3954.9698759035032] [-6075.5311462905529:5641.261202644313] [1.3627782733414825e-11:1.3862112409468287e-06] [0.050274509100088363:2.6152287085480883] [43.295513289914666:25930.732387731809] [256.00789222321725:339831.47832847328] [49.078590082554996:81769.843055233723] [8439.0325266099171:32718.951872980513] [34751.584970525684:686106.72491003748] [22986.382314124217:395496.98759035033] [21658.544681101186:939960.53839810949] [30846.52423637109:607553.11462905526] [26482.600340263729:1307628.2991960763] [15416607.381924676:3757012548.5658836] [1:17] [1:20] [-6861.0672491003752:6413.5504691244023] [-6424.5457714256199:5497.9492434792492] [-3746.6282732132372:3954.9698759035032] [-6075.5311462905529:5641.261202644313] [-5868.5644942266736:3813.3661722428969] [1.3627782733414825e-11:1.3862112409468287e-06] [0.050274509100088363:2.6152287085480883] [43.295513289914666:25930.732387731809] [256.00789222321725:339831.47832847328] [34751.584970525684:686106.72491003748] [24012.782402919871:642454.57714256202] [22986.382314124217:395496.98759035033] [21658.544681101186:939960.53839810949] [30846.52423637109:607553.11462905526] [26482.600340263729:1307628.2991960763] [15416607.381924676:3757012548.5658836] [1:17] [1:20] [-6861.0672491003752:6413.5504691244023] [-6424.5457714256199:5497.9492434792492] [-3746.6282732132372:3954.9698759035032] [-6075.5311462905529:5641.261202644313] [-5868.5644942266736:3813.3661722428969] [1.3627782733414825e-11:1.3862112409468287e-06] [0.050274509100088363:2.6152287085480883] [43.295513289914666:25930.732387731809] [256.00789222321725:339831.47832847328] [34751.584970525684:686106.72491003748] [24012.782402919871:642454.57714256202] [22986.382314124217:395496.98759035033] [21658.544681101186:939960.53839810949] [30846.52423637109:607553.11462905526] [19841372.758003376:4810822346.4473219] [9112298.141226938:4208906316.4989328] [15416607.381924676:3757012548.5658836] [1:17] [1:20] [-6424.5457714256199:5497.9492434792492] [-3746.6282732132372:3954.9698759035032] [-6075.5311462905529:5641.261202644313] [-5868.5644942266736:3813.3661722428969] [1.3627782733414825e-11:1.3862112409468287e-06] [0.050274509100088363:2.6152287085480883] [43.295513289914666:25930.732387731809] [7880.7614302122556:37130.231418493277] [6183.2584562450375:28426.741268545396] [34751.584970525684:686106.72491003748] [24012.782402919871:642454.57714256202] [22986.382314124217:395496.98759035033] [30846.52423637109:607553.11462905526] [19841372.758003376:4810822346.4473219] [9112298.141226938:4208906316.4989328] [8126613.6264213994:1581666710.5608518] [15416607.381924676:3757012548.5658836] [1:17] [1:20] [-6424.5457714256199:5497.9492434792492] [-3746.6282732132372:3954.9698759035032] [-6075.5311462905529:5641.261202644313] [-5868.5644942266736:3813.3661722428969] [1.3627782733414825e-11:1.3862112409468287e-06] [0.050274509100088363:2.6152287085480883] [43.295513289914666:25930.732387731809] [7880.7614302122556:37130.231418493277] [6183.2584562450375:28426.741268545396] [34751.584970525684:686106.72491003748] [24012.782402919871:642454.57714256202] [22986.382314124217:395496.98759035033] [30846.52423637109:607553.11462905526] [19841372.758003376:4810822346.4473219] [9112298.141226938:4208906316.4989328] [8126613.6264213994:1581666710.5608518] [15416607.381924676:3757012548.5658836] [1:17] [1:20] [-6424.5457714256199:5497.9492434792492] [-3746.6282732132372:3954.9698759035032] [-6075.5311462905529:5641.261202644313] [-5868.5644942266736:3813.3661722428969] [1.3627782733414825e-11:1.3862112409468287e-06] [0.050274509100088363:2.6152287085480883] [43.295513289914666:25930.732387731809] [7880.7614302122556:37130.231418493277] [6183.2584562450375:28426.741268545396] [34751.584970525684:686106.72491003748] [24012.782402919871:642454.57714256202] [22986.382314124217:395496.98759035033] [30846.52423637109:607553.11462905526] [19841372.758003376:4810822346.4473219] [9112298.141226938:4208906316.4989328] [8126613.6264213994:1581666710.5608518] [15416607.381924676:3757012548.5658836] [1:17] [1:17] [1:20] [-6424.5457714256199:5497.9492434792492] [-3746.6282732132372:3954.9698759035032] [-6075.5311462905529:5641.261202644313] [-5868.5644942266736:3813.3661722428969] [0.050274509100088363:2.6152287085480883] [43.295513289914666:25930.732387731809] [256.00789222321725:339831.47832847328] [7880.7614302122556:37130.231418493277] [6183.2584562450375:28426.741268545396] [8439.0325266099171:32718.951872980513] [34751.584970525684:686106.72491003748] [24012.782402919871:642454.57714256202] [22986.382314124217:395496.98759035033] [30846.52423637109:607553.11462905526] [19841372.758003376:4810822346.4473219] [9112298.141226938:4208906316.4989328] [8126613.6264213994:1581666710.5608518] [15416607.381924676:3757012548.5658836] [1:17] [1:17] [1:20] [-6861.0672491003752:6413.5504691244023] [-6424.5457714256199:5497.9492434792492] [-3746.6282732132372:3954.9698759035032] [-3031.0229804881442:3954.1740672877745] [-6075.5311462905529:5641.261202644313] [-5868.5644942266736:3813.3661722428969] [0.050274509100088363:2.6152287085480883] [67.97642227427562:126295.64909170757] [43.295513289914666:25930.732387731809] [183.9222639049168:121426.80704412397] [256.00789222321725:339831.47832847328] [11.647946845489725:30438.458197295593] [15.385319633868079:16887.412414046408] [10.568878203492524:30007.640361651818] [36.375258388076894:18897.392562235502] [11.203310478683338:37097.780820967375] [49.078590082554996:81769.843055233723] [13.466414734380637:35189.753614110741] [14.161198987437244:34043.817717271006] [31.088711111718219:14387.178635515818] [7880.7614302122556:37130.231418493277] [6183.2584562450375:28426.741268545396] [8439.0325266099171:32718.951872980513] [24012.782402919871:642454.57714256202] [30846.52423637109:607553.11462905526] [9112298.141226938:4208906316.4989328] [15416607.381924676:3757012548.5658836] [1:17] [1:17] [1:15] [1:20] [-6861.0672491003752:6413.5504691244023] [-6424.5457714256199:5497.9492434792492] [-3746.6282732132372:3954.9698759035032] [-5341.7742080176449:4534.0102069222285] [-3031.0229804881442:3954.1740672877745] [-6075.5311462905529:5641.261202644313] [-5868.5644942266736:3813.3661722428969] [0.050274509100088363:2.6152287085480883] [69.676801471712309:104431.5127593762] [67.97642227427562:126295.64909170757] [43.295513289914666:25930.732387731809] [183.9222639049168:121426.80704412397] [256.00789222321725:339831.47832847328] [35.957500236247455:22866.85958284168] [11.647946845489725:30438.458197295593] [25.559884827308867:38686.327969401966] [30.733917756054005:36684.159620750062] [10.568878203492524:30007.640361651818] [36.375258388076894:18897.392562235502] [32.587194144035358:19248.35310470876] [11.203310478683338:37097.780820967375] [49.078590082554996:81769.843055233723] [19.322063092108227:27809.902216665163] [13.466414734380637:35189.753614110741] [31.088711111718219:14387.178635515818] [4.3508596036300524:8070.4597439128138] [7880.7614302122556:37130.231418493277] [6183.2584562450375:28426.741268545396] [8439.0325266099171:32718.951872980513] [24012.782402919871:642454.57714256202] [30846.52423637109:607553.11462905526] [9112298.141226938:4208906316.4989328] [8126613.6264213994:1581666710.5608518] [15416607.381924676:3757012548.5658836] [1:17] [1:17] [1:15] [1:20] [-6861.0672491003752:6413.5504691244023] [-6424.5457714256199:5497.9492434792492] [-3746.6282732132372:3954.9698759035032] [-5341.7742080176449:4534.0102069222285] [-3031.0229804881442:3954.1740672877745] [-6075.5311462905529:5641.261202644313] [-13076.282991960763:8464.6202532599928] [-5868.5644942266736:3813.3661722428969] [0.050274509100088363:2.6152287085480883] [69.676801471712309:104431.5127593762] [67.97642227427562:126295.64909170757] [43.295513289914666:25930.732387731809] [60.338324357729661:54405.478185977539] [183.9222639049168:121426.80704412397] [317.19886987054929:117597.72421846828] [256.00789222321725:339831.47832847328] [35.957500236247455:22866.85958284168] [11.647946845489725:30438.458197295593] [30.733917756054005:36684.159620750062] [36.375258388076894:18897.392562235502] [32.587194144035358:19248.35310470876] [11.203310478683338:37097.780820967375] [49.078590082554996:81769.843055233723] [4.3529256875309184:2567.8107420811139] [4.3508596036300524:8070.4597439128138] [7880.7614302122556:37130.231418493277] [8439.0325266099171:32718.951872980513] [30188.428710333395:1957415.7320753476] [24012.782402919871:642454.57714256202] [22986.382314124217:395496.98759035033] [30846.52423637109:607553.11462905526] [9112298.141226938:4208906316.4989328] [8126613.6264213994:1581666710.5608518] [15416607.381924676:3757012548.5658836] [1:17] [1:17] [1:15] [1:20] [-6861.0672491003752:6413.5504691244023] [-6424.5457714256199:5497.9492434792492] [-3746.6282732132372:3954.9698759035032] [-3031.0229804881442:3954.1740672877745] [-6075.5311462905529:5641.261202644313] [-8363.4601706713693:10076.386699902041] [-13076.282991960763:8464.6202532599928] [-5868.5644942266736:3813.3661722428969] [69.676801471712309:104431.5127593762] [67.97642227427562:126295.64909170757] [43.295513289914666:25930.732387731809] [60.338324357729661:54405.478185977539] [183.9222639049168:121426.80704412397] [317.19886987054929:117597.72421846828] [256.00789222321725:339831.47832847328] [35.957500236247455:22866.85958284168] [30.733917756054005:36684.159620750062] [36.375258388076894:18897.392562235502] [32.587194144035358:19248.35310470876] [49.078590082554996:81769.843055233723] [4.3529256875309184:2567.8107420811139] [4.3508596036300524:8070.4597439128138] [7880.7614302122556:37130.231418493277] [8439.0325266099171:32718.951872980513] [30188.428710333395:1957415.7320753476] [24012.782402919871:642454.57714256202] [22986.382314124217:395496.98759035033] [26871.574569434157:534177.42080176447] [30846.52423637109:607553.11462905526] [9112298.141226938:4208906316.4989328] [8126613.6264213994:1581666710.5608518] [15416607.381924676:3757012548.5658836] [1:17] [1:17] [1:15] [1:20] [-6861.0672491003752:6413.5504691244023] [-6424.5457714256199:5497.9492434792492] [-5088.1824530306594:5548.641219457405] [-3746.6282732132372:3954.9698759035032] [-3031.0229804881442:3954.1740672877745] [-6075.5311462905529:5641.261202644313] [-8363.4601706713693:10076.386699902041] [-5868.5644942266736:3813.3661722428969] [69.676801471712309:104431.5127593762] [67.97642227427562:126295.64909170757] [43.295513289914666:25930.732387731809] [60.338324357729661:54405.478185977539] [183.9222639049168:121426.80704412397] [317.19886987054929:117597.72421846828] [256.00789222321725:339831.47832847328] [35.957500236247455:22866.85958284168] [30.733917756054005:36684.159620750062] [32.587194144035358:19248.35310470876] [49.078590082554996:81769.843055233723] [4.3529256875309184:2567.8107420811139] [4.3508596036300524:8070.4597439128138] [7880.7614302122556:37130.231418493277] [8439.0325266099171:32718.951872980513] [34751.584970525684:686106.72491003748] [30188.428710333395:1957415.7320753476] [24012.782402919871:642454.57714256202] [22986.382314124217:395496.98759035033] [26871.574569434157:534177.42080176447] [30846.52423637109:607553.11462905526] [19841372.758003376:4810822346.4473219] [9112298.141226938:4208906316.4989328] [8126613.6264213994:1581666710.5608518] [11849299.892014457:2932871914.1217742] [15416607.381924676:3757012548.5658836] [1:17] [1:17] [1:15] [1:16] [1:20] [-6861.0672491003752:6413.5504691244023] [-6424.5457714256199:5497.9492434792492] [-5088.1824530306594:5548.641219457405] [-3746.6282732132372:3954.9698759035032] [-3031.0229804881442:3954.1740672877745] [-6075.5311462905529:5641.261202644313] [-8363.4601706713693:10076.386699902041] [-5868.5644942266736:3813.3661722428969] [69.676801471712309:104431.5127593762] [67.97642227427562:126295.64909170757] [60.338324357729661:54405.478185977539] [183.9222639049168:121426.80704412397] [317.19886987054929:117597.72421846828] [256.00789222321725:339831.47832847328] [35.957500236247455:22866.85958284168] [30.733917756054005:36684.159620750062] [6.1699300385721294:21034.195007906354] [32.587194144035358:19248.35310470876] [49.078590082554996:81769.843055233723] [4.3529256875309184:2567.8107420811139] [1.9252985454143201:2695.8126844990188] [4.3508596036300524:8070.4597439128138] [7880.7614302122556:37130.231418493277] [8439.0325266099171:32718.951872980513] [34751.584970525684:686106.72491003748] [30188.428710333395:1957415.7320753476] [24012.782402919871:642454.57714256202] [22986.382314124217:395496.98759035033] [26871.574569434157:534177.42080176447] [30846.52423637109:607553.11462905526] [32414.037090329515:947818.33515856962] [19841372.758003376:4810822346.4473219] [9112298.141226938:4208906316.4989328] [8126613.6264213994:1581666710.5608518] [11849299.892014457:2932871914.1217742] [15416607.381924676:3757012548.5658836] [15606746.318096252:9960487719.7470932] [1:17] [1:17] [1:15] [1:16] [1:20] [-6861.0672491003752:6413.5504691244023] [-6424.5457714256199:5497.9492434792492] [-5088.1824530306594:5548.641219457405] [-3746.6282732132372:3954.9698759035032] [-3031.0229804881442:3954.1740672877745] [-6075.5311462905529:5641.261202644313] [-8363.4601706713693:10076.386699902041] [-5868.5644942266736:3813.3661722428969] [69.676801471712309:104431.5127593762] [67.97642227427562:126295.64909170757] [60.338324357729661:54405.478185977539] [183.9222639049168:121426.80704412397] [317.19886987054929:117597.72421846828] [256.00789222321725:339831.47832847328] [35.957500236247455:22866.85958284168] [30.733917756054005:36684.159620750062] [6.1699300385721294:21034.195007906354] [32.587194144035358:19248.35310470876] [49.078590082554996:81769.843055233723] [4.3529256875309184:2567.8107420811139] [4.3508596036300524:8070.4597439128138] [8439.0325266099171:32718.951872980513] [34751.584970525684:686106.72491003748] [24012.782402919871:642454.57714256202] [26871.574569434157:534177.42080176447] [30846.52423637109:607553.11462905526] [32414.037090329515:947818.33515856962] [19841372.758003376:4810822346.4473219] [9112298.141226938:4208906316.4989328] [11849299.892014457:2932871914.1217742] [15416607.381924676:3757012548.5658836] [15606746.318096252:9960487719.7470932] [1:17] [1:17] [1:15] [1:16] [1:20] [-6861.0672491003752:6413.5504691244023] [-6424.5457714256199:5497.9492434792492] [-5088.1824530306594:5548.641219457405] [-3746.6282732132372:3954.9698759035032] [-3031.0229804881442:3954.1740672877745] [-6075.5311462905529:5641.261202644313] [-5868.5644942266736:3813.3661722428969] [9.9167500303454545:11.236600390159115] [69.676801471712309:104431.5127593762] [67.97642227427562:126295.64909170757] [60.338324357729661:54405.478185977539] [183.9222639049168:121426.80704412397] [317.19886987054929:117597.72421846828] [256.00789222321725:339831.47832847328] [35.957500236247455:22866.85958284168] [30.733917756054005:36684.159620750062] [6.1699300385721294:21034.195007906354] [32.587194144035358:19248.35310470876] [49.078590082554996:81769.843055233723] [4.3529256875309184:2567.8107420811139] [4.3508596036300524:8070.4597439128138] [8439.0325266099171:32718.951872980513] [34751.584970525684:686106.72491003748] [22986.382314124217:395496.98759035033] [26871.574569434157:534177.42080176447] [30846.52423637109:607553.11462905526] [27292.627906832106:973091.15744330594] [32414.037090329515:947818.33515856962] [19841372.758003376:4810822346.4473219] [11849299.892014457:2932871914.1217742] [15416607.381924676:3757012548.5658836] [15606746.318096252:9960487719.7470932] [1:17] [1:17] [1:16] [1:20] [-6861.0672491003752:6413.5504691244023] [-6424.5457714256199:5497.9492434792492] [-3746.6282732132372:3954.9698759035032] [-3031.0229804881442:3954.1740672877745] [-6075.5311462905529:5641.261202644313] [9.9167500303454545:11.236600390159115] [69.676801471712309:104431.5127593762] [67.97642227427562:126295.64909170757] [60.338324357729661:54405.478185977539] [317.19886987054929:117597.72421846828] [256.00789222321725:339831.47832847328] [35.957500236247455:22866.85958284168] [30.733917756054005:36684.159620750062] [6.1699300385721294:21034.195007906354] [32.587194144035358:19248.35310470876] [49.078590082554996:81769.843055233723] [4.3508596036300524:8070.4597439128138] [7880.7614302122556:37130.231418493277] [8439.0325266099171:32718.951872980513] [22986.382314124217:395496.98759035033] [26871.574569434157:534177.42080176447] [30846.52423637109:607553.11462905526] [27292.627906832106:973091.15744330594] [32414.037090329515:947818.33515856962] [11849299.892014457:2932871914.1217742] [15416607.381924676:3757012548.5658836] [15606746.318096252:9960487719.7470932] [1:17] [1:17] [1:16] [1:20] [-6861.0672491003752:6413.5504691244023] [-6424.5457714256199:5497.9492434792492] [-3746.6282732132372:3954.9698759035032] [-6075.5311462905529:5641.261202644313] [9.9167500303454545:11.236600390159115] [0.050274509100088363:2.6152287085480883] [69.676801471712309:104431.5127593762] [67.97642227427562:126295.64909170757] [60.338324357729661:54405.478185977539] [317.19886987054929:117597.72421846828] [256.00789222321725:339831.47832847328] [35.957500236247455:22866.85958284168] [30.733917756054005:36684.159620750062] [6.1699300385721294:21034.195007906354] [32.587194144035358:19248.35310470876] [49.078590082554996:81769.843055233723] [4.3508596036300524:8070.4597439128138] [7880.7614302122556:37130.231418493277] [7316.1771580007917:31506.658825208142] [8439.0325266099171:32718.951872980513] [22986.382314124217:395496.98759035033] [26871.574569434157:534177.42080176447] [30846.52423637109:607553.11462905526] [32414.037090329515:947818.33515856962] [15606746.318096252:9960487719.7470932] [1:17] [1:17] [1:16] [1:20] [-6424.5457714256199:5497.9492434792492] [0.050274509100088363:2.6152287085480883] [69.676801471712309:104431.5127593762] [60.338324357729661:54405.478185977539] [317.19886987054929:117597.72421846828] [256.00789222321725:339831.47832847328] [32.587194144035358:19248.35310470876] [49.078590082554996:81769.843055233723] [4.3508596036300524:8070.4597439128138]
tree_sizes=2832 2838 2834 2835 2823 2840 2828 2838 2819 2826 2841 2856 2850 2843 2856 2865 2859 2854 2829 2839 2844 2854 2853 2864 2840 2856 2852 2851 2872 2865 2846 2876 2861 2864 2855 2858 2851 2881 2857 2881 2856 2884 2866 2860 2865 2863 2867 2872 2877 2838 2879 2852 2851 2859 2849 2856 2860 2858 2888 2837 2853 2870 2858 2847 2879 2881 2874 2863 2889 2881 2876 2874 2878 2876 2863 2888 2856 2871 2850 2868 2866 2877 2854 2879 2860 2876 2853 2857 2864 2866 2861 2864 2875 2885 2896 2870 2871 2880 2869 2861 2872 2893 2851 2859 2887 2880 2877 2879 2864 2871 2865 2869 2876 2857 2872 2879 2855 2865 2880 2886 2870 2879 2875 2889 2894 2882 2881 2883 2889 2879 2873 2893 2882 2883 2868 2877 2877 2886 2865 2869 2885 2879 2878 2878 2882 2886 2874 2893 2876 2883 2878 2881 2903 2884 2859 2904 2888 2886 2875 2885 2877 2892 2893 2906 2883 2888 2880 2891 2891 2889 2879 2916 2892 2887 2905 2887 2898 2907 2901 2907 2890 2892 2913 2910 2893 2902 2894 2898 2904 2907 2887 2885 2891 2882 2885 2878 2900 2885 2917 2864 2889 2868 2910 2878 2880 2899 2907 2873 2887 2881 2879 2902 2904 2908 2885 2869 2906 2893 2878 2911 2908 2888 2909 2881 2885 2913 2895 2903 2905 2885 2876 2915 2885 2891 2887 2899 2885 2897 2911 2902 2919 2898 2896 2903 2890 2889 2897 2887 2893 2893 2893 2903 2909 2894 2914 2900 2883 2899 2911 2916 2930 2913 2908 2900 2889 2919 2880 2894 2899 2911 2886 2918 2896 2911 2902 2897 2902 2904 2908 2891 2897 2902 2901 2924 2897 2872 2894 2902 2903 2896 2916 2930 2890 2899 2916 2870 2894 2918 2900 2909 2908 2901 2887 2907 2913 2905 2915 2907 2907 2922 2905 2907 2919 2898 2900 2916 2899 2906 2896 2897 2920 2892 2912 2902 2910 2922 2894 2904 2912 2927 2912 2892 2907 2907 2907 2906 2899 2896 2898 2891 2893 2917 2907 2901 2888 2912 2898 2902 2907 2910 2908 2914 2897 2902 2896 2918 2917 2900 2916 2920 2916 2930 2900 2910 2897 2917 2918 2910 2896 2921 2922 2914 2917 2914 2895 2919 2902 2903 2917 2905 2898 2911 2912 2902 2896 2904 2906 2883 2911 2929 2897 2905 2922 2906 2918 2901 2920 2926 2909 2898 2912 2917 2902 2896 2906 2895 2910 2916 2904 2912 2928 2906 2894 2907 2918 2913 2908 2917 2901 2919 2910 2906 2924 2926 2908 2914 2916 2940 2906 2912 2909 2922 2913 2933 2912 2906 2926 2923 2917 2917 2922 2915 2914 2935 2928 2922 2935 2925 2898 2906 2906 2924 2928 2927 2907 2923 2921 2928 2904 2911 2915 2914 2903 2920 2915 2924 2925 2928 2900 2910 2928 2912 2935 2928 2906 2910 2913 2922 2915 2928 2921 2902 2912 2916 2907 2922 2926 2902 2919 2922 2926 2929 2911 2930 2909 2903 2930 2903 2915 2903 2928 2892 2911 2926 2891 2923 2911 2911 2923 2926 2905 2910 2923 2926 2908 2926 2884 2918 2917 2900 2912 2909 2906 2920 2911 2924 2921 2914 2897 2890 2928 2894 2909 2917 2902 2924 2918 2904 2921 2902 2905 2903 2907 2909 2914 2897 2911 2908 2927 2915 2896 2914 2900 2937 2909 2914 2905 2906 2909 2933 2916 2914 2908 2917 2924 2918 2899 2910 2922 2897 2910 2917 2921 2901 2896 2896 2950 2907 2934 2911 2933 2929 2892 2916 2910 2904 2916 2926 2914 2911 2915 2908 2900 2908 2907 2911 2929 2907 2921 2929 2902 2904 2895 2902 2916 2916 2904 2899 2906 2920 2927 2930 2914 2908 2922 2906 2943 2919 2945 2917 2909 2909 2919 2914 2908 2912 2920 2928 2917 2913 2930 2924 2920 2912 2920 2927 2912 2912 2902 2916 2927 2905 2940 2908 2910 2926 2903 2914 2930 2914 2923 2920 2921 2910 2927 2941 2933 2901 2920 2933 2912 2889 2922 2913 2923 2916 2914 2917 2927 2919 2903 2913 2909 2925 2920 2923 2925 2916 2932 2902 2913 2922 2920 2911 2930 2911 2931 2902 2920 2933 2913 2935 2913 2915 2911 2930 2918 2895 2932 2912 2912 2938 2918 2925 2924 2932 2916 2911 2937 2924 2944 2922 2907 2930 2938 2917 2924 2921 2931 2918 2935 2931 2925 2923 2929 2913 2915 2911 2905 2921 2938 2936 2921 2905 2938 2925 2928 2924 2938 2948 2947 2932 2921 2923 2935 2918 2926 2920 2926 2943 2942 2914 2927 2954 2927 2921 2932 2931 2921 2942 2927 2941 2898 2928 2920 2925 2927 2922 2961 2933 2922 2950 2937 2941 2933 2901 2953 2936 2924 2949 2944 2922 2905 2923 2933 2927 2914 2925 2912 2910 2924 2942 2918 2923 2925 2911 2924 2928 2932 2938 2950 2950 2916 2907 2909 2937 2928 2920 2943 2949 2945 2920 2947 2924 2934 2928 2930 2948 2944 2929 2924 2936 2925 2929 2917 2932 2942 2941 2949 2913 2941 2923 2939 2934 2923 2926 2938 2922 2938 2914 2930 2951 2937 2925 2932 2925 2924 2917 2920 2927 2944 2932 2919 2935 2942 2917 2934 2919 2944 2959 2950 2935 2927 2942 2956 2921 2932 2935 2933 2928 2937 2927 2927 2915 2933 2932 2927 2925 2932 2931 2928 2944 2929 2936 2929 2935 2945 2916 2939 2924 2934 2903 2935 2927 2932 2940 2940 2924 2926 2948 2919 2957 2940 2938 2944 2943 2942 2942 2922 2945 2934 2932 2946 2940 2953 2930 2928 2925 2941 2946 2918 2947 2929 2927 2939 2930 2950 2936 2925 2943 2953 2949 2921 2915 2929 2936 2918 2942 2958 2936 2921 2951 2933 2948 2943 2944 2936 2912 2962 2948 2947 2930 2911 2921 2932 2911 2949 2928 2925 2929 2933 2918 2946 2927 2921 2928 2935 2951 2964 2937 2935 2949 2933 2937 2936 2945 2929 2934 2945 2935 2907 2944 2939 2911 2929 2945 2963 2953 2938 2931 2931 2964 2945 2925 2912 2942 2942 2963 2966 2950

Tree=0
num_leaves=31
num_cat=0
split_feature=294 283 436 210 77 60 72 146 415 303 373 544 175 61 318 317 171 298 438 373 390 114 460 0 87 513 13 262 240 106
split_gain=157.929 152.867 113.609 97.9754 100.099 96.3358 83.0353 114.997 78.4474 78.2494 44.0785 54.2455 35.14 34.3084 82.5338 33.4739 27.0918 16.2056 46.7046 72.3535 13.4404 23.8824 13.0874 10.7224 10.5198 8.20942 7.49352 7.12694 15.0524 6.37516
threshold=-1179.9655945983043 383520280.40144461 84599850.848779574 8.5000000000000018 127418.67332025296 66442.996478083936 3.7334484852674575e-07 2.6327619939311698e-07 11044.780499536824 14916.831228907475 10425.767375007214 20708.35875423258 175781.47246668563 182527.22086655369 346012.66423974751 77616.159891797681 14002.040973699737 18608.116047010011 130594497.91591437 8605.8461964093658 143156.36875543403 169242.36564472981 1164.6037698210332 15730.263234529031 41.384998034738558 828.24092272038661 -1021.9363076730843 3549.5902731564252 16070.230405061238 3196.7043588382171
decision_type=2 2 2 2 2 2 2 2 2 2 2 2 2 2 2 2 2 2 2 2 2 2 2 2 2 2 2 2 2 2
left_child=1 2 5 10 8 9 7 16 -5 -1 22 12 24 27 26 -14 -7 23 19 -19 21 -20 -4 25 -12 29 -15 28 -3 -2
right_child=17 13 3 4 -6 6 -8 -9 -10 -11 11 -13 15 14 -16 -17 -18 18 20 -21 -22 -23 -24 -25 -26 -27 -28 -29 -30 -31
leaf_value=-0.0032008424116860348 -0.016936686774460731 -0.017968489559653533 -0.01780229961853938 -0.0068765195162385426 -0.016126273203564377 -0.0025452539653335014 -0.017730175337760352 0.012601624024016829 0.019109624013292578 0.021104961446832483 -0.018638366602116273 0.0019999612503778658 0.0023351825875323716 -0.010623070311816363 0.0070434831650089923 -0.012828731332636971 -0.017570739892195597 -0.017068626784417926 -0.0034127551588136237 0.0056793636278342913 -0.017571669291944786 -0.018866674355315 -0.0094895355705388682 -0.01622600664156975 -0.010683026828548232 -0.018208542064941047 -0.017788576642583528 -0.018158614835135443 -0.0080605372834735619 -0.011748776403184313
leaf_weight=27 1815 46 193 21 29 21 48 35 26 26 68 30 24 20 20 37 28 29 20 27 173 20 21 2082 22 609 54 381 23 24
leaf_count=27 1815 46 193 21 29 21 48 35 26 26 68 30 24 20 20 37 28 29 20 27 173 20 21 2082 22 609 54 381 23 24
internal_value=-0.0158006 -0.0125559 -0.00930566 -0.0119138 -0.00151603 -0.00266549 -0.00723805 -0.00124255 0.00749879 0.00872276 -0.0139144 -0.0102821 -0.0127222 -0.0164753 -0.0109806 -0.0068626 -0.0111312 -0.0166119 -0.0142273 -0.00610085 -0.0163638 -0.0111397 -0.0169866 -0.0167536 -0.0166937 -0.0172022 -0.015852 -0.0176231 -0.0146658 -0.016869
internal_weight=0 1200 656 471 76 185 132 84 47 53 395 181 151 544 94 61 49 4799 269 56 213 40 214 4530 90 2448 74 450 69 1839
internal_count=5999 1200 656 471 76 185 132 84 47 53 395 181 151 544 94 61 49 4799 269 56 213 40 214 4530 90 2448 74 450 69 1839
is_linear=0
shrinkage=1


Tree=1
num_leaves=31
num_cat=0
split_feature=294 283 436 210 77 32 347 415 165 373 544 175 61 318 61 517 170 298 438 373 390 114 460 354 0 87 49 513 13 262
split_gain=154.786 149.825 111.348 96.0257 98.1067 95.1655 85.6259 76.8863 57.6531 43.2013 53.166 34.4407 33.6257 80.8913 33.0806 24.9837 39.2359 15.8831 45.7751 70.9137 13.1729 23.4071 12.827 10.7163 10.3708 10.3104 7.46324 7.39096 7.3444 6.98511
threshold=-1179.9655945983043 383520280.40144461 84599850.848779574 8.5000000000000018 127418.67332025296 -51.487103395582196 15097.800737345508 11044.780499536824 119.84967801748816 10425.767375007214 20708.35875423258 175781.47246668563 182527.22086655369 346012.66423974751 131477.60029663309 8063.5294236290529 12594.416572721026 18608.116047010011 130594497.91591437 8605.8461964093658 143156.36875543403 169242.36564472981 1164.6037698210332 353469.75033532229 17014.040418676344 41.384998034738558 -2573.5760925681361 1241.0498105420359 -1021.9363076730843 3549.5902731564252
decision_type=2 2 2 2 2 2 2 2 2 2 2 2 2 2 2 2 2 2 2 2 2 2 2 2 2 2 2 2 2 2
left_child=1 2 5 9 7 8 -7 -5 15 22 11 25 29 28 -13 -1 -17 23 19 -19 21 -20 -4 24 26 -11 -2 -28 -14 -3
right_child=17 12 3 4 -6 6 -8 -9 -10 10 -12 14 13 -15 -16 16 -18 18 20 -21 -22 -23 -24 -25 -26 -27 27 -29 -30 -31
leaf_value=-0.0023011986918281763 -0.0028967641424872399 0.0011234142876945545 -0.0019816818321003083 0.0088348402949937049 -0.00032241571823070787 0.012784050818100306 0.036485912016144505 0.034561121578399953 0.01855473193443484 -0.0028093880765920724 0.017622556985666355 0.0031194236958062421 0.0051257547792047265 0.022615642210468651 0.018314247759787933 0.017022356003522875 -0.0012885394075419754 -0.0012553457591425758 0.012263966988772156 0.021265165333256678 -0.0017533577574320096 -0.0030354128368198876 0.0062479544963155477 0.0057210238697007303 -0.00027422112985160045 0.0050663981041659343 -0.00096164536354165892 -0.0025263334155559191 -0.0019680960397063583 -0.0023344338766856515
leaf_weight=40 269 69 193 21 29 35 27 26 36 68 30 38 20 20 23 25 22 29 20 27 173 20 21 24 1427 22 2466 344 54 381
leaf_count=40 269 69 193 21 29 35 27 26 36 68 30 38 20 20 23 25 22 29 20 27 173 20 21 24 1427 22 2466 344 54 381
internal_value=0 0.00321227 0.00642999 0.00384794 0.0141417 0.0130038 0.0231058 0.0230664 0.00791165 0.00186736 0.00546334 0.0030476 -0.000667928 0.00477182 0.00884862 0.00350762 0.0084513 -0.000803234 0.0015576 0.00960276 -0.000557558 0.00461428 -0.0011741 -0.000943425 -0.000978921 -0.000884196 -0.00130552 -0.00115319 -5.08391e-05 -0.00180423
internal_weight=0 1200 656 471 76 185 62 47 123 395 181 151 544 94 61 87 47 4799 269 56 213 40 214 4530 4506 90 3079 2810 74 450
internal_count=5999 1200 656 471 76 185 62 47 123 395 181 151 544 94 61 87 47 4799 269 56 213 40 214 4530 4506 90 3079 2810 74 450
is_linear=0
shrinkage=0.01


Tree=2
num_leaves=31
num_cat=0
split_feature=294 283 473 78 486 89 415 458 26 61 318 125 346 277 462 248 358 298 438 373 399 355 390 114 297 354 0 90 175 49
split_gain=151.706 146.909 132.66 133.706 87.5113 68.4109 92.7693 81.1964 64.1998 43.4461 104.943 42.1259 39.9961 39.895 28.0441 22.5884 38.8538 15.5671 44.8642 69.5025 14.0284 13.3913 12.9108 22.9413 10.9298 10.5031 10.1645 7.33168 12.3273 7.31472
threshold=-1179.9655945983043 322753798.44782555 84531670.077364489 92363.704664176563 9608.10284617252 -67.362168602128321 10425.767375007214 1241.6534662695215 177395529.7097258 182527.22086655369 346012.66423974751 -395.56874507327524 222.26304126074808 14671.630606367571 3631.2291248034221 7.5000000000000009 100970770.3642903 18608.116047010011 130594497.91591437 8605.8461964093658 84599850.848779574 88496288.52921395 143156.36875543403 169242.36564472981 -1081.4252801587659 353469.75033532229 17014.040418676344 2.6864738334360458e-07 365206.96886252786 -2573.5760925681361
decision_type=2 2 2 2 2 2 2 2 2 2 2 2 2 2 2 2 2 2 2 2 2 2 2 2 2 2 2 2 2 2
left_child=1 2 3 4 8 15 14 -8 -1 21 20 -6 -9 -5 -7 24 -17 25 19 -19 -11 -3 23 -20 -4 26 29 28 -23 -2
right_child=17 9 5 13 11 6 7 12 -10 10 -12 -13 -14 -15 -16 16 -18 18 22 -21 -22 27 -24 -25 -26 -27 -28 -29 -30 -31
leaf_value=0.02565462467353791 -0.0028677964775968468 0.0066689413078129291 0.0055515762130962688 -0.00039580958924637587 0.024021963788115462 -0.00079484545790390769 0.0040711334609874975 0.016994027276946738 0.00062040841450826043 0.00611943359777797 0.024533906698874803 0.043865993738174444 0.036533240258693693 0.01409942961508228 0.012632121432572602 0.01591827853218369 -0.00039319329976569861 -0.0012427924021050848 0.012141327423974873 0.021052512527891882 -0.0020111346617341041 -0.001205925111662211 -0.0017358242179606263 -0.0030050586946308612 -0.0022976858028845425 0.0056638137155581112 -0.00027147883841451866 -0.0029764801528152276 0.0064523598551750189 -0.0011416624357195337
leaf_weight=20 269 20 20 49 23 70 27 22 21 32 23 20 20 31 20 23 40 29 20 27 63 244 173 20 157 24 1427 232 23 2810
leaf_count=20 269 20 20 49 23 70 27 22 21 32 23 20 20 31 20 23 40 29 20 27 63 244 173 20 157 24 1427 232 23 2810
internal_value=0 0.00318014 0.00690192 0.0144734 0.0232851 0.00378984 0.00887709 0.0176008 0.0128322 -0.000109271 0.0053678 0.0332517 0.0262984 0.0052211 0.00218892 0.000419531 0.00556179 -0.000795202 0.00154202 0.00950673 0.000727583 -0.00135454 -0.000551982 0.00456813 -0.00141076 -0.000933991 -0.000969132 -0.00167612 -0.000546223 -0.00129247
internal_weight=0 1200 563 164 84 399 159 69 41 637 118 43 42 80 90 240 63 4799 269 56 95 519 213 40 177 4530 4506 499 267 3079
internal_count=5999 1200 563 164 84 399 159 69 41 637 118 43 42 80 90 240 63 4799 269 56 95 519 213 40 177 4530 4506 499 267 3079
is_linear=0
shrinkage=0.01


Tree=3
num_leaves=31
num_cat=0
split_feature=294 283 436 210 77 72 146 347 341 415 373 544 205 175 317 61 318 493 298 438 373 390 114 460 354 87 0 513 13 262
split_gain=148.687 144.271 107.496 92.9944 94.985 92.608 126.936 95.7928 80.5259 74.1172 42.1586 51.6473 38.0341 33.5812 32.3962 32.2369 77.6012 23.6167 15.2573 43.9714 68.1194 12.6539 22.4848 12.4846 10.2941 10.0132 10.0107 7.81751 7.16957 6.8168
threshold=-1179.9655945983043 383520280.40144461 84599850.848779574 8.5000000000000018 127418.67332025296 4.0910433751585306e-07 2.3622400883505531e-07 15361.173757545526 1886.3532849958995 11044.780499536824 10425.767375007214 20708.35875423258 13192.607664647172 175781.47246668563 77616.159891797681 182527.22086655369 346012.66423974751 626.09971843176402 18608.116047010011 130594497.91591437 8605.8461964093658 143156.36875543403 169242.36564472981 1164.6037698210332 353469.75033532229 89.084179014592522 15730.263234529031 828.24092272038661 -1021.9363076730843 3549.5902731564252
decision_type=2 2 2 2 2 2 2 2 2 2 2 2 2 2 2 2 2 2 2 2 2 2 2 2 2 2 2 2 2 2
left_child=1 2 5 10 9 6 12 8 -8 -5 23 13 -1 25 -15 29 28 -7 24 20 -20 22 -21 -4 26 -12 27 -2 -17 -3
right_child=18 15 3 4 -6 17 7 -9 -10 -11 11 -13 -14 14 -16 16 -18 -19 19 21 -22 -23 -24 -25 -26 -27 -28 -29 -30 -31
leaf_value=0.017566399654107435 -0.001069569070076243 0.0011203146546377219 -0.0019814606303233929 0.0087074779998511081 -0.00033328870504066864 -0.0035975449114586367 0.0048891165511061744 0.041165612406200827 0.032058115406427536 0.033966246637014245 -0.0027314276045755197 0.017356414036204418 0.00094714384339749812 0.017767822910488274 0.0028499885532702949 0.0050580213610082869 0.022144147267565133 0.010173777926145704 -0.0012303643037789855 0.012019914023578167 0.020841988202322415 -0.0017184660113901116 -0.0029750079922378067 0.0061375961701075231 0.0056071754674970487 0.0051548738744375969 -0.00044926439551333264 -0.0023833462533129511 -0.0019508886921943891 -0.0022956186158066684
leaf_weight=21 1829 69 193 21 29 33 24 27 20 26 69 30 40 24 37 20 20 20 29 20 27 173 20 21 24 21 2075 602 54 381
leaf_count=21 1829 69 193 21 29 33 24 27 20 26 69 30 40 24 37 20 20 20 29 20 27 173 20 21 24 21 2075 602 54 381
internal_value=0 0.00314834 0.00630586 0.00376886 0.0138989 0.0127649 0.0172481 0.0263376 0.0172387 0.0226804 0.0018198 0.00537212 0.00666853 0.00299113 0.0087193 -0.000659253 0.00466697 0.00159918 -0.00078725 0.0015266 0.00941166 -0.000546462 0.00452245 -0.00118473 -0.000924651 -0.000891291 -0.000959441 -0.00139491 -5.65887e-05 -0.00177184
internal_weight=0 1200 656 471 76 185 132 71 44 47 395 181 61 151 61 544 94 53 4799 269 56 213 40 214 4530 90 4506 2431 74 450
internal_count=5999 1200 656 471 76 185 132 71 44 47 395 181 61 151 61 544 94 53 4799 269 56 213 40 214 4530 90 4506 2431 74 450
is_linear=0
shrinkage=0.01


Tree=4
num_leaves=31
num_cat=0
split_feature=294 283 436 210 77 60 72 146 303 415 358 354 61 318 82 187 390 79 169 298 438 373 390 114 354 0 513 13 262 240
split_gain=145.728 141.4 105.357 91.1438 93.0948 91.0709 78.7392 108.688 74.9281 72.6423 41.7507 68.1686 31.5954 76.057 26.0837 19.892 17.725 16.498 19.2391 14.9536 43.0964 66.7638 12.4021 22.0373 10.0892 9.82142 8.71762 7.02689 6.68114 14.7189
threshold=-1179.9655945983043 383520280.40144461 84599850.848779574 8.5000000000000018 127418.67332025296 66442.996478083936 3.7334484852674575e-07 2.6327619939311698e-07 14916.831228907475 11044.780499536824 83203080.95876269 259740.1227730329 182527.22086655369 346012.66423974751 421438534.58359379 -1776.2034755204993 93319.385061157038 199848.38547840578 13532.778422509264 18608.116047010011 130594497.91591437 8605.8461964093658 143156.36875543403 169242.36564472981 353469.75033532229 18611.39713386061 1221.4132899569906 -1021.9363076730843 3549.5902731564252 16070.230405061238
decision_type=2 2 2 2 2 2 2 2 2 2 2 2 2 2 2 2 2 2 2 2 2 2 2 2 2 2 2 2 2 2
left_child=1 2 5 10 9 8 7 14 -1 -5 11 15 28 27 -7 -4 -12 -18 -19 24 21 -21 23 -22 25 26 -2 -14 29 -3
right_child=19 12 3 4 -6 6 -8 -9 -10 -11 16 -13 13 -15 -16 -17 17 18 -20 20 22 -23 -24 -25 -26 -27 -28 -29 -30 -31
leaf_value=0.012042147898011737 -0.00098329819257467871 -0.0021567509307161624 0.0098813299050865087 0.0086204030648583466 -0.00032995573662478352 -0.0016428917235341565 -0.0020256829572220646 0.027488825879724961 0.035826520140354451 0.033626583310273975 0.0071470979494915807 0.02316486181183295 0.0050074411276727912 0.0219227060303092 0.013201724336482586 -0.0016897009991300414 -0.0019218897739020197 0.011169461972363617 -0.00082096487465605611 -0.0012180607175004893 0.011899715149775147 0.020633567885271514 -0.0017012812293907143 -0.00294525795802474 0.0055511038354597985 3.1946384875836783e-05 -0.0024299247388760532 -0.0019313797699632468 -0.0022726624255790316 0.0076408365174480113
leaf_weight=27 3196 46 24 21 29 29 48 35 26 26 32 22 20 20 20 39 223 23 32 29 20 27 173 20 24 831 479 54 381 23
leaf_count=27 3196 46 24 21 29 29 48 35 26 26 32 22 20 20 20 39 223 23 32 29 20 27 173 20 24 831 479 54 381 23
internal_value=0 0.00311686 0.0062428 0.00373118 0.0137599 0.0126373 0.00819141 0.0140298 0.02371 0.0224536 0.0018016 0.00801036 -0.00065266 0.0046203 0.00441614 0.00271831 9.92015e-05 -0.000712067 0.00419321 -0.000779377 0.00151134 0.00931755 -0.000540998 0.00447723 -0.000915404 -0.000949846 -0.00117185 -5.60228e-05 -0.00175412 0.00110911
internal_weight=0 1200 656 471 76 185 132 84 53 47 395 85 544 94 49 63 310 278 55 4799 269 56 213 40 4530 4506 3675 74 450 69
internal_count=5999 1200 656 471 76 185 132 84 53 47 395 85 544 94 49 63 310 278 55 4799 269 56 213 40 4530 4506 3675 74 450 69
is_linear=0
shrinkage=0.01


Tree=5
num_leaves=31
num_cat=0
split_feature=294 283 473 78 486 89 370 414 214 26 61 318 125 277 248 358 298 438 373 399 355 390 133 297 52 354 425 388 170 175
split_gain=142.828 138.624 126.64 127.936 84.1184 66.0636 88.5812 82.7591 65.6903 61.7259 41.1365 99.2706 40.3492 38.6515 21.7433 37.3392 14.6561 42.2388 65.4352 13.5409 12.7735 12.1553 21.5988 10.5574 9.96435 14.302 8.73272 8.67916 7.84211 13.5224
threshold=-1179.9655945983043 322753798.44782555 84531670.077364489 92363.704664176563 9608.10284617252 -67.362168602128321 -1461.289572470205 -204.71551984953018 -988.52986658681345 177395529.7097258 182527.22086655369 346012.66423974751 -395.56874507327524 14671.630606367571 7.5000000000000009 100970770.3642903 18608.116047010011 130594497.91591437 8605.8461964093658 84599850.848779574 88496288.52921395 143156.36875543403 170774.20036124074 -1081.4252801587659 -2482.7095029778379 353469.75033532229 1904.9882786256233 15990.824319189815 9140.6514176896872 124222.48148947302
decision_type=2 2 2 2 2 2 2 2 2 2 2 2 2 2 2 2 2 2 2 2 2 2 2 2 2 2 2 2 2 2
left_child=1 2 3 4 9 14 7 8 -7 -1 20 19 -6 -5 23 -16 24 18 -18 -12 -3 22 -19 -4 -2 27 -8 28 29 -26
right_child=16 10 5 13 12 6 26 -9 -10 -11 11 -13 -14 -15 15 -17 17 21 -20 -21 -22 -23 -24 -25 25 -27 -28 -29 -30 -31
leaf_value=0.025042843751609329 -0.0029295164188652329 0.0065148993898183107 0.0053953118938952684 -0.00048044653419329196 0.023456623755071477 0.019303969334966194 -0.0035389049500226979 0.02900848851121705 -0.0011417885017440173 0.00049568958048309595 0.0060041491599986327 0.023860803500789667 0.042877685427665714 0.013787093590344152 0.015546117865520974 -0.00044426395340997258 -0.001205880056167471 0.01178072839602828 0.020427232184619816 -0.0019838816873610967 -0.0016354092824196289 -0.0016842685031537722 -0.0029158160581719129 -0.0023190529233402318 -0.0014745134211355641 0.0076391245189588522 0.0036888461711350831 -0.00030665815695164527 -0.0013007279565562977 0.0090721563012339176
leaf_weight=20 231 20 20 49 23 30 35 29 33 21 32 23 20 31 23 40 29 20 27 63 499 173 20 157 31 20 32 1793 2435 20
leaf_count=20 231 20 20 49 23 30 35 29 33 21 32 23 20 31 23 40 29 20 27 63 499 173 20 157 31 20 32 1793 2435 20
internal_value=0 0.00308569 0.00670098 0.0140987 0.0227181 0.00366033 0.00865954 0.0150292 0.00859429 0.0124699 -0.000109615 0.00521989 0.0324897 0.00504823 0.000348355 0.00539349 -0.000771583 0.00149623 0.00922437 0.000706823 -0.00132133 -0.000535588 0.00443246 -0.00144737 -0.00090625 -0.000797533 -8.68447e-05 -0.000836966 -0.00121944 0.00266144
internal_weight=0 1200 563 164 84 399 159 92 63 41 637 118 43 80 240 63 4799 269 56 95 519 213 40 177 4530 4299 67 4279 2486 51
internal_count=5999 1200 563 164 84 399 159 92 63 41 637 118 43 80 240 63 4799 269 56 95 519 213 40 177 4530 4299 67 4279 2486 51
is_linear=0
shrinkage=0.01


Tree=6
num_leaves=31
num_cat=0
split_feature=294 283 436 177 255 179 210 77 33 415 373 544 175 61 61 318 173 298 438 373 460 390 114 0 87 513 13 262 240 106
split_gain=139.986 136.146 101.796 88.782 112.797 106.83 88.316 90.1733 71.9179 70.2792 40.8306 49.8276 32.4686 31.2996 30.2861 72.9586 27.3728 14.3644 41.3982 64.1331 12.0402 11.9134 21.3404 9.90162 9.62251 7.71496 6.8595 6.54186 14.4102 6.24713
threshold=-1179.9655945983043 383520280.40144461 84599850.848779574 306712829.48996168 -489.33449200698215 250778196.1710383 8.5000000000000018 127418.67332025296 23.219164239894024 11044.780499536824 10425.767375007214 20708.35875423258 175781.47246668563 131477.60029663309 182527.22086655369 346012.66423974751 113236.04250082471 18608.116047010011 130594497.91591437 8605.8461964093658 1164.6037698210332 143156.36875543403 169242.36564472981 15730.263234529031 89.084179014592522 828.24092272038661 -1021.9363076730843 3549.5902731564252 16070.230405061238 3196.7043588382171
decision_type=2 2 2 2 2 2 2 2 2 2 2 2 2 2 2 2 2 2 2 2 2 2 2 2 2 2 2 2 2 2
left_child=1 2 3 4 8 -6 10 9 16 -8 20 12 24 -14 27 26 -1 23 19 -19 -4 22 -20 25 -12 29 -16 28 -3 -2
right_child=17 14 6 -5 5 -7 7 -9 -10 -11 11 -13 13 -15 15 -17 -18 18 21 -21 -22 -23 -24 -25 -26 -27 -28 -29 -30 -31
leaf_value=-0.0038849966024810619 -0.0010723129060939108 -0.0021206011975427037 -0.0019853167372805166 -0.00018122999194189148 0.010374641221761705 0.037133770460212552 0.0084751262391606959 -0.00034173776877337493 0.022037803630989332 0.033071219531389383 -0.0027102522455338062 0.017021144161000847 0.0029708388506581905 0.017750969304014808 0.0049412593431770804 0.021464870861265809 0.010719606039069948 -0.0011938212773409383 0.011692303635179997 0.020222959860607431 0.0059879390327703388 -0.001667425735729795 -0.0029160404317080976 -0.00039023272458565223 0.0050206685270227135 -0.0023038840285549782 -0.0019144161402558288 -0.0022355069277632074 0.0075736951673119933 0.004063240096050625
leaf_weight=33 1815 46 193 43 25 37 21 29 26 26 69 30 38 23 20 20 21 29 20 27 21 173 20 2082 21 609 54 381 23 24
leaf_count=33 1815 46 193 43 25 37 21 29 26 26 69 30 38 23 20 20 21 29 20 27 21 173 20 2082 21 609 54 381 23 24
internal_value=0 0.00305483 0.00612216 0.0124076 0.0162198 0.0263438 0.00365334 0.0135252 0.00837362 0.0220815 0.00175394 0.00524986 0.0029112 0.00854367 -0.000644001 0.00451855 0.00179457 -0.000763868 0.00148126 0.00913213 -0.00120289 -0.000530232 0.00438813 -0.000897188 -0.000906371 -0.00132835 -6.15309e-05 -0.0017224 0.00111083 -0.00100529
internal_weight=0 1200 656 185 142 62 471 76 80 47 395 181 151 61 544 94 54 4799 269 56 214 213 40 4530 90 2448 74 450 69 1839
internal_count=5999 1200 656 185 142 62 471 76 80 47 395 181 151 61 544 94 54 4799 269 56 214 213 40 4530 90 2448 74 450 69 1839
is_linear=0
shrinkage=0.01


Tree=7
num_leaves=31
num_cat=0
split_feature=294 283 436 72 146 347 210 77 341 415 358 354 6 61 318 493 187 390 79 169 298 227 214 390 52 354 21 170 175 542
split_gain=137.2 133.437 99.7703 87.7887 120.083 91.7936 86.5585 88.3789 76.982 68.8807 40.1281 65.7893 36.6177 29.6834 71.5068 22.6055 19.1384 17.0966 15.8481 18.5005 14.0786 40.919 59.4949 14.6795 9.75132 14.0323 8.53036 8.3751 9.29538 7.29493
threshold=-1179.9655945983043 383520280.40144461 84599850.848779574 4.0910433751585306e-07 2.3622400883505531e-07 15361.173757545526 8.5000000000000018 127418.67332025296 1886.3532849958995 11044.780499536824 83203080.95876269 259740.1227730329 214077156.91595206 182527.22086655369 346012.66423974751 626.09971843176402 -1776.2034755204993 93319.385061157038 199848.38547840578 13532.778422509264 18608.116047010011 2972.3955218009373 -1943.0134203057976 98160.453452798203 -2482.7095029778379 353469.75033532229 17178.331908094056 9140.6514176896872 124222.48148947302 10120.843028775822
decision_type=2 2 2 2 2 2 2 2 2 2 2 2 2 2 2 2 2 2 2 2 2 2 2 2 2 2 2 2 2 2
left_child=1 2 3 4 12 8 10 9 -6 -8 11 16 -1 -3 -15 -5 -4 -12 -19 -20 24 23 -23 -22 -2 26 27 28 -26 -25
right_child=20 13 6 15 5 -7 7 -9 -10 -11 17 -13 -14 14 -16 -17 -18 18 19 -21 21 22 -24 29 25 -27 -28 -29 -30 -31
leaf_value=0.015347851209629041 -0.0028897375945259869 -0.0017051777390601475 0.0096504573632652559 -0.0036720176108858806 0.0045075523174818955 0.040004462936410204 0.008390374992574964 -0.00033832038913307524 0.031071970380842685 0.03274050781360039 0.0069892487686593089 0.022710996182127432 -0.00031929885596036913 -6.0915561216707169e-05 0.021250222472473983 0.0098012485997751361 -0.0016992627089031233 -0.0019151072642314896 0.010919373781298813 -0.00083864455085858936 0.0079699360830709342 -0.0019490991882048548 0.021881670268591155 -0.0021728758845203275 -0.00057870179880410439 0.0075760619078064344 -0.000147552109632087 -0.0011858188628990824 0.0082225182657130053 0.0020072436889890452
leaf_weight=26 231 450 24 33 24 27 21 29 20 26 32 22 35 74 20 20 39 223 23 32 20 20 22 149 30 20 1310 2919 20 58
leaf_count=26 231 450 24 33 24 27 21 29 20 26 32 22 35 74 20 20 39 223 23 32 20 20 22 149 30 20 1310 2919 20 58
internal_value=0 0.00302429 0.00606094 0.0122836 0.0166486 0.0254893 0.00361681 0.01339 0.0165823 0.0218607 0.0017364 0.00782331 0.0063585 -0.000637561 0.00447337 0.00141223 0.00262444 6.74065e-05 -0.000729352 0.00407834 -0.000756229 0.00146645 0.0105337 -0.000211188 -0.000888216 -0.000780667 -0.000819726 -0.00111631 0.00294179 -0.00100163
internal_weight=0 1200 656 185 132 71 471 76 44 47 395 85 61 544 94 53 63 310 278 55 4799 269 42 227 4530 4299 4279 2969 50 207
internal_count=5999 1200 656 185 132 71 471 76 44 47 395 85 61 544 94 53 63 310 278 55 4799 269 42 227 4530 4299 4279 2969 50 207
is_linear=0
shrinkage=0.01


Tree=8
num_leaves=31
num_cat=0
split_feature=294 283 436 87 373 210 77 25 415 547 203 373 544 175 317 61 318 298 438 373 516 460 390 248 0 87 513 13 262 240
split_gain=134.47 130.782 97.7848 86.3338 85.1346 84.836 86.6201 84.5043 67.51 46.6219 68.3937 39.7707 48.5466 31.5456 30.5944 29.0927 70.0838 13.7984 40.2094 62.5751 11.9071 11.7007 11.4804 20.8988 9.62164 9.3983 7.56397 6.723 6.41167 14.1234
threshold=-1179.9655945983043 383520280.40144461 84599850.848779574 -103.68787687920822 9608.10284617252 8.5000000000000018 127418.67332025296 129441829.2340426 11044.780499536824 1687.5222878891643 14868.162509977032 10425.767375007214 20708.35875423258 175781.47246668563 77616.159891797681 182527.22086655369 346012.66423974751 18608.116047010011 130594497.91591437 8605.8461964093658 0.10566911263361829 1164.6037698210332 143156.36875543403 5.5000000000000009 15730.263234529031 41.384998034738558 828.24092272038661 -1021.9363076730843 3549.5902731564252 16070.230405061238
decision_type=2 2 2 2 2 2 2 2 2 2 2 2 2 2 2 2 2 2 2 2 2 2 2 2 2 2 2 2 2 2
left_child=1 2 3 7 -5 11 8 -1 -7 -9 20 21 13 25 -15 28 27 24 19 -19 -11 -4 23 -20 26 -13 -2 -17 29 -3
right_child=17 15 5 4 -6 6 -8 9 -10 10 -12 12 -14 14 -16 16 -18 18 22 -21 -22 -23 -24 -25 -26 -27 -28 -29 -30 -31
leaf_value=0.026437136271879789 -0.00098447455507313648 -0.0020823433877819259 -0.0019704797946958961 0.0092477904486915341 0.035429148806465999 0.0083064712832371396 -0.00033493728730185282 -0.0025000643289154944 0.03241310251446871 -0.0029953550361096859 0.02410198461264372 -0.0027401025288546566 0.016788262267286577 0.01720600841101259 0.0027089775421631494 0.0048924557724967597 0.021037720065563918 -0.0012077540933186639 -0.0029306547753512858 0.019947282936837937 0.0079166159369051456 0.0058895630850678395 -0.0016469569972883155 0.011525762412697076 -0.0003795973445964201 0.0047792447553100907 -0.0022702969804448987 -0.0018946628512262744 -0.0021961000593751306 0.0075150099012028914
leaf_weight=21 1839 46 193 23 27 21 29 51 26 20 23 68 30 24 37 20 20 29 20 27 20 21 173 20 2082 22 609 54 381 23
leaf_count=21 1839 46 193 23 27 21 29 51 26 20 23 68 30 24 37 20 20 29 20 27 20 21 173 20 2082 22 609 54 381 23
internal_value=0 0.00299404 0.00600033 0.0121607 0.0233857 0.00358064 0.0132561 0.00800331 0.0216421 0.00460761 0.0103614 0.00171904 0.00516929 0.00286088 0.00841273 -0.000631186 0.00442864 -0.000748667 0.00145179 0.008992 0.00246063 -0.00119917 -0.000530617 0.00429755 -0.000879334 -0.00090204 -0.00130435 -6.03065e-05 -0.00168813 0.00111677
internal_weight=0 1200 656 185 50 471 76 135 47 114 63 395 181 151 61 544 94 4799 269 56 40 214 213 40 4530 90 2448 74 450 69
internal_count=5999 1200 656 185 50 471 76 135 47 114 63 395 181 151 61 544 94 4799 269 56 40 214 213 40 4530 90 2448 74 450 69
is_linear=0
shrinkage=0.01


Tree=9
num_leaves=31
num_cat=0
split_feature=294 283 473 78 486 89 415 458 26 125 61 318 277 346 462 248 358 428 261 13 399 432 355 156 297 86 88 323 267 355
split_gain=131.794 128.257 119.035 121.452 80.0027 63.0121 83.9948 73.9858 58.4629 38.3957 38.2454 92.4459 37.3242 36.4882 26.2198 20.5542 35.6066 13.666 20.2448 65.6352 12.9536 12.8165 12.0643 10.6543 10.1343 8.1816 11.8846 7.19961 6.45647 9.9364
threshold=-1179.9655945983043 322753798.44782555 84531670.077364489 92363.704664176563 9608.10284617252 -67.362168602128321 10425.767375007214 1241.6534662695215 177395529.7097258 -395.56874507327524 182527.22086655369 346012.66423974751 14671.630606367571 222.26304126074808 3631.2291248034221 7.5000000000000009 100970770.3642903 15730.263234529031 20966.880246450834 -1429.6403893617166 84599850.848779574 365206.96886252786 88496288.52921395 102545023.63105793 -1081.4252801587659 -805.57037194691577 -2369.4199728637327 12.500000000000002 42512.773716110489 185507719.69707155
decision_type=2 2 2 2 2 2 2 2 2 2 2 2 2 2 2 2 2 2 2 2 2 2 2 2 2 2 2 2 2 2
left_child=1 2 3 4 8 15 14 -8 -1 -6 22 20 -5 -9 -7 24 -17 21 -19 -20 -12 25 -3 -21 -4 -2 -27 -24 -28 -30
right_child=17 10 5 12 9 6 7 13 -10 -11 11 -13 -14 -15 -16 16 -18 18 19 23 -22 -23 27 -25 -26 26 28 -29 29 -31
leaf_value=0.024253634568303824 -0.0022576125603735275 0.00633780169673264 0.0052173162326216698 -0.00063730845018765154 0.022729743706143418 -0.00087305109954572151 0.0037619881873467453 0.016092401112175799 0.00036411472729274205 0.04167482382059097 0.0058554123411886398 0.023018132525941599 0.01338311749600595 0.034755093336105346 0.012109863561578097 0.015078591338318329 -0.00053638898488134147 -0.00038155092908798898 0.020393242619931699 0.0062499449340005717 -0.0019574800831457925 0.006557771147095731 -0.0018974341041941574 -0.0014436084872836042 -0.0023408984504180372 0.0050799902441212913 -0.0011657088822544695 0.003005671900464222 0.007715849108727915 -0.00089642985497374785
leaf_weight=20 651 20 20 49 23 70 27 22 21 20 32 23 31 20 20 23 40 2041 20 24 63 21 467 72 157 32 1880 32 21 37
leaf_count=20 651 20 20 49 23 70 27 22 21 20 32 23 31 20 20 23 40 2041 20 24 63 21 467 72 157 32 1880 32 21 37
internal_value=0 0.0029641 0.00644159 0.0136137 0.0220119 0.00349366 0.00837605 0.0166769 0.0120175 0.0315414 -0.000109412 0.0050294 0.00479561 0.0249794 0.00201204 0.000259072 0.00516432 -0.00074118 -0.00015059 0.00391314 0.000674231 -0.00122335 -0.00127777 0.00047978 -0.00148686 -0.0012857 -0.000964522 -0.00158301 -0.00106433 0.00222181
internal_weight=0 1200 563 164 84 399 159 69 41 43 637 118 80 42 90 240 63 4799 2157 116 95 2642 519 96 177 2621 1970 499 1938 58
internal_count=5999 1200 563 164 84 399 159 69 41 43 637 118 80 42 90 240 63 4799 2157 116 95 2642 519 96 177 2621 1970 499 1938 58
is_linear=0
shrinkage=0.01


Tree=10
num_leaves=31
num_cat=0
split_feature=294 283 219 188 206 61 259 358 96 192 61 460 61 318 254 22 298 227 214 390 61 221 52 354 500 150 388 170 175 542
split_gain=129.171 125.915 95.3273 192.806 115.071 83.8393 71.1756 69.5359 39.4329 35.8322 29.5799 28.5593 27.8831 67.221 17.641 13.9567 13.4494 39.5676 57.7633 14.1564 11.5568 17.6967 9.54788 13.6981 8.42089 15.6219 8.3792 7.53441 13.0338 7.06232
threshold=-1179.9655945983043 383520280.40144461 -1089.4492011191608 -18.058411638892057 165738.62813914925 86822.894785933313 102.308410868639 160356479.38438052 43621.937919494267 2041.9752929917167 257007.4448795986 1221.4006108638855 182527.22086655369 346012.66423974751 -680.65114905779183 89184.586380177658 18608.116047010011 2972.3955218009373 -1943.0134203057976 98160.453452798203 202867.43558307047 0.10674233966318152 -2482.7095029778379 353469.75033532229 115070.04976062314 12507.799263160672 15990.824319189815 9140.6514176896872 124222.48148947302 10120.843028775822
decision_type=2 2 2 2 2 2 2 2 2 2 2 2 2 2 2 2 2 2 2 2 2 2 2 2 2 2 2 2 2 2
left_child=1 2 3 6 5 -5 9 14 -4 -1 15 20 -3 -14 -7 -11 22 19 -19 -18 -10 -22 -2 26 -17 -26 27 28 -24 -21
right_child=16 12 8 4 -6 7 -8 -9 11 10 -12 -13 13 -15 -16 24 17 18 -20 29 21 -23 23 -25 25 -27 -28 -29 -30 -31
leaf_value=0.015379545550793411 -0.002843304695521211 -0.0016574082959184631 0.01438597368342536 0.0105312834037789 -0.00028421978263751323 0.032514305364340544 0.01821497834767356 0.017895379799231888 -0.0021974991436582059 0.0066085570067938026 0.012410410591824489 0.01000707923148114 -6.5467714306873242e-05 0.020597161054611207 0.045796255588531495 -0.0024220478764317675 0.0078230212690541517 -0.0019448707188712434 0.021536545597694138 -0.002139677470268669 0.01042980411555618 -0.0027137822888436769 -0.0014273139131405659 0.0075002725350204859 0.007756030527611815 -0.0029046973856332314 -0.00027387902868002118 -0.001250426558978608 0.0089270656328299079 0.0019732562650059318
leaf_weight=20 231 450 21 29 23 20 33 25 176 29 22 26 74 20 20 116 20 20 22 149 20 21 31 20 27 28 1793 2435 20 58
leaf_count=20 231 450 21 29 23 20 33 25 176 29 22 26 74 20 20 116 20 20 22 149 20 21 31 20 27 28 1793 2435 20 58
internal_value=0 0.00293446 0.00588428 0.00901263 0.0197647 0.0246702 0.00443813 0.0309784 0.00123915 0.00255947 0.00140451 0.000103008 -0.000622675 0.00433084 0.0391553 0.000193859 -0.000733768 0.00143868 0.0103549 -0.000211025 -0.00108366 0.00369772 -0.000862772 -0.000756351 -0.000894013 0.00232875 -0.000794943 -0.00117075 0.00263323 -0.000987261
internal_weight=0 1200 656 392 117 94 275 65 264 242 222 243 544 94 40 200 4799 269 42 227 217 41 4530 4299 171 55 4279 2486 51 207
internal_count=5999 1200 656 392 117 94 275 65 264 242 222 243 544 94 40 200 4799 269 42 227 217 41 4530 4299 171 55 4279 2486 51 207
is_linear=0
shrinkage=0.01


Tree=11
num_leaves=31
num_cat=0
split_feature=331 319 219 220 165 452 150 96 208 282 292 79 354 261 522 334 475 415 314 106 275 394 361 470 465 21 391 13 447 273
split_gain=126.962 111.224 112.268 186.973 100.722 84.7849 73.7519 54.9908 52.2463 36.4579 36.1149 32.6344 81.2678 25.4664 22.6636 15.1056 43.782 64.8629 16.5712 12.0123 10.9264 10.7322 8.61291 8.6106 8.55962 7.79061 6.78627 6.42635 6.11046 5.32244
threshold=-1179.9655945983043 383520280.40144461 -1125.6799478525948 -26.171846245320314 102.308410868639 19697.531855202698 11690.127046536987 44602.627395803858 236466081.1118513 365206.96886252786 -439.28978921918781 182527.22086655369 346012.66423974751 21691.136419718299 3882.7045969440883 18608.116047010011 130594497.91591437 7966.9364610484863 96505.619212899459 1737.3086816799603 102.35900855272213 353469.75033532229 12.500000000000002 124644.54716037384 15730.835379249733 18611.39713386061 59367.848750853293 -1559.9689813722046 23.219164239894024 96.826032234974022
decision_type=2 2 2 2 2 2 2 2 2 2 2 2 2 2 2 2 2 2 2 2 2 2 2 2 2 2 2 2 2 2
left_child=1 2 3 4 9 6 -5 -4 -6 10 20 22 23 14 19 21 17 -17 -18 -9 -1 24 26 -13 27 -26 -3 -2 -22 -20
right_child=15 11 7 5 8 -7 -8 13 -10 -11 -12 12 -14 -15 -16 16 18 -19 29 -21 28 -23 -24 -25 25 -27 -28 -29 -30 -31
leaf_value=0.0056393367156386378 -0.003397726667705026 0.0037828046137001366 0.017453753221780062 0.02768748289038395 0.031301740407943729 0.037867847895622253 0.0058286685686713699 -0.0022453688261065601 0.0084442979265004388 0.01475918975870379 0.012909087177527987 0.0056962588541209702 0.022810325480997564 0.010198814583321412 0.0075048383433491952 -0.0017108529495696227 0.0081709218062460415 0.019827448201590572 0.0022649893582318771 0.0058461219258606435 -0.0025581209697727965 0.0058051848993636666 0.0039225630720870364 -0.0019847913627961166 -0.00075007394540658437 0.00073897507596271692 -0.0021850517295039819 -0.0011696717015996097 0.002655622125436951 -0.0021458070562366629
leaf_weight=25 137 20 20 29 20 25 33 222 20 22 23 20 20 24 31 27 20 29 33 20 114 24 27 54 1566 453 403 2350 28 160
leaf_count=25 137 20 20 29 20 25 33 222 20 22 23 20 20 24 31 27 20 29 33 20 114 24 27 54 1566 453 403 2350 28 160
internal_value=0 0.00290926 0.00568167 0.00968208 0.00531844 0.0223216 0.016053 0.00140362 0.019873 0.00257229 0.00116118 -0.000433929 0.00492503 0.000322802 -0.000545419 -0.000727467 0.00157486 0.00944291 -0.000493737 -0.00157665 -0.000456796 -0.000864184 -0.00155336 9.11682e-05 -0.000899706 -0.000415978 -0.00190288 -0.00129241 -0.00153006 -0.00139163
internal_weight=0 1200 656 339 252 87 62 317 40 212 190 544 94 297 273 4799 269 56 213 242 167 4530 450 74 4506 2019 423 2487 142 193
internal_count=5999 1200 656 339 252 87 62 317 40 212 190 544 94 297 273 4799 269 56 213 242 167 4530 450 74 4506 2019 423 2487 142 193
is_linear=0
shrinkage=0.01


Tree=12
num_leaves=31
num_cat=0
split_feature=331 319 219 220 165 452 150 96 208 282 292 79 354 261 522 334 268 252 150 70 106 275 394 361 470 465 21 391 13 447
split_gain=124.436 109.011 110.034 183.252 98.7175 83.0977 72.2843 53.8965 51.2066 35.7323 35.3962 31.985 79.6505 24.9597 22.2126 14.805 43.1624 64.5531 18.4023 22.6678 11.7732 10.709 10.5186 8.44152 8.43925 8.38928 7.63558 6.65123 6.29847 5.98886
threshold=-1179.9655945983043 383520280.40144461 -1125.6799478525948 -26.171846245320314 102.308410868639 19697.531855202698 11690.127046536987 44602.627395803858 236466081.1118513 365206.96886252786 -439.28978921918781 182527.22086655369 346012.66423974751 21691.136419718299 3882.7045969440883 18608.116047010011 2972.3955218009373 -1943.0134203057976 10972.773939669662 -501.94155798478329 1737.3086816799603 102.35900855272213 353469.75033532229 12.500000000000002 124644.54716037384 15730.835379249733 18611.39713386061 59367.848750853293 -1559.9689813722046 23.219164239894024
decision_type=2 2 2 2 2 2 2 2 2 2 2 2 2 2 2 2 2 2 2 2 2 2 2 2 2 2 2 2 2 2
left_child=1 2 3 4 9 6 -5 -4 -6 10 21 23 24 14 20 22 18 -18 19 -17 -9 -1 25 27 -13 28 -27 -3 -2 -23
right_child=15 11 7 5 8 -7 -8 13 -10 -11 -12 12 -14 -15 -16 16 17 -19 -20 -21 -22 29 -24 -25 -26 26 -28 -29 -30 -31
leaf_value=0.0055829433590173713 -0.0033637493677491689 0.003744976665824652 0.017279215566813947 0.02741060779301514 0.030988723635673524 0.037489168763160712 0.005770381761601928 -0.0022229151504517004 0.0083598550409078598 0.014611598193984141 0.01277999640158985 0.005639296175912023 0.022582222849130629 0.010096826665103436 0.0074297899332258013 0.013520241536200047 -0.0021310179191641508 0.022692128901200537 -0.0014807424022452557 -0.0015355971120297909 0.0057876606769859795 -0.0025325397817875473 0.0057471330130162337 0.0038833375382064665 -0.001964943414485013 -0.0007425732167828438 0.00073158533574122051 -0.0021632012256687489 -0.0011579749778596183 0.0026290658578467891
leaf_weight=25 137 20 20 29 20 25 33 222 20 22 23 20 20 24 31 20 20 22 187 20 20 114 24 27 54 1566 453 403 2350 28
leaf_count=25 137 20 20 29 20 25 33 222 20 22 23 20 20 24 31 20 20 22 187 20 20 114 24 27 54 1566 453 403 2350 28
internal_value=0 0.00288017 0.00562485 0.00958526 0.00526526 0.0220984 0.0158924 0.00138958 0.0196743 0.00254657 0.00114957 -0.00042959 0.00487578 0.000319574 -0.000539965 -0.000720193 0.00155911 0.0108716 -0.000163903 0.00599232 -0.00156088 -0.000452228 -0.000855542 -0.00153782 9.02565e-05 -0.000890709 -0.000411818 -0.00188385 -0.00127948 -0.00151476
internal_weight=0 1200 656 339 252 87 62 317 40 212 190 544 94 297 273 4799 269 42 227 40 242 167 4530 450 74 4506 2019 423 2487 142
internal_count=5999 1200 656 339 252 87 62 317 40 212 190 544 94 297 273 4799 269 42 227 40 242 167 4530 450 74 4506 2019 423 2487 142
is_linear=0
shrinkage=0.01


Tree=13
num_leaves=31
num_cat=0
split_feature=294 283 436 177 255 380 210 77 33 415 373 544 175 317 61 318 173 428 261 13 432 460 156 87 86 88 13 72 356 189
split_gain=121.97 120.003 91.5221 81.8485 105.962 99.9908 79.7606 81.4221 65.6375 63.4915 37.8784 45.5343 30.1538 29.1227 26.516 63.9397 25.3204 13.0473 19.3621 62.9974 12.3054 10.9557 10.2972 8.82555 7.96089 11.5412 6.52515 6.33925 8.48598 19.0196
threshold=-1179.9655945983043 383520280.40144461 84599850.848779574 306712829.48996168 -489.33449200698215 914.13722833573593 8.5000000000000018 127418.67332025296 23.219164239894024 11044.780499536824 10425.767375007214 20708.35875423258 175781.47246668563 77616.159891797681 182527.22086655369 346012.66423974751 113236.04250082471 15730.263234529031 20966.880246450834 -1429.6403893617166 365206.96886252786 1164.6037698210332 102545023.63105793 41.384998034738558 -805.57037194691577 -2369.4199728637327 -1021.9363076730843 2.7272865955809808e-07 179801103.5863063 0.12741355985671604
decision_type=2 2 2 2 2 2 2 2 2 2 2 2 2 2 2 2 2 2 2 2 2 2 2 2 2 2 2 2 2 2
left_child=1 2 3 4 8 -6 10 9 16 -8 21 12 23 -14 27 26 -1 20 -19 -20 24 -4 -21 -12 -2 -26 -16 28 29 -3
right_child=17 14 6 -5 5 -7 7 -9 -10 -11 11 -13 13 -15 15 -17 -18 18 19 22 -22 -23 -24 -25 25 -27 -28 -29 -30 -31
leaf_value=-0.0040010769394311033 -0.0022039581739043993 0.010626228541135787 -0.0020090432659785598 -0.00039622731203603191 0.011169716220881259 0.03668835099567385 0.0079697147047235843 -0.00040506116275129651 0.020800565558557329 0.031347881303383757 -0.0027433733807821926 0.016205134970446428 0.016723948568105697 0.0025798765194879193 0.0048011048310436311 0.020073778752237557 0.010045325844770385 -0.00036182313861955881 0.019983741201460362 0.0061471738324811063 0.0064402327274105378 0.0055966323756036305 -0.001416350737045933 0.0045432489187541333 0.0050281056395033372 -0.0010267818893188942 -0.0018854004558589725 -0.0029452916941061467 -0.0014180843061145495 -0.0025777945853769778
leaf_weight=33 651 20 193 43 28 34 21 29 26 26 68 30 24 37 20 20 21 2041 20 24 21 21 72 22 32 1938 54 202 204 24
leaf_count=33 651 20 193 43 28 34 21 29 26 26 68 30 24 37 20 20 21 2041 20 24 21 21 72 22 32 1938 54 202 204 24
internal_value=0 0.00285149 0.00573122 0.0116911 0.0153513 0.0251638 0.0033903 0.0127719 0.00774664 0.0209023 0.00158524 0.00495241 0.00271677 0.00814476 -0.00062113 0.00420943 0.00146141 -0.000713021 -0.000135953 0.00383819 -0.00118415 -0.00126269 0.00047453 -0.000962199 -0.00124524 -0.000928428 -7.82369e-05 -0.00163018 -0.000558999 0.00342403
internal_weight=0 1200 656 185 142 62 471 76 80 47 395 181 151 61 544 94 54 4799 2157 116 2642 214 96 90 2621 1970 74 450 248 44
internal_count=5999 1200 656 185 142 62 471 76 80 47 395 181 151 61 544 94 54 4799 2157 116 2642 214 96 90 2621 1970 74 450 248 44
is_linear=0
shrinkage=0.01


Tree=14
num_leaves=31
num_cat=0
split_feature=331 319 219 220 165 452 150 96 208 282 292 79 354 261 522 334 475 415 314 106 275 394 470 361 465 21 391 13 255 461
split_gain=119.727 105.135 106.402 177.777 95.8138 80.9035 70.1741 52.351 49.4736 34.8895 34.4514 30.9339 77.0077 24.1732 21.6653 14.3817 42.2073 62.9035 16.012 11.4746 10.4244 10.2319 8.21255 8.18454 8.14973 7.46598 6.43413 6.15387 5.35492 5.29815
threshold=-1179.9655945983043 383520280.40144461 -1125.6799478525948 -26.171846245320314 102.308410868639 19697.531855202698 11690.127046536987 44602.627395803858 236466081.1118513 365206.96886252786 -439.28978921918781 182527.22086655369 346012.66423974751 21691.136419718299 3882.7045969440883 18608.116047010011 130594497.91591437 7966.9364610484863 96505.619212899459 1737.3086816799603 123.58285605720475 353469.75033532229 124644.54716037384 12.500000000000002 15730.835379249733 18611.39713386061 59367.848750853293 -1559.9689813722046 -409.18086247954551 5790.9776447337499
decision_type=2 2 2 2 2 2 2 2 2 2 2 2 2 2 2 2 2 2 2 2 2 2 2 2 2 2 2 2 2 2
left_child=1 2 3 4 9 6 -5 -4 -6 10 20 23 22 14 19 21 17 -17 -18 -9 -1 24 -13 26 27 -26 -3 -2 -22 -29
right_child=15 11 7 5 8 -7 -8 13 -10 -11 -12 12 -14 -15 -16 16 18 -19 -20 -21 28 -23 -24 -25 25 -27 -28 29 -30 -31
leaf_value=0.0042870006091996196 -0.0033179074922834871 0.0036803778004832568 0.017015958588570357 0.026965191851787529 0.030476988241076471 0.036926078176498414 0.0056431805212615116 -0.0022064847409565777 0.0082343355268239965 0.014403607027859174 0.012575459729718127 0.0055607852488756184 0.022202455684542658 0.0099232377608617153 0.0073263348759182037 -0.001718683515985807 0.0080261993259191505 0.019491796585056804 -0.0013736208827220329 0.0057018639277666809 -0.00017441485290328276 0.0056722484573159216 -0.0019406265537771914 0.003822900937628691 -0.00072957774502981109 0.00072811724899048906 -0.0021305791986990655 -0.0011897393159796077 -0.0043209190787199666 0.0031863469237993869
leaf_weight=36 137 20 20 29 20 25 33 222 20 22 23 20 20 24 31 27 20 29 193 20 80 24 54 27 1566 453 403 2322 51 28
leaf_count=36 137 20 20 29 20 25 33 222 20 22 23 20 20 24 31 27 20 29 193 20 80 24 54 27 1566 453 403 2322 51 28
internal_value=0 0.00282515 0.0055206 0.00941511 0.00516013 0.0217399 0.0156164 0.00135581 0.0193557 0.00248173 0.0011013 -0.000425233 0.00479224 0.000301252 -0.000544637 -0.000706436 0.00154005 0.00926532 -0.000491009 -0.0015529 -0.00047897 -0.000839836 8.6782e-05 -0.00151511 -0.000874521 -0.000402517 -0.00185583 -0.0012577 -0.0017887 -0.0011376
internal_weight=0 1200 656 339 252 87 62 317 40 212 190 544 94 297 273 4799 269 56 213 242 167 4530 74 450 4506 2019 423 2487 131 2350
internal_count=5999 1200 656 339 252 87 62 317 40 212 190 544 94 297 273 4799 269 56 213 242 167 4530 74 450 4506 2019 423 2487 131 2350
is_linear=0
shrinkage=0.01


Tree=15
num_leaves=31
num_cat=0
split_feature=294 283 436 6 79 210 77 415 493 497 358 354 61 318 220 187 390 79 169 417 375 498 394 157 104 373 430 15 41 454
split_gain=117.357 116.005 88.8376 80.058 107.523 77.356 78.9718 61.7358 50.1031 43.2182 36.8698 60.4359 25.5965 61.7295 19.9685 17.4201 15.8725 14.5288 16.8076 12.923 13.5102 10.2682 12.0076 11.3532 9.27025 11.4543 7.78262 11.9866 8.18452 6.92164
threshold=-1179.9655945983043 383520280.40144461 84599850.848779574 194410677.42381522 98318.951395826312 8.5000000000000018 127418.67332025296 11044.780499536824 697.73732852566047 15881.405618733836 83203080.95876269 259740.1227730329 182527.22086655369 346012.66423974751 223.48746076232331 -1776.2034755204993 93319.385061157038 199848.38547840578 13532.778422509264 15278.325685720691 15278.325685720691 15964.937593271541 365206.96886252786 14071287.833987551 -1183.4922729208145 29683.306862012258 66013.62354587327 5.0798231391860008e-07 17116.267629772472 8280.8665777326605
decision_type=2 2 2 2 2 2 2 2 2 2 2 2 2 2 2 2 2 2 2 2 2 2 2 2 2 2 2 2 2 2
left_child=1 2 3 4 -1 10 7 -7 -6 14 11 15 -3 -14 -5 -4 -12 -18 -19 20 21 24 23 -23 -2 29 27 -25 -28 -26
right_child=19 12 5 9 8 6 -8 -9 -10 -11 16 -13 13 -15 -16 -17 17 18 -20 -21 -22 22 -24 26 25 -27 28 -29 -30 -31
leaf_value=0.006127095289136234 -0.0024323010465323669 -0.0016086441151037839 0.0090993237930039571 -0.003261189819101922 0.018201632580679396 0.0078157884627580651 -0.00041599707870647827 0.030868450529300252 0.038855982646346092 0.014200680541495482 0.0066140797554544405 0.021648106784983114 -8.4087508604735947e-05 0.01971655761450529 0.0087897738832980396 -0.0017289172896207908 -0.0019584011748934797 0.010300685416745104 -0.00090646758500952281 0.0067784104123711584 0.0070829604439098725 0.0060160488987873705 0.0072952099512552928 0.00065166678486598868 -0.0010519234140134728 0.0064496608575185148 -0.0011008016276674996 0.0087388719866673143 0.00030527732573494679 0.0027865832919875782
leaf_weight=38 479 450 24 44 23 21 29 26 24 36 32 22 74 20 20 39 223 23 32 23 22 28 21 144 2204 21 1137 21 651 48
leaf_count=38 479 450 24 44 23 21 29 26 24 36 32 22 74 20 20 39 223 23 32 23 22 28 21 144 2204 21 1137 21 651 48
internal_value=0 0.00279705 0.00562841 0.0115002 0.0186354 0.00332208 0.0125611 0.0205683 0.0287485 0.00543528 0.00154443 0.00737899 -0.000617245 0.00412882 0.000504736 0.00239613 -5.53681e-05 -0.000823074 0.00378016 -0.000699407 -0.000735418 -0.000771599 -0.000226709 -0.000306446 -0.00116799 -0.000901558 -0.000397091 0.00168095 -0.000588857 -0.000970108
internal_weight=0 1200 656 185 85 471 76 47 47 100 395 85 544 94 64 63 310 278 55 4799 4776 4754 2002 1981 2752 2273 1953 165 1788 2252
internal_count=5999 1200 656 185 85 471 76 47 47 100 395 85 544 94 64 63 310 278 55 4799 4776 4754 2002 1981 2752 2273 1953 165 1788 2252
is_linear=0
shrinkage=0.01


Tree=16
num_leaves=31
num_cat=0
split_feature=331 319 219 220 165 452 150 96 496 282 292 79 354 261 522 334 268 252 150 70 106 275 394 242 164 470 361 10 70 339
split_gain=115.227 101.485 102.894 172.305 92.7134 78.65 68.1966 50.8022 48.2727 33.9046 33.7019 29.9055 74.4679 23.6298 21.0671 13.9701 41.4761 62.27 17.7512 21.8238 11.1468 10.1796 9.87952 8.03898 8.76789 7.9846 7.96676 7.33678 7.23831 7.07569
threshold=-1179.9655945983043 383520280.40144461 -1125.6799478525948 -26.171846245320314 102.308410868639 19697.531855202698 11690.127046536987 44602.627395803858 344.23808008487464 365206.96886252786 -439.28978921918781 182527.22086655369 346012.66423974751 21691.136419718299 3882.7045969440883 18608.116047010011 2972.3955218009373 -1943.0134203057976 10972.773939669662 -501.94155798478329 1737.3086816799603 123.58285605720475 353469.75033532229 16375.251769429531 -2326.2303436736424 124644.54716037384 12.500000000000002 7.5000000000000009 -2482.7095029778379 20988.150224457309
decision_type=2 2 2 2 2 2 2 2 2 2 2 2 2 2 2 2 2 2 2 2 2 2 2 2 2 2 2 2 2 2
left_child=1 2 3 4 9 6 -5 -4 -6 10 21 26 25 14 20 22 18 -18 19 -17 -9 -1 23 28 -25 -13 -3 -26 -2 -29
right_child=15 11 7 5 8 -7 -8 13 -10 -11 -12 12 -14 -15 -16 16 17 -19 -20 -21 -22 -23 -24 24 27 -27 -28 29 -30 -31
leaf_value=0.0042117607784974906 -0.0032715425347685338 -0.0018296799030739497 0.016750998931005595 0.02653335895132402 0.0080390349831432114 0.036356417012214662 0.0055139172048957064 -0.002189352987286937 0.030010082818567756 0.014178283714096657 0.01241372357244077 0.0054783813785761592 0.021828797042369841 0.0097986085464557022 0.0072106053760592568 0.013264833394438029 -0.0021207787906751038 0.022259445722130212 -0.0014612837156709186 -0.0015080586597323417 0.0056052107112482185 -0.0017921851204711773 0.0055744419287657365 -0.0031262993598800332 0.00069722564331341197 -0.0019181927534993048 0.0037729911413043739 -0.00083916593549274773 -0.0010673578083544148 0.0037379779858248575
leaf_weight=36 158 423 20 29 20 25 33 222 20 22 23 20 20 24 31 20 20 22 187 20 20 131 24 105 633 54 27 964 2611 35
leaf_count=36 158 423 20 29 20 25 33 222 20 22 23 20 20 24 31 20 20 22 187 20 20 131 24 105 633 54 27 964 2611 35
internal_value=0 0.00277155 0.0054198 0.00924957 0.00506058 0.0213832 0.0153456 0.00132424 0.0190246 0.00242587 0.00106507 -0.000421917 0.0047081 0.000285398 -0.000550928 -0.000693033 0.00152107 0.0106498 -0.00016795 0.00587839 -0.00154517 -0.000497921 -0.000824511 -0.000858593 -0.000325299 8.08813e-05 -0.00149352 -0.000145088 -0.00119313 -0.000678806
internal_weight=0 1200 656 339 252 87 62 317 40 212 190 544 94 297 273 4799 269 42 227 40 242 167 4530 4506 1737 74 450 1632 2769 999
internal_count=5999 1200 656 339 252 87 62 317 40 212 190 544 94 297 273 4799 269 42 227 40 242 167 4530 4506 1737 74 450 1632 2769 999
is_linear=0
shrinkage=0.01


Tree=17
num_leaves=31
num_cat=0
split_feature=331 319 219 216 131 165 96 203 261 280 282 79 354 410 522 334 475 415 314 452 79 112 394 126 242 164 470 10 70 339
split_gain=112.934 99.4655 101.156 146.879 107.26 63.4131 57.1347 46.8805 41.3888 40.6997 40.3538 29.3104 72.986 27.6964 27.2487 13.6921 40.6723 61.0552 15.5456 10.4238 21.6992 10.1034 9.68292 7.91117 7.87901 8.59341 7.82571 7.19078 7.09426 6.93488
threshold=-1179.9655945983043 383520280.40144461 -1428.67311370078 -658.78729472125258 12638.96448742895 102.308410868639 44602.627395803858 15539.050662038821 23677.260171151276 100406.46586063447 353469.75033532229 182527.22086655369 346012.66423974751 -85.881126096127758 3882.7045969440883 18608.116047010011 130594497.91591437 7966.9364610484863 96505.619212899459 18608.116047010011 114660.09044146047 11041.442123778766 353469.75033532229 949.13094160526168 16375.251769429531 -2326.2303436736424 124644.54716037384 7.5000000000000009 -2482.7095029778379 20988.150224457309
decision_type=2 2 2 2 2 2 2 2 2 2 2 2 2 2 2 2 2 2 2 2 2 2 2 2 2 2 2 2 2 2
left_child=1 2 3 5 9 10 -4 -7 14 -5 13 23 26 21 19 22 17 -17 -18 -8 -21 -1 24 -3 28 -26 -13 -27 -2 -29
right_child=15 11 6 4 -6 7 8 -9 -10 -11 -12 12 -14 -15 -16 16 18 -19 -20 20 -22 -23 -24 -25 25 27 -28 29 -30 -31
leaf_value=0.0038187019926879335 -0.00323882712754922 -0.0018069199000287966 0.017944777457132226 0.041531827395612543 0.0039844348710030321 0.027082653126086702 -0.0019647516348717726 0.0061940418627290496 0.013361376079916954 0.022296504430811513 0.013520175133598969 0.0054235975611954925 0.021610509853810075 0.010940728903127212 0.0082129110473518584 -0.0017320802462873635 0.0079043134599924101 0.019164466593928377 -0.0013575836549720539 -0.0031321353823877875 0.0091082799872050854 -0.0025997735713926056 0.0055186974661774 0.0038758093161651718 -0.0030950363518315411 0.00069025338752365178 -0.0018990108274199345 -0.00083077427304008799 -0.0010566842287525419 0.0037005981313330788
leaf_weight=34 158 424 21 22 20 22 231 21 25 22 32 20 20 24 36 27 20 29 193 30 28 88 24 26 105 633 54 964 2611 35
leaf_count=34 158 424 21 22 20 22 231 21 25 22 32 20 20 24 36 27 20 29 193 30 28 88 24 26 105 633 54 964 2611 35
internal_value=0 0.00274384 0.0053656 0.00984591 0.0231861 0.00598268 0.00192385 0.0168812 0.000962598 0.0319142 0.00334988 -0.000417697 0.00466102 0.00112078 8.84599e-06 -0.000686103 0.00150586 0.00908935 -0.000487922 -0.00101311 0.00277703 -0.000811018 -0.000816265 -0.00147858 -0.000850007 -0.000322046 8.00725e-05 -0.000143637 -0.0011812 -0.000672017
internal_weight=0 1200 656 285 64 221 371 43 350 44 178 544 94 146 325 4799 269 56 213 289 58 122 4530 450 4506 1737 74 1632 2769 999
internal_count=5999 1200 656 285 64 221 371 43 350 44 178 544 94 146 325 4799 269 56 213 289 58 122 4530 450 4506 1737 74 1632 2769 999
is_linear=0
shrinkage=0.01


Tree=18
num_leaves=31
num_cat=0
split_feature=294 283 436 72 146 347 210 77 341 415 373 544 2 175 317 258 204 493 298 438 373 131 542 460 361 290 79 52 354 87
split_gain=110.881 110.71 85.362 77.6633 106.564 81.7732 74.3465 75.7672 67.6317 59.4734 35.9581 43.0097 32.6546 28.6057 27.6368 24.3774 36.9955 20.1249 12.6015 37.5563 58.4361 11.1186 20.8991 10.2913 9.23799 11.088 16.5994 9.19176 12.6455 8.35247
threshold=-1179.9655945983043 383520280.40144461 84599850.848779574 4.0910433751585306e-07 2.3622400883505531e-07 15361.173757545526 8.5000000000000018 127418.67332025296 1886.3532849958995 11044.780499536824 10425.767375007214 20708.35875423258 134376.55033849747 175781.47246668563 77616.159891797681 2166.6621775503586 12028.545046062278 626.09971843176402 18608.116047010011 130594497.91591437 8605.8461964093658 11646.698582996212 9726.8861582878508 1164.6037698210332 11.500000000000002 -2212.8324353682628 126622.69737999274 -2482.7095029778379 353469.75033532229 41.384998034738558
decision_type=2 2 2 2 2 2 2 2 2 2 2 2 2 2 2 2 2 2 2 2 2 2 2 2 2 2 2 2 2 2
left_child=1 2 3 4 12 8 10 9 -6 -8 23 13 -1 29 -15 24 -17 -5 27 20 -20 22 -21 -4 -3 -26 -27 -2 -29 -12
right_child=18 15 6 17 5 -7 7 -9 -10 -11 11 -13 -14 14 -16 16 -18 -19 19 21 -22 -23 -24 -25 25 26 -28 28 -30 -31
leaf_value=0.013338313770705258 -0.0027479552486871102 -0.003387911142739551 -0.0020168871252581604 -0.0037818135592070498 0.0039498503793341418 0.037374376235184852 0.0076079210035857707 -0.00042954212889589113 0.028848788760602477 0.030234239926704994 -0.002726846683414324 0.015698324571053187 -0.0013125552807468921 0.016233481595603127 0.00245497400834653 0.014849821352399886 8.7252772485451973e-05 0.0089307509027421478 -0.0011464290675739276 -0.00076348420975610922 0.019297003097556255 -0.002040599222575659 0.011441513946279885 0.0053545917127104034 -0.0013622788672192463 -0.0016915299354254136 0.0094047507650863674 -0.00073737069804935497 0.0072327700403111515 0.004361793525008993
leaf_weight=29 231 167 193 33 24 27 21 29 20 26 68 30 32 24 37 24 58 20 29 47 27 146 20 21 241 28 26 4279 20 22
leaf_count=29 231 167 193 33 24 27 21 29 20 26 68 30 32 24 37 24 58 20 29 47 27 146 20 21 241 28 26 4279 20 22
internal_value=0 0.00271878 0.00548478 0.0112406 0.0153461 0.0236744 0.00322401 0.0122816 0.0152675 0.0201246 0.00148129 0.004762 0.00565261 0.00258922 0.00787603 -0.000616679 0.004408 0.00101538 -0.000679837 0.00142302 0.00871023 -0.000492868 0.0028798 -0.00129352 -0.00150851 -0.000444571 0.00365112 -0.000804709 -0.000700292 -0.000994068
internal_weight=0 1200 656 185 132 71 471 76 44 47 395 181 61 151 61 544 82 53 4799 269 56 213 67 214 462 295 54 4530 4299 90
internal_count=5999 1200 656 185 132 71 471 76 44 47 395 181 61 151 61 544 82 53 4799 269 56 213 67 214 462 295 54 4530 4299 90
is_linear=0
shrinkage=0.01


Tree=19
num_leaves=31
num_cat=0
split_feature=331 319 219 188 243 254 96 282 347 261 79 354 522 504 150 334 268 252 150 70 493 97 452 394 465 126 470 452 21 89
split_gain=108.74 95.9622 97.5955 142.351 116.669 83.8005 55.462 49.9164 43.2932 40.2362 28.4959 70.9479 26.5332 23.089 22.677 13.2617 40.0155 60.2725 17.1272 21.0074 10.2127 9.61417 12.3592 9.37623 7.81435 7.71528 7.63113 7.61869 7.23667 5.87247
threshold=-1179.9655945983043 383520280.40144461 -1428.67311370078 -54.227029352538743 168288.09713640306 -510.74683183449469 44602.627395803858 353469.75033532229 13931.59923469358 23677.260171151276 182527.22086655369 346012.66423974751 3882.7045969440883 265796970.96141449 11490.348573585246 18608.116047010011 2972.3955218009373 -1943.0134203057976 10972.773939669662 -501.94155798478329 1221.4006108638855 146594.77943533874 15476.548208068329 353469.75033532229 15730.835379249733 949.13094160526168 124644.54716037384 22077.469687978893 18611.39713386061 -1188.9272411643349
decision_type=2 2 2 2 2 2 2 2 2 2 2 2 2 2 2 2 2 2 2 2 2 2 2 2 2 2 2 2 2 2
left_child=1 2 3 5 8 7 -4 13 -5 12 25 26 20 27 -10 23 18 -18 19 -17 21 -8 -23 24 -2 29 -12 -1 -26 -3
right_child=15 10 6 4 -6 -7 9 -9 14 -11 11 -13 -14 -15 -16 16 17 -19 -20 -21 -22 22 -24 -25 28 -27 -28 -29 -30 -31
leaf_value=-0.0028777468410098278 -0.0012097604948368326 0.0019676024635861579 0.017671598672334636 0.015535456273704767 0.0012738108665317947 0.022590052146309367 -0.0029187554180486281 0.015181200938920182 0.040759252139500213 0.013164790059626102 0.0053548397636041046 0.021305862266570327 0.0080951191774672939 0.0082437600539997224 0.026063292191496917 0.013011048030108215 -0.0021135371644049883 0.021872461343353446 -0.0014454199662830502 -0.001482872858643532 0.0046197544849188674 -0.0010973053552620746 0.0078358508358221685 0.0054324899016258621 -0.00069435346553516661 0.003828690734047156 -0.0018761591013107036 0.0033335148096084594 0.000740781231401961 -0.0021524978919652015
leaf_weight=94 2487 38 21 20 23 24 180 27 21 25 20 20 36 30 21 20 20 22 187 20 29 59 21 24 1566 26 54 25 453 386
leaf_count=94 2487 38 21 20 23 24 180 27 21 25 20 20 36 30 21 20 20 22 187 20 29 59 21 24 1566 26 54 25 453 386
internal_value=0 0.0026924 0.00526758 0.00966834 0.0205092 0.00506098 0.00188694 0.00267065 0.0276449 0.000939865 -0.000412956 0.0045947 -5.13702e-07 0.000403641 0.0334113 -0.000673241 0.00148399 0.0104506 -0.000175022 0.00576409 -0.00100897 -0.00163679 0.00124765 -0.000801342 -0.000834545 -0.001459 7.81649e-05 -0.00157286 -0.000372354 -0.00178324
internal_weight=0 1200 656 285 85 200 371 176 62 350 544 94 325 149 42 4799 269 42 227 40 289 260 80 4530 4506 450 74 119 2019 424
internal_count=5999 1200 656 285 85 200 371 176 62 350 544 94 325 149 42 4799 269 42 227 40 289 260 80 4530 4506 450 74 119 2019 424
is_linear=0
shrinkage=0.01


Tree=20
num_leaves=31
num_cat=0
split_feature=294 283 399 525 78 317 285 0 498 446 417 220 180 261 520 61 318 428 261 13 432 156 409 81 86 88 533 13 90 361
split_gain=106.686 106.914 83.6825 118.155 86.0495 81.3832 62.6938 49.4255 43.0963 32.9633 32.9037 43.2032 50.9245 30.3931 30.1806 23.7559 57.6715 12.3299 18.0917 59.2438 11.5158 9.88353 8.32498 7.86324 7.6183 11.172 6.79466 6.23326 6.16957 8.22758
threshold=-1179.9655945983043 383520280.40144461 83203080.95876269 1938.664098250857 42671.317900219517 113056.46969429452 955659086.09200156 13638.96186032834 14448.255768005349 -287.39695701489239 2739.6809334195136 -358.33827043171999 6.5000000000000009 9722.3926475398621 13291.995295833096 182527.22086655369 346012.66423974751 15730.263234529031 20966.880246450834 -1429.6403893617166 365206.96886252786 102545023.63105793 217.97529308887721 174992.14953126301 -805.57037194691577 -2369.4199728637327 79540.903234640777 -1021.9363076730843 4.0856219685245017e-07 11.500000000000002
decision_type=2 2 2 2 2 2 2 2 2 2 2 2 2 2 2 2 2 2 2 2 2 2 2 2 2 2 2 2 2 2
left_child=1 2 3 9 -4 8 10 -8 -5 -1 26 22 14 -9 -13 28 27 20 -19 -20 24 -21 -12 -11 -2 -26 -6 -17 29 -3
right_child=17 15 4 5 6 -7 7 13 -10 23 11 12 -14 -15 -16 16 -18 18 19 21 -22 -23 -24 -25 25 -27 -28 -29 -30 -31
leaf_value=0.012213439778715838 -0.0021218038158553484 -0.0028132264276238446 0.023611575588583948 0.015944406755268575 0.0015801796142776042 0.0042660986241840181 0.021583625701842486 -0.0018410808053509942 0.034547534097324716 -0.0028260692808686236 -0.002299301100031632 -0.0018665420373436064 0.019534254329728669 0.013955521948990369 0.011670055892318487 0.0046581869451329111 0.019027987085282801 -0.00032420785077571477 0.019392844371497631 0.0060312911371390027 0.0062508682197048547 -0.0013787357042828162 0.0047572691213073476 0.0048221228625625378 0.0049864637490827594 -0.00097078836381849236 -0.0030956255694169527 -0.0018770527173937472 -0.0037997068965461914 0.00030019634394460665
leaf_weight=32 651 142 20 20 39 21 27 29 33 41 82 40 29 21 28 20 20 2041 20 24 21 72 21 20 32 1938 153 54 97 211
leaf_count=32 651 142 20 20 39 21 27 29 33 41 82 40 29 21 28 20 20 2041 20 24 21 72 21 20 32 1938 153 54 97 211
internal_value=0 0.00266685 0.005385 0.0114967 0.00329778 0.0209263 0.00243152 0.0106809 0.0275275 0.00399359 0.000811096 0.00364977 0.00843911 0.00479349 0.00370735 -0.00061093 0.0039613 -0.000666851 -0.000105874 0.00373568 -0.00112485 0.000473771 -0.000860583 -0.000318465 -0.00118394 -0.000874021 -0.00214585 -0.000110772 -0.00156602 -0.000952229
internal_weight=0 1200 656 167 489 74 469 77 53 93 392 200 97 50 68 544 94 4799 2157 116 2642 96 103 61 2621 1970 192 74 450 353
internal_count=5999 1200 656 167 489 74 469 77 53 93 392 200 97 50 68 544 94 4799 2157 116 2642 96 103 61 2621 1970 192 74 450 353
is_linear=0
shrinkage=0.01


Tree=21
num_leaves=31
num_cat=0
split_feature=331 319 219 220 165 452 150 96 496 448 79 354 194 261 522 193 334 268 252 150 70 106 394 41 204 454 361 470 326 17
split_gain=104.728 92.7562 94.6215 159.517 86.9425 74.7561 64.1126 46.8087 45.4533 32.2182 27.5532 68.6509 23.2129 21.9673 19.559 14.4682 12.8645 38.7969 58.6276 16.6928 20.5317 10.5663 9.11723 7.72897 7.62891 10.3831 7.57232 7.40174 7.32602 6.30296
threshold=-1179.9655945983043 383520280.40144461 -1125.6799478525948 -26.171846245320314 102.308410868639 19697.531855202698 11690.127046536987 44602.627395803858 344.23808008487464 578.8260373688978 182527.22086655369 346012.66423974751 457.19277434895031 21691.136419718299 3882.7045969440883 4090.8500342386028 18608.116047010011 2972.3955218009373 -1943.0134203057976 10972.773939669662 -501.94155798478329 1737.3086816799603 353469.75033532229 17116.267629772472 9140.6514176896872 3319.4576258116708 12.500000000000002 124644.54716037384 -2683.4215852241146 6291.7970603245294
decision_type=2 2 2 2 2 2 2 2 2 2 2 2 2 2 2 2 2 2 2 2 2 2 2 2 2 2 2 2 2 2
left_child=1 2 3 4 9 6 -5 -4 -6 12 26 27 15 14 21 -1 22 19 -19 20 -18 -9 23 24 25 -2 -3 -12 -17 -26
right_child=16 10 7 5 8 -7 -8 13 -10 -11 11 -13 -14 -15 -16 28 17 18 -20 -21 -22 -23 -24 -25 29 -27 -28 -29 -30 -31
leaf_value=0.0065619135613593713 -0.00064683364704251286 -0.001767106086629978 0.016054609948303551 0.025482680186115464 0.0076786288130097089 0.035119177746772763 0.0051023260944268924 -0.0021421312015117693 0.02899840668588877 0.014343359598889946 0.0052672950392588973 0.020951760526746514 0.0078934898015032579 0.0094218666168550645 0.0069216153542360952 0.0035248550083488229 0.012858173880726098 -0.002098502665758133 0.02155792823569341 -0.0014237595687465951 -0.0014707003310322762 0.0054467457392020149 0.0053602573601528999 -0.00019693063595635458 -0.00083772866233648258 0.0083396758120507005 0.0036951071517197071 -0.0018541971852795948 -0.0030546683512809314 -0.0017957013732838819
leaf_weight=23 36 423 20 29 20 25 33 222 20 20 20 20 39 24 31 20 20 20 22 187 20 20 24 1382 2030 20 27 54 110 1038
leaf_count=23 36 423 20 29 20 25 33 222 20 20 20 20 39 24 31 20 20 20 22 187 20 20 24 1382 2030 20 27 54 110 1038
internal_value=0 0.00264227 0.00517406 0.00884665 0.00481612 0.0205213 0.0146351 0.00124659 0.0183385 0.00226472 -0.000410779 0.00451335 0.00100653 0.000249416 -0.000556953 -0.00074897 -0.000660704 0.00146398 0.010293 -0.000169575 0.00569374 -0.00151495 -0.000786872 -0.000819613 -0.00109508 0.00256263 -0.00143937 7.05304e-05 -0.00204243 -0.00116184
internal_weight=0 1200 656 339 252 87 62 317 40 212 544 94 192 297 273 153 4799 269 42 227 40 242 4530 4506 3124 56 450 74 130 3068
internal_count=5999 1200 656 339 252 87 62 317 40 212 544 94 192 297 273 153 4799 269 42 227 40 242 4530 4506 3124 56 450 74 130 3068
is_linear=0
shrinkage=0.01


Tree=22
num_leaves=31
num_cat=0
split_feature=331 319 219 216 131 165 96 479 261 280 282 79 354 410 522 452 61 334 475 415 314 112 394 242 164 190 397 522 470 10
split_gain=102.644 90.9104 92.7491 136.519 101.28 58.4195 52.8067 44.5073 38.5483 38.2032 37.8019 27.0049 67.2847 26.2836 25.3905 13.2129 24.4265 12.6085 38.3323 58.1762 14.8532 9.60541 8.9358 7.68066 10.8288 7.53992 13.2078 21.3054 7.25445 6.6542
threshold=-1179.9655945983043 383520280.40144461 -1428.67311370078 -658.78729472125258 12638.96448742895 102.308410868639 44602.627395803858 10.500000000000002 23677.260171151276 100406.46586063447 353469.75033532229 182527.22086655369 346012.66423974751 -85.881126096127758 4521.5783539468803 18608.116047010011 149555.29699633061 18608.116047010011 130594497.91591437 7966.9364610484863 96505.619212899459 11041.442123778766 353469.75033532229 15728.518037780965 -2248.3708689509108 7347.8143729540197 179801103.5863063 946.68089778605383 124644.54716037384 7.5000000000000009
decision_type=2 2 2 2 2 2 2 2 2 2 2 2 2 2 2 2 2 2 2 2 2 2 2 2 2 2 2 2 2 2
left_child=1 2 3 5 9 10 -4 -7 14 -5 13 25 28 21 15 -8 -17 22 19 -19 -20 -1 23 -2 -25 26 27 -3 -13 -26
right_child=17 11 6 4 -6 7 8 -9 -10 -11 -12 12 -14 -15 -16 16 -18 18 20 -21 -22 -23 -24 24 29 -27 -28 -29 -30 -31
leaf_value=0.0036357536473694968 -0.0011979920873910221 0.012356978090654594 0.017228857836065193 0.040072860771959477 0.0036147507722489535 0.0062087186900052164 -0.0019172955867991575 0.026561747075368961 0.012868316231667995 0.021436827755533159 0.013004389631096274 0.0052146222880110147 0.020742243040353058 0.010569667963427492 0.0094606942927035007 -0.0010634706289108311 0.012363772537326441 -0.001751761413006871 0.0077169729508459574 0.018646149972517942 -0.0013363086141361202 -0.0026225553633313133 0.005306654673768208 -0.0032010684056504534 0.00055984468519062591 -0.0028211972158896969 -0.0013566973388945797 -0.0013714866583737042 -0.0018356551981910511 -0.00063813601706064346
leaf_weight=34 2401 20 21 22 20 22 237 21 25 22 32 20 20 24 26 42 20 27 20 29 193 88 24 127 742 208 196 26 54 1236
leaf_count=34 2401 20 21 22 20 22 237 21 25 22 32 20 20 24 26 42 20 27 20 29 193 88 24 127 742 208 196 26 54 1236
internal_value=0 0.00261584 0.00512232 0.00941242 0.0222736 0.00568793 0.00182669 0.0161486 0.000902562 0.0307548 0.00316092 -0.000406671 0.00446821 0.00100344 -1.7881e-05 -0.000842105 0.0032679 -0.000654097 0.00144934 0.00881144 -0.000486235 -0.000878436 -0.000779004 -0.000811417 -0.000370483 -0.00142498 -0.000224925 0.00459741 6.98252e-05 -0.000188742
internal_weight=0 1200 656 285 64 221 371 43 350 44 178 544 94 146 325 299 62 4799 269 56 213 122 4530 4506 2105 450 242 46 74 1978
internal_count=5999 1200 656 285 64 221 371 43 350 44 178 544 94 146 325 299 62 4799 269 56 213 122 4530 4506 2105 450 242 46 74 1978
is_linear=0
shrinkage=0.01


Tree=23
num_leaves=31
num_cat=0
split_feature=294 283 514 283 82 282 312 399 525 350 132 258 258 204 417 216 195 422 525 417 375 498 157 394 104 373 361 290 79 15
split_gain=100.678 101.854 80.8505 75.8272 68.8999 66.5938 60.1879 54.5805 71.6846 49.9755 44.2366 28.6482 23.3211 34.7734 23.2746 32.6759 20.26 14.7845 23.1817 12.1364 12.6763 9.65919 10.5523 10.8086 8.9369 11.018 8.76658 10.5087 15.7334 7.47147
threshold=-1179.9655945983043 383520280.40144461 2441.6128975288111 38967117.842112884 340192379.45931274 291521.52464660211 15361.173757545526 84599850.848779574 2060.3814566052401 207310.68910450366 139182.46080945301 1246.0130678104958 2166.6621775503586 12028.545046062278 2642.7752006120786 -166.06255866185657 482.89429934866695 747.09674525906519 2257.6908131220439 15278.325685720691 15278.325685720691 15964.937593271541 14071287.833987551 365206.96886252786 -1183.4922729208145 29683.306862012258 11.500000000000002 -2212.8324353682628 126622.69737999274 2.7320144034942949e-07
decision_type=2 2 2 2 2 2 2 2 2 2 2 2 2 2 2 2 2 2 2 2 2 2 2 2 2 2 2 2 2 2
left_child=1 2 3 -1 -4 7 11 8 16 -8 -10 -7 26 -14 -9 17 -5 18 -16 20 21 24 -23 -24 -2 -26 -3 29 -29 -28
right_child=19 12 4 5 -6 6 9 14 10 -11 -12 -13 13 -15 15 -17 -18 -19 -20 -21 -22 22 23 -25 25 -27 27 28 -30 -31
leaf_value=0.021062406714145956 -0.0023435758087406856 -0.0033117179658952657 0.032144976094365119 -0.0017436531995066462 0.0058961870782077309 -0.0010833195112645627 0.0076565231868754259 -0.0024437287842285715 0.029346500493586065 0.027550457779850279 0.0083140019644051787 0.013574830237776041 0.014429381223938737 0.00011702896854519072 -0.0005504457603092305 0.01073780153800423 0.0092576775570901541 -0.0019047618582844733 0.013173665442969652 0.0065988426639334019 0.0068905632003125813 0.0059066221976120563 -0.00035246055089249039 0.006860230479921613 -0.00090783874799126203 0.0063692531362175946 0.00023550995118193217 -0.0016586087464487977 0.0091443310586663967 -0.0033082734714218673
leaf_weight=26 479 167 20 47 20 40 23 180 20 28 20 20 24 58 32 39 26 95 20 23 22 28 1953 21 2252 21 134 28 26 107
leaf_count=26 479 167 20 47 20 40 23 180 20 28 20 20 24 58 32 39 26 95 20 23 22 28 1953 21 2252 21 134 28 26 107
internal_value=0 0.00259068 0.00524374 0.00434913 0.0190206 0.00361262 0.0105917 0.00199534 0.00807042 0.0185787 0.0188303 0.00380273 -0.000608602 0.00430601 0.000119699 0.00260044 0.00217463 0.000441542 0.00472806 -0.000647804 -0.000682702 -0.000717749 -0.000189263 -0.00027573 -0.00110221 -0.000840606 -0.00148089 -0.000444459 0.00354281 -0.00133787
internal_weight=0 1200 656 616 40 590 111 479 113 51 40 60 544 82 366 186 73 147 52 4799 4776 4754 2002 1974 2752 2273 462 295 54 241
internal_count=5999 1200 656 616 40 590 111 479 113 51 40 60 544 82 366 186 73 147 52 4799 4776 4754 2002 1974 2752 2273 462 295 54 241
is_linear=0
shrinkage=0.01


Tree=24
num_leaves=31
num_cat=0
split_feature=331 319 219 220 165 452 150 96 208 448 79 354 194 277 427 514 193 334 268 252 150 70 258 394 41 204 454 126 339 326
split_gain=98.9423 87.8663 90.0987 152.39 82.9865 72.1998 61.5757 44.5351 44.0426 31.0658 26.2162 65.4155 22.4494 21.151 44.693 18.8245 14.0175 12.1733 37.517 56.9004 16.1038 19.8426 10.3706 8.628 7.53591 7.46781 10.1371 7.38393 7.09334 6.95559
