tree
version=v4
num_class=1
num_tree_per_iteration=1
label_index=0
max_feature_idx=596
objective=regression
feature_names=Column_0 Column_1 Column_2 Column_3 Column_4 Column_5 Column_6 Column_7 Column_8 Column_9 Column_10 Column_11 Column_12 Column_13 Column_14 Column_15 Column_16 Column_17 Column_18 Column_19 Column_20 Column_21 Column_22 Column_23 Column_24 Column_25 Column_26 Column_27 Column_28 Column_29 Column_30 Column_31 Column_32 Column_33 Column_34 Column_35 Column_36 Column_37 Column_38 Column_39 Column_40 Column_41 Column_42 Column_43 Column_44 Column_45 Column_46 Column_47 Column_48 Column_49 Column_50 Column_51 Column_52 Column_53 Column_54 Column_55 Column_56 Column_57 Column_58 Column_59 Column_60 Column_61 Column_62 Column_63 Column_64 Column_65 Column_66 Column_67 Column_68 Column_69 Column_70 Column_71 Column_72 Column_73 Column_74 Column_75 Column_76 Column_77 Column_78 Column_79 Column_80 Column_81 Column_82 Column_83 Column_84 Column_85 Column_86 Column_87 Column_88 Column_89 Column_90 Column_91 Column_92 Column_93 Column_94 Column_95 Column_96 Column_97 Column_98 Column_99 Column_100 Column_101 Column_102 Column_103 Column_104 Column_105 Column_106 Column_107 Column_108 Column_109 Column_110 Column_111 Column_112 Column_113 Column_114 Column_115 Column_116 Column_117 Column_118 Column_119 Column_120 Column_121 Column_122 Column_123 Column_124 Column_125 Column_126 Column_127 Column_128 Column_129 Column_130 Column_131 Column_132 Column_133 Column_134 Column_135 Column_136 Column_137 Column_138 Column_139 Column_140 Column_141 Column_142 Column_143 Column_144 Column_145 Column_146 Column_147 Column_148 Column_149 Column_150 Column_151 Column_152 Column_153 Column_154 Column_155 Column_156 Column_157 Column_158 Column_159 Column_160 Column_161 Column_162 Column_163 Column_164 Column_165 Column_166 Column_167 Column_168 Column_169 Column_170 Column_171 Column_172 Column_173 Column_174 Column_175 Column_176 Column_177 Column_178 Column_179 Column_180 Column_181 Column_182 Column_183 Column_184 Column_185 Column_186 Column_187 Column_188 Column_189 Column_190 Column_191 Column_192 Column_193 Column_194 Column_195 Column_196 Column_197 Column_198 Column_199 Column_200 Column_201 Column_202 Column_203 Column_204 Column_205 Column_206 Column_207 Column_208 Column_209 Column_210 Column_211 Column_212 Column_213 Column_214 Column_215 Column_216 Column_217 Column_218 Column_219 Column_220 Column_221 Column_222 Column_223 Column_224 Column_225 Column_226 Column_227 Column_228 Column_229 Column_230 Column_231 Column_232 Column_233 Column_234 Column_235 Column_236 Column_237 Column_238 Column_239 Column_240 Column_241 Column_242 Column_243 Column_244 Column_245 Column_246 Column_247 Column_248 Column_249 Column_250 Column_251 Column_252 Column_253 Column_254 Column_255 Column_256 Column_257 Column_258 Column_259 Column_260 Column_261 Column_262 Column_263 Column_264 Column_265 Column_266 Column_267 Column_268 Column_269 Column_270 Column_271 Column_272 Column_273 Column_274 Column_275 Column_276 Column_277 Column_278 Column_279 Column_280 Column_281 Column_282 Column_283 Column_284 Column_285 Column_286 Column_287 Column_288 Column_289 Column_290 Column_291 Column_292 Column_293 Column_294 Column_295 Column_296 Column_297 Column_298 Column_299 Column_300 Column_301 Column_302 Column_303 Column_304 Column_305 Column_306 Column_307 Column_308 Column_309 Column_310 Column_311 Column_312 Column_313 Column_314 Column_315 Column_316 Column_317 Column_318 Column_319 Column_320 Column_321 Column_322 Column_323 Column_324 Column_325 Column_326 Column_327 Column_328 Column_329 Column_330 Column_331 Column_332 Column_333 Column_334 Column_335 Column_336 Column_337 Column_338 Column_339 Column_340 Column_341 Column_342 Column_343 Column_344 Column_345 Column_346 Column_347 Column_348 Column_349 Column_350 Column_351 Column_352 Column_353 Column_354 Column_355 Column_356 Column_357 Column_358 Column_359 Column_360 Column_361 Column_362 Column_363 Column_364 Column_365 Column_366 Column_367 Column_368 Column_369 Column_370 Column_371 Column_372 Column_373 Column_374 Column_375 Column_376 Column_377 Column_378 Column_379 Column_380 Column_381 Column_382 Column_383 Column_384 Column_385 Column_386 Column_387 Column_388 Column_389 Column_390 Column_391 Column_392 Column_393 Column_394 Column_395 Column_396 Column_397 Column_398 Column_399 Column_400 Column_401 Column_402 Column_403 Column_404 Column_405 Column_406 Column_407 Column_408 Column_409 Column_410 Column_411 Column_412 Column_413 Column_414 Column_415 Column_416 Column_417 Column_418 Column_419 Column_420 Column_421 Column_422 Column_423 Column_424 Column_425 Column_426 Column_427 Column_428 Column_429 Column_430 Column_431 Column_432 Column_433 Column_434 Column_435 Column_436 Column_437 Column_438 Column_439 Column_440 Column_441 Column_442 Column_443 Column_444 Column_445 Column_446 Column_447 Column_448 Column_449 Column_450 Column_451 Column_452 Column_453 Column_454 Column_455 Column_456 Column_457 Column_458 Column_459 Column_460 Column_461 Column_462 Column_463 Column_464 Column_465 Column_466 Column_467 Column_468 Column_469 Column_470 Column_471 Column_472 Column_473 Column_474 Column_475 Column_476 Column_477 Column_478 Column_479 Column_480 Column_481 Column_482 Column_483 Column_484 Column_485 Column_486 Column_487 Column_488 Column_489 Column_490 Column_491 Column_492 Column_493 Column_494 Column_495 Column_496 Column_497 Column_498 Column_499 Column_500 Column_501 Column_502 Column_503 Column_504 Column_505 Column_506 Column_507 Column_508 Column_509 Column_510 Column_511 Column_512 Column_513 Column_514 Column_515 Column_516 Column_517 Column_518 Column_519 Column_520 Column_521 Column_522 Column_523 Column_524 Column_525 Column_526 Column_527 Column_528 Column_529 Column_530 Column_531 Column_532 Column_533 Column_534 Column_535 Column_536 Column_537 Column_538 Column_539 Column_540 Column_541 Column_542 Column_543 Column_544 Column_545 Column_546 Column_547 Column_548 Column_549 Column_550 Column_551 Column_552 Column_553 Column_554 Column_555 Column_556 Column_557 Column_558 Column_559 Column_560 Column_561 Column_562 Column_563 Column_564 Column_565 Column_566 Column_567 Column_568 Column_569 Column_570 Column_571 Column_572 Column_573 Column_574 Column_575 Column_576 Column_577 Column_578 Column_579 Column_580 Column_581 Column_582 Column_583 Column_584 Column_585 Column_586 Column_587 Column_588 Column_589 Column_590 Column_591 Column_592 Column_593 Column_594 Column_595 Column_596
feature_infos=[8737.4285335728928:37216.131933841592] [8074.9014977073839:27059.879669834427] [27936.556871381745:715597.38078745524] [11535458.937839745:6853672223.2605085] [16527717.703986408:3251599226.0794387] [-3946.7595454859706:3835.981182430362] [255.82277860216917:240119.94455450703] [310.47493125023107:83253.529240881151] [315.39239451445627:211294.77804379255] [345.16722368589626:121257.59580206848] [303.76871678642965:120150.08375933941] [149.80058106827346:16257.784565870534] [147.41010489692184:19658.235318076659] [2.5602815512614603:3025.7543198278445] [8737.4285335728928:37216.131933841592] [8074.9014977073839:27059.879669834427] [8762.0504397121185:26649.630025851115] [9027.2410276702431:31336.629339205843] [27936.556871381745:715597.38078745524] [11535458.937839745:6853672223.2605085] [16527717.703986408:3251599226.0794387] [-3946.7595454859706:3835.981182430362] [255.82277860216917:240119.94455450703] [310.47493125023107:83253.529240881151] [315.39239451445627:211294.77804379255] [345.16722368589626:121257.59580206848] [303.76871678642965:120150.08375933941] [149.80058106827346:16257.784565870534] [147.41010489692184:19658.235318076659] [2.5602815512614603:3025.7543198278445] [8737.4285335728928:37216.131933841592] [8074.9014977073839:27059.879669834427] [8762.0504397121185:26649.630025851115] [9027.2410276702431:31336.629339205843] [27936.556871381745:715597.38078745524] [11535458.937839745:6853672223.2605085] [16527717.703986408:3251599226.0794387] [255.82277860216917:240119.94455450703] [310.47493125023107:83253.529240881151] [315.39239451445627:211294.77804379255] [345.16722368589626:121257.59580206848] [303.76871678642965:120150.08375933941] [149.80058106827346:16257.784565870534] [147.41010489692184:19658.235318076659] [2.5602815512614603:3025.7543198278445] [8737.4285335728928:37216.131933841592] [8074.9014977073839:27059.879669834427] [8762.0504397121185:26649.630025851115] [9027.2410276702431:31336.629339205843] [27936.556871381745:715597.38078745524] [32025.83079344573:563979.79820248473] [16527717.703986408:3251599226.0794387] [255.82277860216917:240119.94455450703] [433.80267393145454:69380.245018227724] [310.47493125023107:83253.529240881151] [315.39239451445627:211294.77804379255] [345.16722368589626:121257.59580206848] [303.76871678642965:120150.08375933941] [149.80058106827346:16257.784565870534] [147.41010489692184:19658.235318076659] [2.5602815512614603:3025.7543198278445] [8737.4285335728928:37216.131933841592] [8074.9014977073839:27059.879669834427] [8762.0504397121185:26649.630025851115] [9027.2410276702431:31336.629339205843] [27936.556871381745:715597.38078745524] [16527717.703986408:3251599226.0794387] [255.82277860216917:240119.94455450703] [433.80267393145454:69380.245018227724] [310.47493125023107:83253.529240881151] [315.39239451445627:211294.77804379255] [345.16722368589626:121257.59580206848] [303.76871678642965:120150.08375933941] [149.80058106827346:16257.784565870534] [147.41010489692184:19658.235318076659] [2.5602815512614603:3025.7543198278445] [8737.4285335728928:37216.131933841592] [8074.9014977073839:27059.879669834427] [8762.0504397121185:26649.630025851115] [9027.2410276702431:31336.629339205843] [16527717.703986408:3251599226.0794387] [255.82277860216917:240119.94455450703] [433.80267393145454:69380.245018227724] [310.47493125023107:83253.529240881151] [315.39239451445627:211294.77804379255] [345.16722368589626:121257.59580206848] [303.76871678642965:120150.08375933941] [149.80058106827346:16257.784565870534] [147.41010489692184:19658.235318076659] [2.5602815512614603:3025.7543198278445] [8737.4285335728928:37216.131933841592] [8074.9014977073839:27059.879669834427] [8762.0504397121185:26649.630025851115] [9027.2410276702431:31336.629339205843] [255.82277860216917:240119.94455450703] [433.80267393145454:69380.245018227724] [310.47493125023107:83253.529240881151] [315.39239451445627:211294.77804379255] [345.16722368589626:121257.59580206848] [303.76871678642965:120150.08375933941] [149.80058106827346:16257.784565870534] [147.41010489692184:19658.235318076659] [2.5602815512614603:3025.7543198278445] [8737.4285335728928:37216.131933841592] [8074.9014977073839:27059.879669834427] [8762.0504397121185:26649.630025851115] [9027.2410276702431:31336.629339205843] [5.5387493183348633e-08:1.7457692134379248e-06] [255.82277860216917:240119.94455450703] [433.80267393145454:69380.245018227724] [310.47493125023107:83253.529240881151] [315.39239451445627:211294.77804379255] [345.16722368589626:121257.59580206848] [303.76871678642965:120150.08375933941] [149.80058106827346:16257.784565870534] [147.41010489692184:19658.235318076659] [2.5602815512614603:3025.7543198278445] [8737.4285335728928:37216.131933841592] [8074.9014977073839:27059.879669834427] [8762.0504397121185:26649.630025851115] [9027.2410276702431:31336.629339205843] [9168.4027568037436:38431.462156575508] [25625.704908173644:931702.87600419659] [5.5387493183348633e-08:1.7457692134379248e-06] [255.82277860216917:240119.94455450703] [433.80267393145454:69380.245018227724] [310.47493125023107:83253.529240881151] [315.39239451445627:211294.77804379255] [345.16722368589626:121257.59580206848] [303.76871678642965:120150.08375933941] [149.80058106827346:16257.784565870534] [147.41010489692184:19658.235318076659] [2.5602815512614603:3025.7543198278445] [8737.4285335728928:37216.131933841592] [8074.9014977073839:27059.879669834427] [8762.0504397121185:26649.630025851115] [9027.2410276702431:31336.629339205843] [9168.4027568037436:38431.462156575508] [25625.704908173644:931702.87600419659] [11540382.21765336:12218099760.958662] [5.5387493183348633e-08:1.7457692134379248e-06] [255.82277860216917:240119.94455450703] [433.80267393145454:69380.245018227724] [310.47493125023107:83253.529240881151] [315.39239451445627:211294.77804379255] [345.16722368589626:121257.59580206848] [303.76871678642965:120150.08375933941] [149.80058106827346:16257.784565870534] [147.41010489692184:19658.235318076659] [2.5602815512614603:3025.7543198278445] [8737.4285335728928:37216.131933841592] [8074.9014977073839:27059.879669834427] [8762.0504397121185:26649.630025851115] [9027.2410276702431:31336.629339205843] [9168.4027568037436:38431.462156575508] [21880.534308526916:683838.2735888086] [25625.704908173644:931702.87600419659] [11540382.21765336:12218099760.958662] [5.5387493183348633e-08:1.7457692134379248e-06] [255.82277860216917:240119.94455450703] [433.80267393145454:69380.245018227724] [310.47493125023107:83253.529240881151] [315.39239451445627:211294.77804379255] [345.16722368589626:121257.59580206848] [303.76871678642965:120150.08375933941] [149.80058106827346:16257.784565870534] [147.41010489692184:19658.235318076659] [2.5602815512614603:3025.7543198278445] [8737.4285335728928:37216.131933841592] [8074.9014977073839:27059.879669834427] [8762.0504397121185:26649.630025851115] [9027.2410276702431:31336.629339205843] [9168.4027568037436:38431.462156575508] [21880.534308526916:683838.2735888086] [25625.704908173644:931702.87600419659] [29232.035513419272:469547.59162405657] [11540382.21765336:12218099760.958662] [5.5387493183348633e-08:1.7457692134379248e-06] [255.82277860216917:240119.94455450703] [433.80267393145454:69380.245018227724] [310.47493125023107:83253.529240881151] [315.39239451445627:211294.77804379255] [345.16722368589626:121257.59580206848] [303.76871678642965:120150.08375933941] [149.80058106827346:16257.784565870534] [78.817471987428917:16237.831419327449] [147.41010489692184:19658.235318076659] [2.5602815512614603:3025.7543198278445] [8737.4285335728928:37216.131933841592] [8074.9014977073839:27059.879669834427] [8762.0504397121185:26649.630025851115] [9027.2410276702431:31336.629339205843] [9168.4027568037436:38431.462156575508] [7551.2806676931659:25943.963318050202] [21339.477837259976:507340.33449554117] [21880.534308526916:683838.2735888086] [25625.704908173644:931702.87600419659] [29232.035513419272:469547.59162405657] [15230.042147943073:573527.65551575238] [11540382.21765336:12218099760.958662] [15689745.12005654:2988868010.4529476] [5.5387493183348633e-08:1.7457692134379248e-06] [-1516377.3200344036:9892921.2646595389] [255.82277860216917:240119.94455450703] [433.80267393145454:69380.245018227724] [310.47493125023107:83253.529240881151] [315.39239451445627:211294.77804379255] [345.16722368589626:121257.59580206848] [303.76871678642965:120150.08375933941] [149.80058106827346:16257.784565870534] [78.817471987428917:16237.831419327449] [141.34230806226122:24054.378872308735] [147.41010489692184:19658.235318076659] [2.5602815512614603:3025.7543198278445] [8737.4285335728928:37216.131933841592] [8074.9014977073839:27059.879669834427] [8762.0504397121185:26649.630025851115] [9027.2410276702431:31336.629339205843] [9168.4027568037436:38431.462156575508] [7551.2806676931659:25943.963318050202] [21339.477837259976:507340.33449554117] [21880.534308526916:683838.2735888086] [25625.704908173644:931702.87600419659] [29232.035513419272:469547.59162405657] [15230.042147943073:573527.65551575238] [7596437.733353938:2936551399.5446138] [11540382.21765336:12218099760.958662] [15689745.12005654:2988868010.4529476] [-5312.0784190942995:4121.5152532996863] [5.5387493183348633e-08:1.7457692134379248e-06] [-1516377.3200344036:9892921.2646595389] [255.82277860216917:240119.94455450703] [433.80267393145454:69380.245018227724] [310.47493125023107:83253.529240881151] [315.39239451445627:211294.77804379255] [345.16722368589626:121257.59580206848] [303.76871678642965:120150.08375933941] [149.80058106827346:16257.784565870534] [78.817471987428917:16237.831419327449] [141.34230806226122:24054.378872308735] [147.41010489692184:19658.235318076659] [127.93690618799577:18931.510242492765] [2.5602815512614603:3025.7543198278445] [8737.4285335728928:37216.131933841592] [8074.9014977073839:27059.879669834427] [8762.0504397121185:26649.630025851115] [9027.2410276702431:31336.629339205843] [9168.4027568037436:38431.462156575508] [7551.2806676931659:25943.963318050202] [21339.477837259976:507340.33449554117] [21880.534308526916:683838.2735888086] [25625.704908173644:931702.87600419659] [29232.035513419272:469547.59162405657] [15230.042147943073:573527.65551575238] [7596437.733353938:2936551399.5446138] [11540382.21765336:12218099760.958662] [15689745.12005654:2988868010.4529476] [3627409.5830993513:3694467248.3705969] [16527717.703986408:3251599226.0794387] [-6623.1308422629863:7071.8664755898308] [-5639.7979820248474:4373.4627228474637] [-5312.0784190942995:4121.5152532996863] [5.5387493183348633e-08:1.7457692134379248e-06] [-947995.01883568545:11910363.248375] [-1178089.1648279945:8610933.0825893041] [-1516377.3200344036:9892921.2646595389] [255.82277860216917:240119.94455450703] [433.80267393145454:69380.245018227724] [310.47493125023107:83253.529240881151] [315.39239451445627:211294.77804379255] [345.16722368589626:121257.59580206848] [303.76871678642965:120150.08375933941] [565.58473476992913:164037.0879755152] [149.80058106827346:16257.784565870534] [78.817471987428917:16237.831419327449] [141.34230806226122:24054.378872308735] [147.41010489692184:19658.235318076659] [127.93690618799577:18931.510242492765] [2.5602815512614603:3025.7543198278445] [2.7161901338295769:6627.2409053010524] [8737.4285335728928:37216.131933841592] [8074.9014977073839:27059.879669834427] [8762.0504397121185:26649.630025851115] [9027.2410276702431:31336.629339205843] [9168.4027568037436:38431.462156575508] [7551.2806676931659:25943.963318050202] [21339.477837259976:507340.33449554117] [30482.489385270641:606768.97072009929] [21880.534308526916:683838.2735888086] [25625.704908173644:931702.87600419659] [27194.612582211368:1596688.8851065682] [29232.035513419272:469547.59162405657] [15230.042147943073:573527.65551575238] [7596437.733353938:2936551399.5446138] [13363043.168536279:3772298976.205483] [11540382.21765336:12218099760.958662] [15689745.12005654:2988868010.4529476] [3627409.5830993513:3694467248.3705969] [16527717.703986408:3251599226.0794387] [-6623.1308422629863:7071.8664755898308] [-5639.7979820248474:4373.4627228474637] [-5312.0784190942995:4121.5152532996863] [5.5387493183348633e-08:1.7457692134379248e-06] [-3206423.5989453169:19405764.985256333] [-947995.01883568545:11910363.248375] [-1178089.1648279945:8610933.0825893041] [-1516377.3200344036:9892921.2646595389] [-7451834.3864492597:20721945.857134968] [-371062.39036048972:13996882.636838689] [-2158729.2113996036:17395818.999356952] [255.82277860216917:240119.94455450703] [433.80267393145454:69380.245018227724] [310.47493125023107:83253.529240881151] [315.39239451445627:211294.77804379255] [345.16722368589626:121257.59580206848] [303.76871678642965:120150.08375933941] [565.58473476992913:164037.0879755152] [149.80058106827346:16257.784565870534] [78.817471987428917:16237.831419327449] [141.34230806226122:24054.378872308735] [147.41010489692184:19658.235318076659] [127.93690618799577:18931.510242492765] [2.5602815512614603:3025.7543198278445] [2.7161901338295769:6627.2409053010524] [8737.4285335728928:37216.131933841592] [8807.5882233844623:26593.338036464807] [7434.4964744413801:21735.517207261473] [8074.9014977073839:27059.879669834427] [8762.0504397121185:26649.630025851115] [9027.2410276702431:31336.629339205843] [9168.4027568037436:38431.462156575508] [7551.2806676931659:25943.963318050202] [21339.477837259976:507340.33449554117] [30482.489385270641:606768.97072009929] [21880.534308526916:683838.2735888086] [25625.704908173644:931702.87600419659] [27194.612582211368:1596688.8851065682] [29232.035513419272:469547.59162405657] [15230.042147943073:573527.65551575238] [32025.83079344573:563979.79820248473] [24736.157184090673:479564.59274840122] [27361.619873650165:772244.95275749883] [25531.916563972754:1829827.6258417261] [7596437.733353938:2936551399.5446138] [13363043.168536279:3772298976.205483] [11540382.21765336:12218099760.958662] [15689745.12005654:2988868010.4529476] [3627409.5830993513:3694467248.3705969] [16527717.703986408:3251599226.0794387] [9961694.7749260981:2778511880.9148979] [11222253.191955466:6527864029.0141144] [1:19] [1:19] [1:21] [-6623.1308422629863:7071.8664755898308] [-3653.6361337633948:3755.2099842076755] [-5639.7979820248474:4373.4627228474637] [5.5387493183348633e-08:1.7457692134379248e-06] [-2843436.4337586924:8615055.1609282941] [-3206423.5989453169:19405764.985256333] [-955236.00312337361:11510412.10597223] [-947995.01883568545:11910363.248375] [-1178089.1648279945:8610933.0825893041] [-1516377.3200344036:9892921.2646595389] [-7451834.3864492597:20721945.857134968] [-371062.39036048972:13996882.636838689] [-1123235.2396343451:12621966.219221573] [-2158729.2113996036:17395818.999356952] [-2305812.6581475353:21772172.042816553] [255.82277860216917:240119.94455450703] [433.80267393145454:69380.245018227724] [310.47493125023107:83253.529240881151] [315.39239451445627:211294.77804379255] [345.16722368589626:121257.59580206848] [303.76871678642965:120150.08375933941] [565.58473476992913:164037.0879755152] [149.80058106827346:16257.784565870534] [146.12809099199296:18021.955444714451] [78.817471987428917:16237.831419327449] [141.34230806226122:24054.378872308735] [147.41010489692184:19658.235318076659] [127.93690618799577:18931.510242492765] [2.5602815512614603:3025.7543198278445] [2.7161901338295769:6627.2409053010524] [8737.4285335728928:37216.131933841592] [8807.5882233844623:26593.338036464807] [9393.230063668514:30761.694610479193] [7434.4964744413801:21735.517207261473] [8074.9014977073839:27059.879669834427] [8762.0504397121185:26649.630025851115] [9027.2410276702431:31336.629339205843] [9168.4027568037436:38431.462156575508] [9451.0153449304544:29732.414357015579] [7551.2806676931659:25943.963318050202] [21339.477837259976:507340.33449554117] [27936.556871381745:715597.38078745524] [30482.489385270641:606768.97072009929] [21880.534308526916:683838.2735888086] [25625.704908173644:931702.87600419659] [27194.612582211368:1596688.8851065682] [29232.035513419272:469547.59162405657] [15230.042147943073:573527.65551575238] [32025.83079344573:563979.79820248473] [24736.157184090673:479564.59274840122] [27361.619873650165:772244.95275749883] [25531.916563972754:1829827.6258417261] [7596437.733353938:2936551399.5446138] [11535458.937839745:6853672223.2605085] [13363043.168536279:3772298976.205483] [7598599.7395407604:5979389534.0794687] [11540382.21765336:12218099760.958662] [15689745.12005654:2988868010.4529476] [3627409.5830993513:3694467248.3705969] [16527717.703986408:3251599226.0794387] [9961694.7749260981:2778511880.9148979] [11222253.191955466:6527864029.0141144] [1:19] [1:21] [-12014.552724046274:5283.3612618085708] [-3653.6361337633948:3755.2099842076755] [-5639.7979820248474:4373.4627228474637] [-14884.040719054754:7430.2309513470846] [5.5387493183348633e-08:1.7457692134379248e-06] [-2843436.4337586924:8615055.1609282941] [-3562364.7652794775:14299079.142961878] [-3206423.5989453169:19405764.985256333] [-955236.00312337361:11510412.10597223] [-947995.01883568545:11910363.248375] [-1178089.1648279945:8610933.0825893041] [-1516377.3200344036:9892921.2646595389] [-3809707.1220641863:8154930.881795425] [-3096366.2118791332:12609215.735021679] [-2672541.1308119642:17084030.467520107] [-7451834.3864492597:20721945.857134968] [-371062.39036048972:13996882.636838689] [-1123235.2396343451:12621966.219221573] [-1310790.5866697913:9924429.8236880656] [-2158729.2113996036:17395818.999356952] [-2305812.6581475353:21772172.042816553] [-6718113.4578362862:26170967.25228053] [255.82277860216917:240119.94455450703] [433.80267393145454:69380.245018227724] [310.47493125023107:83253.529240881151] [315.39239451445627:211294.77804379255] [345.16722368589626:121257.59580206848] [303.76871678642965:120150.08375933941] [565.58473476992913:164037.0879755152] [149.80058106827346:16257.784565870534] [78.817471987428917:16237.831419327449] [141.34230806226122:24054.378872308735] [147.41010489692184:19658.235318076659] [127.93690618799577:18931.510242492765] [2.5602815512614603:3025.7543198278445] [2.7161901338295769:6627.2409053010524] [8737.4285335728928:37216.131933841592] [8807.5882233844623:26593.338036464807] [9393.230063668514:30761.694610479193] [7434.4964744413801:21735.517207261473] [8074.9014977073839:27059.879669834427] [8762.0504397121185:26649.630025851115] [9027.2410276702431:31336.629339205843] [9168.4027568037436:38431.462156575508] [9451.0153449304544:29732.414357015579] [7551.2806676931659:25943.963318050202] [21339.477837259976:507340.33449554117] [27936.556871381745:715597.38078745524] [30482.489385270641:606768.97072009929] [21880.534308526916:683838.2735888086] [25625.704908173644:931702.87600419659] [27194.612582211368:1596688.8851065682] [29232.035513419272:469547.59162405657] [15230.042147943073:573527.65551575238] [24736.157184090673:479564.59274840122] [27361.619873650165:772244.95275749883] [25531.916563972754:1829827.6258417261] [7596437.733353938:2936551399.5446138] [11535458.937839745:6853672223.2605085] [13363043.168536279:3772298976.205483] [7598599.7395407604:5979389534.0794687] [11540382.21765336:12218099760.958662] [15689745.12005654:2988868010.4529476] [3627409.5830993513:3694467248.3705969] [16527717.703986408:3251599226.0794387] [9961694.7749260981:2778511880.9148979] [11222253.191955466:6527864029.0141144] [1:19] [1:21] [-12014.552724046274:5283.3612618085708] [-5639.7979820248474:4373.4627228474637] [-14884.040719054754:7430.2309513470846] [-18731.226705941597:6113.1946842254247] [-17496.798899152764:8304.2375514934683] [5.5387493183348633e-08:1.7457692134379248e-06] [-2843436.4337586924:8615055.1609282941] [-1683766.0623999534:11702152.812471211] [-1785439.1264550369:12686262.06567606] [-3562364.7652794775:14299079.142961878] [-3206423.5989453169:19405764.985256333] [-3186153.1047302904:12483815.306475272] [-955236.00312337361:11510412.10597223] [-947995.01883568545:11910363.248375] [-1516377.3200344036:9892921.2646595389] [-3809707.1220641863:8154930.881795425] [-3096366.2118791332:12609215.735021679] [-2672541.1308119642:17084030.467520107] [-7451834.3864492597:20721945.857134968] [-371062.39036048972:13996882.636838689] [-1123235.2396343451:12621966.219221573] [-2158729.2113996036:17395818.999356952] [-2305812.6581475353:21772172.042816553] [-6718113.4578362862:26170967.25228053] [255.82277860216917:240119.94455450703] [433.80267393145454:69380.245018227724] [310.47493125023107:83253.529240881151] [315.39239451445627:211294.77804379255] [345.16722368589626:121257.59580206848] [303.76871678642965:120150.08375933941] [565.58473476992913:164037.0879755152] [149.80058106827346:16257.784565870534] [141.34230806226122:24054.378872308735] [147.41010489692184:19658.235318076659] [127.93690618799577:18931.510242492765] [130.94994714793449:22196.355349140482] [2.5602815512614603:3025.7543198278445] [2.7161901338295769:6627.2409053010524] [8737.4285335728928:37216.131933841592] [8807.5882233844623:26593.338036464807] [9393.230063668514:30761.694610479193] [7434.4964744413801:21735.517207261473] [8074.9014977073839:27059.879669834427] [8762.0504397121185:26649.630025851115] [9027.2410276702431:31336.629339205843] [9168.4027568037436:38431.462156575508] [9451.0153449304544:29732.414357015579] [7551.2806676931659:25943.963318050202] [21339.477837259976:507340.33449554117] [27936.556871381745:715597.38078745524] [30482.489385270641:606768.97072009929] [21880.534308526916:683838.2735888086] [25625.704908173644:931702.87600419659] [27194.612582211368:1596688.8851065682] [29232.035513419272:469547.59162405657] [15230.042147943073:573527.65551575238] [24736.157184090673:479564.59274840122] [27361.619873650165:772244.95275749883] [25531.916563972754:1829827.6258417261] [7596437.733353938:2936551399.5446138] [11535458.937839745:6853672223.2605085] [13363043.168536279:3772298976.205483] [7598599.7395407604:5979389534.0794687] [11540382.21765336:12218099760.958662] [15689745.12005654:2988868010.4529476] [3627409.5830993513:3694467248.3705969] [9961694.7749260981:2778511880.9148979] [11222253.191955466:6527864029.0141144] [1:19] [1:21] [-10515.647599449241:6019.6214466163528] [-12014.552724046274:5283.3612618085708] [-10417.650022420066:5188.9757300307174] [-5735.2765551575239:5358.1993346650879] [-5639.7979820248474:4373.4627228474637] [-14884.040719054754:7430.2309513470846] [-18731.226705941597:6113.1946842254247] [-17496.798899152764:8304.2375514934683] [5.5387493183348633e-08:1.7457692134379248e-06] [-6310683.5724220267:8683309.5696856696] [-2843436.4337586924:8615055.1609282941] [-1683766.0623999534:11702152.812471211] [-1785439.1264550369:12686262.06567606] [-3562364.7652794775:14299079.142961878] [-4157707.4264765773:15097649.481747124] [-3186153.1047302904:12483815.306475272] [-4318922.0354354214:13928348.544424927] [-955236.00312337361:11510412.10597223] [-1516377.3200344036:9892921.2646595389] [-3096366.2118791332:12609215.735021679] [-1951691.2963354501:14549450.173649604] [-2672541.1308119642:17084030.467520107] [-3168729.2680175421:17650220.746964011] [-7451834.3864492597:20721945.857134968] [-371062.39036048972:13996882.636838689] [-1123235.2396343451:12621966.219221573] [-2305812.6581475353:21772172.042816553] [-6718113.4578362862:26170967.25228053] [255.82277860216917:240119.94455450703] [433.80267393145454:69380.245018227724] [310.47493125023107:83253.529240881151] [315.39239451445627:211294.77804379255] [345.16722368589626:121257.59580206848] [303.76871678642965:120150.08375933941] [565.58473476992913:164037.0879755152] [149.80058106827346:16257.784565870534] [141.34230806226122:24054.378872308735] [147.41010489692184:19658.235318076659] [130.94994714793449:22196.355349140482] [2.7161901338295769:6627.2409053010524]
tree_sizes=2782 2835 2842 2844 2848 2853 2843 2834 2832 2840 2852 2844 2855 2845 2836 2838 2846 2827 2836 2837 2843 2840 2840 2832 2829 2840 2845 2835 2840 2840 2834 2830 2841 2838 2854 2846 2826 2839 2844 2831 2827 2849 2836 2833 2852 2835 2839 2849 2829 2835 2837 2854 2852 2834 2841 2833 2837 2840 2845 2844 2841 2831 2849 2846 2862 2852 2854 2846 2851 2841 2837 2843 2864 2837 2857 2840 2863 2864 2842 2865 2860 2847 2853 2864 2848 2845 2842 2866 2856 2862 2873 2853 2855 2848 2857 2845 2858 2855 2871 2850 2870 2858 2872 2848 2856 2872 2850 2855 2866 2864 2860 2868 2866 2870 2867 2858 2862 2864 2864 2863 2854 2864 2849 2868 2867 2880 2864 2851 2866 2870 2865 2870 2869 2877 2865 2864 2865 2882 2867 2882 2858 2878 2874 2869 2859 2866 2870 2867 2867 2889 2878 2871 2870 2885 2883 2873 2867 2882 2867 2866 2879 2866 2879 2866 2865 2862 2848 2872 2885 2878 2869 2858 2877 2876 2875 2857 2872 2865 2878 2890 2868 2880 2879 2880 2878 2869 2886 2887 2895 2872 2863 2887 2877 2881 2876 2887 2873 2878 2874 2896 2887 2883 2887 2878 2870 2873 2882 2880 2889 2879 2884 2881 2889 2888 2890 2896 2868 2891 2884 2895 2909 2882 2875 2875 2905 2888 2912 2904 2876 2887 2906 2899 2892 2887 2900 2903 2865 2892 2880 2895 2893 2886 2887 2904 2900 2900 2902 2899 2883 2890 2888 2876 2890 2908 2892 2880 2892 2888 2895 2893 2900 2896 2911 2886 2914 2893 2903 2885 2888 2886 2882 2883 2913 2893 2907 2883 2906 2905 2880 2893 2886 2877 2915 2917 2899 2891 2890 2901 2882 2921 2900 2906 2898 2914 2897 2916 2910 2916 2893 2880 2930 2895 2916 2900 2901 2901 2901 2920 2898 2904 2931 2922 2900 2920 2888 2902 2912 2917 2911 2920 2905 2909 2916 2914 2916 2923 2930 2924 2918 2907 2886 2903 2930 2896 2894 2912 2915 2900 2913 2924 2923 2917 2925 2908 2923 2905 2912 2893 2905 2904 2896 2933 2903 2916 2895 2924 2886 2903 2896 2933 2930 2892 2924 2912 2917 2912 2921 2919 2919 2900 2902 2909 2929 2891 2923 2928 2919 2938 2912 2892 2891 2932 2909 2920 2922 2931 2909 2913 2905 2923 2926 2916 2913 2935 2936 2919 2940 2913 2938 2917 2937 2925 2917 2914 2928 2931 2912 2934 2940 2931 2919 2931 2937 2935 2927 2898 2931 2924 2917 2893 2914 2930 2934 2932 2935 2931 2924 2947 2925 2914 2930 2912 2922 2923 2924 2903 2889 2895 2924 2927 2936 2924 2930 2935 2930 2908 2915 2932 2932 2926 2908 2929 2927 2924 2914 2938 2927 2924 2924 2929 2935 2908 2932 2938 2923 2921 2940 2904 2904 2921 2940 2932 2913 2918 2939 2889 2926 2917 2918 2936 2920 2930 2933 2911 2944 2919 2930 2901 2912 2922 2932 2908 2895 2903 2939 2910 2925 2912 2931 2942 2917 2938 2913 2929 2933 2900 2932 2910 2927 2932 2926 2908 2924 2917 2933 2926 2939 2917 2943 2918 2941 2918 2945 2935 2932 2929 2942 2905 2938 2930 2914 2946 2936 2945 2926 2936 2921 2949 2929 2929 2942 2948 2931 2923 2926 2926 2914 2929 2910 2921 2940 2926 2942 2891 2918 2937 2938 2912 2925 2923 2916 2936 2925 2931 2940 2922 2926 2910 2925 2928 2953 2906 2922 2924 2928 2920 2911 2932 2935 2905 2909 2938 2927 2911 2903 2922 2940 2927 2938 2925 2929 2912 2933 2920 2941 2920 2930 2927 2936 2910 2910 2928 2942 2939 2916 2929 2908 2936 2915 2922 2921 2934 2917 2890 2924 2936 2941 2919 2918 2940 2932 2933 2903 2931 2929 2897 2937 2922 2929 2943 2936 2937 2931 2908 2921 2937 2923 2940 2912 2939 2927 2910 2912 2929 2922 2909 2942 2933 2930 2920 2937 2919 2923 2931 2944 2926 2915 2934 2936 2934 2936 2921 2926 2919 2927 2927 2936 2938 2954 2937 2902 2938 2927 2914 2938 2923 2922 2909 2932 2887 2931 2904 2934 2910 2939 2909 2922 2930 2938 2902 2917 2932 2925 2925 2952 2899 2928 2931 2911 2931 2927 2919 2900 2922 2936 2944 2936 2918 2944 2939 2917 2904 2919 2928 2917 2907 2928 2924 2936 2908 2926 2906 2930 2927 2927 2937 2950 2916 2924 2914 2939 2926 2914 2925 2910 2915 2922 2951 2919 2916 2915 2917 2945 2911 2926 2937 2906 2912 2933 2928 2932 2915 2899 2909 2923 2919 2933 2915 2937 2924 2929 2919 2950 2933 2930 2922 2932 2931 2929 2933 2925 2939 2942 2891 2917 2927 2940 2917 2924 2941 2941 2924 2924 2936 2897 2935 2924 2912 2928 2923 2917 2876 2886 2932 2927 2951 2934 2928 2906 2936 2952 2932 2931 2945 2933 2913 2926 2945 2916 2892 2914 2938 2930 2934 2937 2924 2929 2919 2940 2925 2925 2915 2932 2908 2918 2921 2944 2909 2911 2924 2925 2938 2936 2936 2926 2928 2925 2934 2896 2914 2922 2930 2909 2946 2910 2954 2924 2927 2943 2915 2948 2963 2922 2900 2917 2926 2938 2932 2927 2931 2944 2953 2923 2937 2905 2924 2918 2929 2942 2929 2945 2916 2902 2928 2921 2897 2925 2917 2906 2940 2934 2951 2905 2915 2887 2919 2931 2909 2909 2923 2928 2941 2924 2945 2929 2910 2925 2924 2901 2936 2913 2952 2918 2924 2931 2927 2922 2923 2940 2916 2921 2938 2925 2931 2953 2922 2922 2939 2931 2910 2924 2935 2931 2952 2918 2908 2936 2918 2915 2915 2909 2922 2898 2946 2909 2939 2932 2948 2940 2929 2892 2937 2928 2922 2914 2953 2945 2907 2924 2901 2911 2962 2927 2927 2950 2952 2956 2971 2940 2914 2935 2949 2926 2917 2955 2906 2942 2914 2929 2934 2916 2944 2920 2940 2897 2941 2933 2931 2919 2939 2914 2953 2935 2920 2914 2924 2926 2926 2937 2897 2910 2914 2943 2951 2920 2918 2918 2956 2907 2923

Tree=0
num_leaves=31
num_cat=0
split_feature=444 460 589 283 314 246 71 329 9 207 112 515 384 515 314 103 56 17 217 186 41 120 373 194 168 106 235 594 589 205
split_gain=425.692 189.535 160.482 106.472 88.9943 65.0607 51.9966 40.9608 40.2718 36.4189 36.2331 35.2177 34.2394 31.9218 26.4483 25.7037 25.452 25.1077 24.695 23.9787 23.552 21.1754 20.7678 20.463 20.1622 20.0076 19.2193 18.5846 17.8917 17.0577
threshold=12862.708069414046 16656.980935306066 12862.708069414046 16657.441646845236 13117.469942800779 15910.260381556358 12255.707090825121 16973.748231509358 15957.682989525061 15955.461860681937 18248.299171014798 21553.301943959235 17523.408643003382 12256.949812130939 19371.843900412929 16086.671457084401 14969.976388437904 16688.246524673832 18592.787823914725 3933.530578356022 7656.7579274595109 15585.900746630548 13547.111886877037 127645.93835772855 15622.882912156934 16025.88071162073 13277.801954766697 4134.1766613496156 21050.280557030081 7031.9050023732152
decision_type=2 2 2 2 2 2 2 2 2 2 2 2 2 2 2 2 2 2 2 2 2 2 2 2 2 2 2 2 2 2
left_child=2 3 4 11 13 10 12 21 19 17 24 18 14 26 -3 23 -13 -5 -2 -7 -11 -6 -10 -8 27 -9 -1 -4 -12 -16
right_child=1 6 5 9 7 8 15 25 22 20 28 16 -14 -15 29 -17 -18 -19 -20 -21 -22 -23 -24 -25 -26 -27 -28 -29 -30 -31
leaf_value=0.01254633415784738 0.016433201435737513 0.02375539922352601 0.016756085509289913 0.020333395067608891 0.015126347457348603 0.019304865214410619 0.037006617189399529 0.019876288216963921 0.025240422176831291 0.024398765323894497 0.019031666700914478 0.020126238901345683 0.017507670002995204 0.015827881486850406 0.025140679728712804 0.024776523125778417 0.031240277433840821 0.030553860991718404 0.025405629336270885 0.029187777335515613 0.036486357086997392 0.019474105285989699 0.036902566316337176 0.027612809826206786 0.013888856133351449 0.028912228494659572 0.014996382156415527 0.023488969781474439 0.027287506852440867 0.035722210492380169
leaf_weight=2093 741 132 281 107 404 160 78 69 37 27 63 87 57 446 25 39 27 31 32 29 40 155 26 33 232 38 378 48 45 39
leaf_count=2093 741 132 281 107 404 160 78 69 37 27 63 87 57 446 25 39 27 31 32 29 40 155 26 33 232 38 378 48 45 39
internal_value=0.0166104 0.021234 0.0150756 0.019071 0.0141186 0.0187988 0.0270952 0.0174169 0.0231293 0.0255662 0.0171675 0.0175698 0.0243294 0.0133656 0.0263132 0.0317602 0.0227585 0.0226293 0.0168046 0.0208213 0.0316152 0.0163319 0.0300534 0.0342139 0.0161464 0.0230853 0.0129211 0.0177384 0.0224716 0.0315888
internal_weight=0 1495 4504 1092 3583 921 403 666 252 205 669 887 253 2917 196 150 114 138 773 189 67 559 63 111 561 107 2471 329 108 64
internal_count=5999 1495 4504 1092 3583 921 403 666 252 205 669 887 253 2917 196 150 114 138 773 189 67 559 63 111 561 107 2471 329 108 64
is_linear=0
shrinkage=1


Tree=1
num_leaves=31
num_cat=0
split_feature=444 460 589 283 314 246 71 329 9 207 112 515 384 515 314 103 56 17 217 186 41 120 373 194 168 106 235 594 9 205
split_gain=417.221 185.763 157.289 104.353 87.2233 63.766 50.9619 40.1457 39.4704 35.6942 35.5121 34.5168 33.558 31.2865 25.922 25.1922 24.9455 24.6081 24.2035 23.5015 23.0834 20.754 20.3546 20.0558 19.761 19.6095 18.8475 18.2148 17.6569 16.7183
threshold=12862.708069414046 16656.980935306066 12862.708069414046 16657.441646845236 13117.469942800779 15910.260381556358 12255.707090825121 16973.748231509358 15957.682989525061 15955.461860681937 18248.299171014798 21553.301943959235 17523.408643003382 12256.949812130939 19371.843900412929 16086.671457084401 14969.976388437904 16688.246524673832 18592.787823914725 3933.530578356022 7656.7579274595109 15585.900746630548 13547.111886877037 127645.93835772855 15622.882912156934 16025.88071162073 8736.4873605802513 4134.1766613496156 17690.994299737449 7031.9050023732152
decision_type=2 2 2 2 2 2 2 2 2 2 2 2 2 2 2 2 2 2 2 2 2 2 2 2 2 2 2 2 2 2
left_child=2 3 4 11 13 10 12 21 19 17 24 18 14 26 -3 23 -13 -5 -2 -7 -11 -6 -10 -8 27 -9 -1 -4 -12 -16
right_child=1 6 5 9 7 8 15 25 22 20 28 16 -14 -15 29 -17 -18 -19 -20 -21 -22 -23 -24 -25 -26 -27 -28 -29 -30 -31
leaf_value=-0.0042471571846726015 -0.00017538564223588751 0.0070735903591213926 0.0001442696519189405 0.0036858060512589465 -0.0014691710810201234 0.0026675615279418709 0.020192296100326645 0.0032332702600599635 0.0085437629329090988 0.0077105225788222419 0.0038160978826619258 0.0034807214373722673 0.00088833828677276256 -0.00077465248400410179 0.0084450177744030946 0.0080845030378072693 0.014483619969752099 0.013804067634046078 0.0087073179575963885 0.01245164499714457 0.019677238333504647 0.0028351091451251941 0.020089285006889931 0.01089242630948623 -0.002694287449712333 0.01217885094988895 -0.0023700182957040673 0.0068098248894481609 0.014032544078571456 0.018920733088102097
leaf_weight=1688 741 132 281 107 404 160 78 69 37 27 87 87 57 446 25 39 27 31 32 29 40 155 26 33 232 38 783 48 21 39
leaf_count=1688 741 132 281 107 404 160 78 69 37 27 87 87 57 446 25 39 27 31 32 29 40 155 26 33 232 38 783 48 21 39
internal_value=0 0.00457743 -0.00151937 0.00243602 -0.00246682 0.00216652 0.01038 0.000798482 0.00645376 0.00886625 0.0005516 0.000949892 0.00764183 -0.00321235 0.00960586 0.0149983 0.00608667 0.00595875 0.000192333 0.00416882 0.0148548 -0.000275677 0.0133086 0.0174275 -0.000459293 0.00641021 -0.00365234 0.00111675 0.00580263 0.0148287
internal_weight=0 1495 4504 1092 3583 921 403 666 252 205 669 887 253 2917 196 150 114 138 773 189 67 559 63 111 561 107 2471 329 108 64
internal_count=5999 1495 4504 1092 3583 921 403 666 252 205 669 887 253 2917 196 150 114 138 773 189 67 559 63 111 561 107 2471 329 108 64
is_linear=0
shrinkage=0.01


Tree=2
num_leaves=31
num_cat=0
split_feature=444 460 589 283 314 25 71 329 314 246 207 515 384 515 314 103 56 17 217 41 145 531 120 194 106 235 112 120 106 205
split_gain=408.918 182.066 154.159 102.277 85.4875 63.0013 49.9477 39.3468 36.5413 35.8653 34.9839 33.8299 32.8902 30.6735 25.4062 24.6909 24.4491 24.1184 23.7219 22.624 21.6992 20.8151 20.341 19.6736 19.2192 18.8504 18.7093 17.077 16.7613 16.3856
threshold=12862.708069414046 16656.980935306066 12862.708069414046 16657.441646845236 13117.469942800779 12640.401734009602 12255.707090825121 16973.748231509358 17143.259845575722 14772.419676928248 15955.461860681937 21553.301943959235 17523.408643003382 12637.185251341545 19371.843900412929 16086.671457084401 14969.976388437904 16688.246524673832 18592.787823914725 7656.7579274595109 12640.401734009602 15955.494694263847 15585.900746630548 119819.27913335194 16025.88071162073 13277.801954766697 18982.05628289677 14428.128068653592 15204.730025172672 7031.9050023732152
decision_type=2 2 2 2 2 2 2 2 2 2 2 2 2 2 2 2 2 2 2 2 2 2 2 2 2 2 2 2 2 2
left_child=2 3 4 11 13 8 12 22 26 27 17 18 14 25 -3 23 -13 -5 -2 -12 -11 -10 -6 -8 -9 -1 -4 -7 -27 -16
right_child=1 6 5 10 7 9 15 24 21 20 19 16 -14 -15 29 -17 -18 -19 -20 -21 -22 -23 -24 -25 -26 28 -28 -29 -30 -31
leaf_value=-0.0039713579723544262 -0.00017363181649254793 0.0070028543526617195 -0.0010906224936248887 0.0036489479816584004 -0.0014544793484970561 -0.00057550987858763513 0.02041315545078734 0.0032009375091318205 0.0024813231183215974 0.0066748894285410644 0.007633417566065435 0.0034459141587628449 0.00087945485691817704 -0.00068336381642767295 0.0083605675354599951 0.0080036578461145751 0.014338783349979806 0.013666026335089438 0.0086202449561096732 0.019480466592125593 0.015418603809221703 0.011865560084772415 0.0028067579644792261 0.011644264811649919 0.012057063154337045 -0.0030076481448126865 0.0042954564763459605 0.0066508023499969454 0.001463227314694274 0.018731526346542897
leaf_weight=2113 741 132 502 107 404 68 71 69 60 64 27 87 57 421 25 39 27 31 32 40 51 39 155 40 38 259 74 63 124 39
leaf_count=2113 741 132 502 107 404 68 71 69 60 64 27 87 57 421 25 39 27 31 32 40 51 39 155 40 38 259 74 63 124 39
internal_value=0 0.00453166 -0.00150418 0.00241166 -0.00244216 0.00214486 0.0102762 0.000790497 0.000565937 0.00647727 0.00877759 0.000940393 0.00756541 -0.00318022 0.0095098 0.0148483 0.0060258 0.00589916 0.00019041 0.0147063 0.0105525 0.00617814 -0.00027292 0.0172532 0.0063461 -0.00360137 -0.000398661 0.00289974 -0.00156016 0.0146804
internal_weight=0 1495 4504 1092 3583 921 403 666 675 246 205 887 253 2917 196 150 114 138 773 67 115 99 559 111 107 2496 576 131 383 64
internal_count=5999 1495 4504 1092 3583 921 403 666 675 246 205 887 253 2917 196 150 114 138 773 67 115 99 559 111 107 2496 576 131 383 64
is_linear=0
shrinkage=0.01


Tree=3
num_leaves=31
num_cat=0
split_feature=444 460 589 283 314 246 71 329 9 85 112 515 384 373 589 314 103 56 217 186 120 373 270 194 168 106 594 589 520 9
split_gain=400.78 178.443 151.091 100.241 83.7863 61.7673 48.9538 38.5638 38.2772 34.4946 34.233 33.1567 32.2357 30.1454 29.7715 24.9006 24.1995 23.9626 23.2498 22.8972 19.9362 19.8267 19.358 19.3173 19.3046 18.8368 17.7832 17.4001 16.2295 16.1066
threshold=12862.708069414046 16656.980935306066 12862.708069414046 16657.441646845236 13117.469942800779 15910.260381556358 12255.707090825121 16973.748231509358 15957.682989525061 14778.901135510832 18248.299171014798 21553.301943959235 17523.408643003382 13425.683983197672 8479.7651930527936 19371.843900412929 16086.671457084401 14969.976388437904 18592.787823914725 3933.530578356022 15585.900746630548 13547.111886877037 13098.188622533815 127645.93835772855 15622.882912156934 16025.88071162073 4134.1766613496156 21050.280557030081 2299.504662856737 9879.7328856594231
decision_type=2 2 2 2 2 2 2 2 2 2 2 2 2 2 2 2 2 2 2 2 2 2 2 2 2 2 2 2 2 2
left_child=2 3 4 11 13 10 12 20 19 14 24 18 15 22 -5 -3 23 -13 -2 28 -6 -10 -1 -8 26 -9 -4 -12 -7 -11
right_child=1 6 5 9 7 8 16 25 21 29 27 17 -14 -15 -16 -17 -18 -19 -20 -21 -22 -23 -24 -25 -26 -27 -28 -29 -30 -31
leaf_value=-0.0038774829489347071 -0.00017189555063761404 0.0069328257615790898 0.00013832557311337906 0.0015664772621725928 -0.0014399346021421273 0.00017673915923494701 0.019794110603726062 0.0031689282254302414 0.0083907090273459221 0.009828422575675207 0.002297247865889591 0.0034114550740522299 0.00087066029688637517 -0.00048122108088038561 0.010597856829504241 0.014533566609879927 0.0079236211455785306 0.014195395828121238 0.0085340424103924305 0.012268422687875813 0.0027786905100989729 0.019785527804723153 -0.0013109587546531385 0.010667060012929141 -0.0026675633986777592 0.011936492504380447 0.0067244424383776881 0.010438885867595673 0.0067779925204142612 0.020279683232307437
leaf_weight=2208 741 132 281 73 404 101 78 69 37 29 63 87 57 370 73 64 39 27 32 29 155 26 339 33 232 38 48 45 59 30
leaf_count=2208 741 132 281 73 404 101 78 69 37 29 63 87 57 370 73 64 39 27 32 29 155 26 339 33 232 38 48 45 59 30
internal_value=0 0.00448634 -0.00148914 0.00238754 -0.00241773 0.00212341 0.0101734 0.000782592 0.00634292 0.00868981 0.000533998 0.000930989 0.00748976 -0.00314842 0.00608217 0.0094147 0.0146998 0.00596555 0.000188506 0.00409279 -0.000270191 0.0130933 -0.00353588 0.0170807 -0.000458524 0.00628264 0.00109922 0.0056896 0.00261095 0.0151426
internal_weight=0 1495 4504 1092 3583 921 403 666 252 205 669 887 253 2917 146 196 150 114 773 189 559 63 2547 111 561 107 329 108 160 59
internal_count=5999 1495 4504 1092 3583 921 403 666 252 205 669 887 253 2917 146 196 150 114 773 189 559 63 2547 111 561 107 329 108 160 59
is_linear=0
shrinkage=0.01


Tree=4
num_leaves=31
num_cat=0
split_feature=444 460 589 283 314 25 71 329 314 246 207 589 384 515 314 103 17 41 145 531 171 594 120 194 106 235 112 120 106 268
split_gain=392.805 174.892 148.084 98.2464 82.119 61.2853 47.9796 37.7964 35.4907 34.6308 33.9016 32.9436 31.5942 29.974 24.4051 23.718 23.4733 22.0013 21.0395 20.2021 19.7857 19.8755 19.5395 18.9491 18.4619 18.3907 17.968 16.6373 16.3964 16.2937
threshold=12862.708069414046 16656.980935306066 12862.708069414046 16657.441646845236 13117.469942800779 12640.401734009602 12255.707090825121 16973.748231509358 17143.259845575722 14772.419676928248 15955.461860681937 20645.790184293804 17523.408643003382 12637.185251341545 19371.843900412929 16086.671457084401 16688.246524673832 7656.7579274595109 12640.401734009602 15955.494694263847 18589.35566451116 2316.0772355645795 15585.900746630548 119819.27913335194 16025.88071162073 13277.801954766697 18982.05628289677 14428.128068653592 15204.730025172672 6009.0907776916692
decision_type=2 2 2 2 2 2 2 2 2 2 2 2 2 2 2 2 2 2 2 2 2 2 2 2 2 2 2 2 2 2
left_child=2 3 4 11 13 8 12 22 26 27 16 20 14 25 -3 23 -5 -12 -11 -10 -2 -22 -6 -8 -9 -1 -4 -7 -27 -13
right_child=1 6 5 10 7 9 15 24 19 18 17 29 -14 -15 -16 -17 -18 -19 -20 -21 21 -23 -24 -25 -26 28 -28 -29 -30 -31
leaf_value=-0.0038987027747843391 -0.00022646825211925499 0.0068634973446596902 -0.0010838383518557567 0.0035494462112574099 -0.0014255352154520218 -0.00057046586811980774 0.020011083597028759 0.0031372388501219668 0.0024338713656179606 0.0065614438255579442 0.0074643316947751569 0.00091620110705579549 0.00086195366796138775 -0.00064871105446061012 0.014388231116099633 0.0078443850605533667 0.013431652036886062 0.01914720262773335 0.015171223262909289 0.011678884649792543 0.00011930476696718308 0.014048520330339671 0.002750903509166693 0.01140517959627323 0.011817127005687279 -0.0029487315520174929 0.0041944576107984964 0.0065622130983937835 0.0014732114174553462 0.0085445454506227723
leaf_weight=2113 725 132 502 107 404 68 71 69 60 64 27 44 57 421 64 39 31 40 51 39 21 20 155 40 38 259 74 63 124 77
leaf_count=2113 725 132 502 107 404 68 71 69 60 64 27 44 57 421 64 39 31 40 51 39 21 20 155 40 38 259 74 63 124 77
internal_value=0 0.00444148 -0.00147425 0.00236367 -0.00239356 0.00210218 0.0100717 0.000774766 0.000544906 0.00637517 0.00860291 0.000921679 0.00741486 -0.00311694 0.00932055 0.0145528 0.00576936 0.0144392 0.0103797 0.00607585 0.000155726 0.00691404 -0.000267489 0.0169099 0.00621982 -0.00353325 -0.000405724 0.00285975 -0.00151708 0.0057706
internal_weight=0 1495 4504 1092 3583 921 403 666 675 246 205 887 253 2917 196 150 138 67 115 99 766 41 559 111 107 2496 576 131 383 121
internal_count=5999 1495 4504 1092 3583 921 403 666 675 246 205 887 253 2917 196 150 138 67 115 99 766 41 559 111 107 2496 576 131 383 121
is_linear=0
shrinkage=0.01


Tree=5
num_leaves=31
num_cat=0
split_feature=444 460 589 283 314 25 492 329 314 246 262 515 373 384 217 56 217 531 115 145 390 120 270 456 106 112 120 405 7 182
split_gain=384.988 171.412 145.137 96.2913 80.4848 60.0657 47.1025 37.0442 34.7844 33.9417 33.5324 32.335 29.4258 27.3939 24.9858 23.4446 22.6503 21.9315 21.333 20.6209 19.8837 19.1507 18.8899 18.7171 18.0945 17.6105 16.3062 15.4771 15.3496 14.772
threshold=12862.708069414046 16656.980935306066 12862.708069414046 16657.441646845236 13117.469942800779 12640.401734009602 8.4335038293948707e-07 16973.748231509358 17143.259845575722 14772.419676928248 6.3020995318519414e-07 21553.301943959235 13425.683983197672 17280.950628583432 13627.384924362595 14969.976388437904 18592.787823914725 17999.350961228356 3271.3644995502627 12640.401734009602 16187.035423141057 15585.900746630548 13098.188622533815 13811.290821628656 16025.88071162073 18982.05628289677 14428.128068653592 88634.395404205425 10021.18993641524 13288.313655000169
decision_type=2 2 2 2 2 2 2 2 2 2 2 2 2 2 2 2 2 2 2 2 2 2 2 2 2 2 2 2 2 2
left_child=2 3 4 11 12 8 13 21 25 26 -5 16 22 17 -8 -13 -2 -3 23 -11 -10 -6 29 -12 -9 -4 -7 -16 -25 -1
right_child=1 6 5 10 7 9 14 24 20 19 18 15 -14 -15 27 -17 -18 -19 -20 -21 -22 -23 -24 28 -26 -27 -28 -29 -30 -31
leaf_value=-0.0041495020288595591 -0.00017648654255586173 0.0068989661289379006 -0.0010729999316070923 0.0042493088178567054 -0.0014112799087513958 -0.00056476121877922737 0.0071134246637423841 0.0031058665211363091 0.0029178901458742903 0.0064958292989831532 0.01659632840504249 0.0033579047890808216 -0.00045059395506561145 0.0019960154855194001 0.010229330898939886 0.014024666712610741 0.0084164612340100579 0.01350885698824753 0.018906567789175932 0.015019510898364745 0.012499845561105758 0.0027233944546521433 -0.0012707159015581673 0.00073903726206885447 0.011698956263594722 0.004152513043829114 0.0064965909909427402 0.019797617486894948 0.011856038717795975 -0.001858249932043592
leaf_weight=1877 741 132 502 97 404 68 30 69 67 64 24 87 370 65 22 27 32 81 34 51 32 155 339 27 38 74 63 73 23 331
leaf_count=1877 741 132 502 97 404 68 30 69 67 64 24 87 370 65 22 27 32 81 34 51 32 155 339 27 38 74 63 73 23 331
internal_value=0 0.00439706 -0.00145951 0.00234003 -0.00236962 0.00208115 0.00997096 0.000767018 0.000539457 0.00631142 0.00851688 0.000912462 -0.00308577 0.0076785 0.0150694 0.00588424 0.000179237 0.00941259 0.0123498 0.0102759 0.00601509 -0.000264814 -0.00346858 0.00933723 0.00615762 -0.000401667 0.00283116 0.0175818 0.00585286 -0.00380602
internal_weight=0 1495 4504 1092 3583 921 403 666 675 246 205 887 2917 278 125 114 773 213 108 115 99 559 2547 74 107 576 131 95 50 2208
internal_count=5999 1495 4504 1092 3583 921 403 666 675 246 205 887 2917 278 125 114 773 213 108 115 99 559 2547 74 107 576 131 95 50 2208
is_linear=0
shrinkage=0.01


Tree=6
num_leaves=31
num_cat=0
split_feature=444 515 314 329 531 531 589 390 390 422 128 235 93 145 85 217 0 246 28 589 43 182 283 283 168 217 373 331 539 325
split_gain=378.175 202.858 111.613 88.7532 77.5657 56.6657 55.4621 49.9466 45.9843 45.9372 35.4324 34.7717 34.868 28.9788 28.7715 26.8725 26.801 25.0385 24.8881 23.3317 22.0186 21.3493 20.2415 20.1259 19.4307 17.8201 17.6321 16.7147 16.075 15.8496
threshold=20645.790184293804 12862.708069414046 20341.05412561772 16732.355633564272 15907.198316056907 16973.748231509358 13287.74325720456 17752.884466755495 15937.873562231985 5.3129400715573396e-07 12549.754860832347 13818.201720072308 16779.88077301416 13829.639715415409 15413.008980771776 20103.468206024467 14815.884345221812 18180.690111244181 2609.088651055542 21050.280557030081 3235.7618870895149 13288.313655000169 16784.122122003388 15699.015747182175 15622.882912156934 13857.839759181572 17681.172445701031 10401.822640072338 103694.40218061082 15346.771326822325
decision_type=2 2 2 2 2 2 2 2 2 2 2 2 2 2 2 2 2 2 2 2 2 2 2 2 2 2 2 2 2 2
left_child=1 2 6 5 8 15 11 17 -2 -5 18 21 -13 -8 -7 19 -11 -4 28 -3 -15 26 -14 27 -21 -12 -1 -10 -6 -25
right_child=4 3 7 9 10 14 13 -9 23 16 25 12 22 20 -16 -17 -18 -19 -20 24 -22 -23 -24 29 -26 -27 -28 -29 -30 -31
leaf_value=-0.0039486445413260806 0.0012972226383533539 -0.00048365361572295012 0.0013925608730774417 0.0015664812345575127 0.0029071681739827782 0.0041314852602954491 -0.00096184322719210691 0.01645682528748044 0.013242614213377238 0.017058250030645958 0.0093001921191811568 -0.0016375042255434616 0.0024403124270511085 0.0020690689825021446 0.012892966427662376 0.011400043786588042 0.007829585598140466 0.0099765849254356744 0.017294558065810376 0.0086050672483231339 0.011066339268718901 -0.0012867342896185452 0.0137055554300208 0.015166858095818987 -0.0001149909776893068 0.019193487678890796 -0.00010046290743741253 0.0029819634969213177 0.0099323510236449929 0.0060393092731634776
leaf_weight=2164 212 675 264 54 57 128 461 28 20 65 25 441 58 136 53 22 61 39 28 56 34 421 22 52 47 67 126 77 76 30
leaf_count=2164 212 675 264 54 57 128 461 28 20 65 25 441 58 136 53 22 61 39 28 56 34 421 22 52 47 67 126 77 76 30
internal_value=0 -0.000870703 -0.00189475 0.00282855 0.00724008 0.00164421 -0.00237227 0.00367829 0.00444842 0.00928323 0.0115545 -0.00290171 -0.00053566 0.000339523 0.006697 0.000501017 0.0125904 0.00249744 0.00872556 0.000192819 0.00386852 -0.00335641 0.00553825 0.00818056 0.00462601 0.0165051 -0.00373691 0.00509756 0.00692156 0.0118275
internal_weight=0 5355 4194 1161 644 981 3863 331 391 180 253 3232 521 631 181 800 126 303 161 778 170 2711 80 179 103 92 2290 97 133 82
internal_count=5999 5355 4194 1161 644 981 3863 331 391 180 253 3232 521 631 181 800 126 303 161 778 170 2711 80 179 103 92 2290 97 133 82
is_linear=0
shrinkage=0.01


Tree=7
num_leaves=31
num_cat=0
split_feature=444 460 589 283 314 246 71 9 329 85 85 589 384 589 515 314 103 186 171 594 373 120 194 235 106 168 205 268 531 520
split_gain=371.214 165.481 139.755 93.1994 77.6806 58.791 46.124 36.4485 35.7621 32.9573 32.8405 31.6176 30.1376 28.6075 28.5285 23.4686 22.9531 22.0361 19.0824 19.2793 19.0345 18.671 18.2507 18.047 17.6021 16.9325 15.8983 15.818 16.2849 15.7345
threshold=12862.708069414046 16656.980935306066 12862.708069414046 16657.441646845236 13117.469942800779 15910.260381556358 12255.707090825121 15957.682989525061 16973.748231509358 21590.405732010404 14778.901135510832 20645.790184293804 17523.408643003382 8479.7651930527936 12162.840317420518 19371.843900412929 16086.671457084401 3933.530578356022 18589.35566451116 2316.0772355645795 13547.111886877037 15585.900746630548 127645.93835772855 8736.4873605802513 16025.88071162073 16155.714298891204 7031.9050023732152 6009.0907776916692 15398.618331574804 2299.504662856737
decision_type=2 2 2 2 2 2 2 2 2 2 2 2 2 2 2 2 2 2 2 2 2 2 2 2 2 2 2 2 2 2
left_child=2 3 4 11 14 9 12 17 21 25 13 18 15 -5 23 -3 22 29 -2 -20 -9 -6 -8 -1 -10 -4 -17 -13 -29 -7
right_child=1 6 5 10 8 7 16 20 24 -11 -12 27 -14 -15 -16 26 -18 -19 19 -21 -22 -23 -24 -25 -26 -27 -28 28 -30 -31
leaf_value=-0.0040382206167348155 -0.00023362582835152038 0.0066411603559655219 0.00094459236589754432 0.0014025455218267769 -0.0013905630609361193 0.0001115913686600726 0.019144131830678538 0.008137289945970641 0.0030418282900464494 0.0069833073636816276 0.014669626639303514 0.00085941241699567241 0.00078929609620102207 0.010255602157661971 -0.00072636822720861121 0.0077949968621134763 0.0075885563582564009 0.011982524821470525 8.6770405371983849e-05 0.013805483403615653 0.019302165359258654 0.0026920021953842333 0.01027262974643346 -0.0021993675261102459 0.011517185925653107 -0.002599037617944726 0.018010578588224375 0.003836095357457033 0.013034524803883151 0.006611391106675679
leaf_weight=1681 725 132 394 73 404 101 78 37 69 70 59 44 57 73 454 25 39 29 21 20 26 155 33 782 38 205 39 39 38 59
leaf_count=1681 725 132 394 73 404 101 78 37 69 70 59 44 57 73 454 25 39 29 21 20 26 155 33 782 38 205 39 39 38 59
internal_value=0 0.00431769 -0.00143316 0.00229656 -0.00232624 0.00204123 0.0097943 0.00615783 0.000755273 0.00049058 0.00837343 0.000892093 0.00718937 0.00582907 -0.0030298 0.00905062 0.014188 0.0039621 0.000141714 0.00677883 0.012745 -0.000258546 0.0165067 -0.00345439 0.00605177 -0.000268169 0.0140201 0.00564243 0.00837558 0.00250839
internal_weight=0 1495 4504 1092 3583 921 403 252 666 669 205 887 253 146 2917 196 150 189 766 41 63 559 111 2463 107 599 64 121 77 160
internal_count=5999 1495 4504 1092 3583 921 403 252 666 669 205 887 253 146 2917 196 150 189 766 41 63 559 111 2463 107 599 64 121 77 160
is_linear=0
shrinkage=0.01


Tree=8
num_leaves=31
num_cat=0
split_feature=444 515 314 329 531 531 207 390 422 390 79 373 128 85 9 0 64 12 28 163 128 283 40 246 217 246 331 539 41 325
split_gain=364.706 196.015 107.759 86.1057 74.6727 54.9858 53.7439 48.4772 44.6374 44.4751 36.8625 34.5854 34.5152 27.9763 26.3005 26.126 25.1107 24.7118 24.0545 23.0386 20.3767 19.4284 19.1259 17.53 17.3502 16.4517 16.3742 15.6839 15.4915 15.427
threshold=20645.790184293804 12862.708069414046 20341.05412561772 16732.355633564272 15907.198316056907 16973.748231509358 13824.297959379792 17752.884466755495 5.3129400715573396e-07 15937.873562231985 16872.600196499818 14638.651173345053 12549.754860832347 15413.008980771776 13287.74325720456 14815.884345221812 17997.273472731791 5604.8460463734882 2609.088651055542 13288.313655000169 22316.994122748485 15699.015747182175 18256.537250769896 16732.355633564272 13857.839759181572 17752.884466755495 10401.822640072338 103694.40218061082 6436.1447546936179 15346.771326822325
decision_type=2 2 2 2 2 2 2 2 2 2 2 2 2 2 2 2 2 2 2 2 2 2 2 2 2 2 2 2 2 2
left_child=1 2 6 5 9 14 11 17 -5 -2 20 19 18 -7 -3 -10 -16 25 27 -1 -8 26 -12 -13 -14 -4 -11 -6 -25 -23
right_child=4 3 7 8 12 13 10 -9 15 21 22 23 24 -15 16 -17 -18 -19 -20 -21 -22 29 -24 28 -26 -27 -28 -29 -30 -31
leaf_value=-0.0036448489544424014 0.0012718248375217026 -0.0004602946523919177 0.0006470940759900867 0.0015321531891822815 0.0028123170436000484 0.0040622471167444021 -0.0012392703103931522 0.016203455863786596 0.016810227267909796 0.013073832374066115 0.0037363371004197582 -0.0008406775923383875 0.0091200010210275659 0.012701800498707255 0.0025672158443883646 0.0076985127356697302 0.014486690394580365 0.012916090470694362 0.016975355518183539 -0.0011414318111773324 0.0053718465018798324 0.014918983215824341 0.014879741912707687 -0.00097989664226770393 0.018881995773582318 0.0073659740223787551 0.0029182215474013772 0.0097515021627278715 0.010631869893383097 0.0059139592517167333
leaf_weight=2373 212 628 239 54 57 128 543 28 65 20 67 327 25 53 152 61 20 21 28 435 51 52 20 20 67 43 77 76 27 30
leaf_count=2373 212 628 239 54 57 128 543 28 65 20 67 327 25 53 152 61 20 21 28 435 51 52 20 20 67 43 77 76 27 30
internal_value=0 -0.000855057 -0.00186168 0.00278127 0.00710999 0.00161473 -0.00233089 0.00361428 0.00913895 0.00437088 0.000218752 -0.00287655 0.0113432 0.00659206 0.000488607 0.012399 0.0039532 0.00245092 0.00855109 -0.00325703 -0.000671649 0.00804126 0.00629804 -1.98904e-05 0.0162293 0.0016716 0.00501216 0.00677757 0.00569069 0.0116245
internal_weight=0 5355 4194 1161 644 981 3863 331 180 391 681 3182 253 181 800 126 172 303 161 2808 594 179 87 374 92 282 97 133 47 82
internal_count=5999 5355 4194 1161 644 981 3863 331 180 391 681 3182 253 181 800 126 172 303 161 2808 594 179 87 374 92 282 97 133 47 82
is_linear=0
shrinkage=0.01


Tree=9
num_leaves=31
num_cat=0
split_feature=444 460 589 283 314 25 145 329 515 153 71 246 515 373 207 56 271 390 71 217 145 71 112 270 120 106 589 577 120 56
split_gain=358.047 159.732 135.587 90.1591 74.9587 57.5709 45.1783 34.5431 33.1138 32.5242 32.4365 32.0474 30.6524 27.8853 24.4771 22.4298 22.424 22.2381 22.041 21.682 19.5872 19.3102 19.1009 18.2281 18.1775 17.1403 16.0648 15.6482 15.6455 15.2374
threshold=12862.708069414046 16656.980935306066 12862.708069414046 16657.441646845236 13117.469942800779 12640.401734009602 9964.9412707431711 16973.748231509358 19371.843900412929 13963.948614071965 11182.698936520732 14772.419676928248 21553.301943959235 13425.683983197672 15413.008980771776 14969.976388437904 22834.35896968337 17911.847627675586 10967.549399558988 18592.787823914725 12640.401734009602 14778.901135510832 18248.299171014798 13098.188622533815 15585.900746630548 16025.88071162073 7578.653296179883 305999.61072917114 14428.128068653592 23264.665880250977
decision_type=2 2 2 2 2 2 2 2 2 2 2 2 2 2 2 2 2 2 2 2 2 2 2 2 2 2 2 2 2 2
left_child=2 3 4 12 13 8 16 24 22 -8 17 28 19 23 -12 -14 29 26 27 -2 -13 -10 -4 -1 -6 -9 -5 -11 -7 -3
right_child=1 6 5 10 7 11 9 25 21 18 14 20 15 -15 -16 -17 -18 -19 -20 -21 -22 -23 -24 -25 -26 -27 -28 -29 -30 -31
leaf_value=-0.003682431946094173 -0.00018858657818541808 0.0039168204642937082 -0.0011578451310122158 -0.0015605611427752083 -0.0013734775279071712 -0.00055199846022707579 0.0054230351847529947 0.0029751228227995448 0.0035216621724179103 0.015241081226617097 0.008477769522194532 0.0063243137202516663 0.0032429830074824136 -0.00041303068314477604 0.019616455462049036 0.013676327980571874 0.013440989200025797 0.014395494503634317 0.018993712812662124 0.0082186993199866269 0.014631610953924703 0.014242737332270258 0.0042575616997977102 -0.0011919393683275466 0.0026547754695254093 0.011338557077718801 0.0064478451700609486 0.0054939375814449581 0.0063648072550339368 0.013187997851520777
leaf_weight=2208 741 156 495 43 404 68 42 69 84 40 47 64 87 370 34 27 38 21 79 32 51 21 75 339 155 38 60 28 63 20
leaf_count=2208 741 156 495 43 404 68 42 69 84 40 47 64 87 370 34 27 38 21 79 32 51 21 75 339 155 38 60 28 63 20
internal_value=0 0.00424042 -0.00140751 0.00225471 -0.00228717 0.00201468 0.00962106 0.000739871 0.000505335 0.0131838 0.00823164 0.00615616 0.000873344 -0.0029783 0.0131533 0.00571404 0.00647449 0.00501671 0.0154012 0.000159451 0.0100084 0.00566588 -0.000445292 -0.00335095 -0.00025652 0.00594531 0.00310453 0.0112276 0.0027744 0.00497036
internal_weight=0 1495 4504 1092 3583 921 403 666 675 189 205 246 887 2917 81 114 214 124 147 773 115 105 570 2547 559 107 103 68 131 176
internal_count=5999 1495 4504 1092 3583 921 403 666 675 189 205 246 887 2917 81 114 214 124 147 773 115 105 570 2547 559 107 103 68 131 176
is_linear=0
shrinkage=0.01


Tree=10
num_leaves=31
num_cat=0
split_feature=515 373 329 531 390 85 270 577 246 71 56 106 235 324 589 341 117 12 526 490 589 444 314 145 85 207 136 145 35 428
split_gain=352.828 158.687 149.733 81.4852 74.4725 68.3554 59.2502 37.4996 36.159 38.2556 36.0238 34.7776 30.481 28.2607 26.5821 25.857 23.129 23.8777 20.3179 19.6361 19.2345 18.3359 17.9238 17.0664 16.5043 16.3236 15.1607 15.075 14.8546 15.6172
threshold=12862.708069414046 12637.185251341545 15997.40797366804 16656.980935306066 16657.441646845236 12045.353230509716 13098.188622533815 705584.41676591185 16504.358811721202 16129.346623981621 8227.8513450045284 15584.806634279756 6559.2350567708972 17385.696474271641 12862.708069414046 319111.84695785813 15950.263414604737 5056.3094534395977 13041.355902305344 -578.26098987463399 19371.843900412929 13287.74325720456 18385.838929699443 4840.2844704529871 19374.048557130827 13425.683983197672 13354.592984035691 13829.639715415409 467964132.41734356 218401.61348002948
decision_type=2 2 2 2 2 2 2 2 2 2 2 2 2 2 2 2 2 2 2 2 2 2 2 2 2 2 2 2 2 2
left_child=1 6 3 16 8 13 14 18 -3 -10 22 -8 -7 15 21 23 17 20 -6 -12 -2 -1 -5 -4 -21 -13 -14 -16 29 -22
right_child=2 4 5 10 7 12 11 -9 9 -11 19 25 26 -15 27 -17 -18 -19 -20 24 28 -23 -24 -25 -26 -27 -28 -29 -30 -31
leaf_value=-0.003701465864430068 0.00059935005871718217 -0.00028654203776700944 0.0013775030561318658 0.0018778172376243255 0.01569219268539556 0.0072388314349162907 -0.0011754587360366458 -7.8189716831671989e-05 0.0021657520406422139 0.013558543528895826 0.0031629982751540165 0.0019537018724667429 0.0094429649040102953 -0.00033649904094636439 -0.0017697881536015451 0.015556575655937195 -0.0017278102848027577 0.012290377946836609 0.0076987297319382145 0.010756347224453528 0.015016631024579207 -0.00092020137343731627 0.011022157582833812 0.008014699278670984 0.020221159005606615 0.0082014704551547774 0.018655506394803525 0.0025434369846897304 -0.00026260527968406677 0.0039299976053061309
leaf_weight=2177 435 611 53 104 46 45 454 47 112 40 22 138 22 55 344 35 276 21 103 58 24 266 27 144 27 60 95 106 25 27
leaf_count=2177 435 611 53 104 46 45 454 47 112 40 22 138 22 55 344 35 276 21 103 58 24 266 27 144 27 60 95 106 25 27
internal_value=0 -0.00139722 0.00420941 0.00213595 0.00221164 0.00903978 -0.00237349 0.00770987 0.000799251 0.00516386 0.00727864 0.000349756 0.0142331 0.00610835 -0.00298723 0.00763623 0.000621143 0.00183977 0.0101665 0.0115834 0.0014103 -0.00339863 0.00376253 0.00622906 0.0137628 0.00384697 0.0169232 -0.000753784 0.00605189 0.00914724
internal_weight=0 4504 1495 1046 959 449 3545 196 763 152 238 652 162 287 2893 232 808 532 149 107 511 2443 131 197 85 198 117 450 76 51
internal_count=5999 4504 1495 1046 959 449 3545 196 763 152 238 652 162 287 2893 232 808 532 149 107 511 2443 131 197 85 198 117 450 76 51
is_linear=0
shrinkage=0.01


Tree=11
num_leaves=31
num_cat=0
split_feature=444 515 314 329 531 531 207 390 422 390 79 128 373 85 217 0 12 28 163 589 128 186 283 168 90 246 331 283 539 455
split_gain=347.006 185.428 103.098 82.1325 71.2015 52.0841 51.7511 46.2985 42.8781 42.3898 35.7613 33.074 32.5424 26.8353 25.6921 25.1353 23.9506 23.2859 22.2748 21.8193 19.5797 18.5922 18.5834 18.5331 16.8647 16.7658 15.939 15.8237 15.2242 14.9693
threshold=20645.790184293804 12862.708069414046 20341.05412561772 16732.355633564272 15907.198316056907 16973.748231509358 13824.297959379792 17752.884466755495 5.3129400715573396e-07 15937.873562231985 16872.600196499818 12549.754860832347 14638.651173345053 15413.008980771776 20103.468206024467 14815.884345221812 5604.8460463734882 2609.088651055542 13288.313655000169 21050.280557030081 22316.994122748485 2343.5382535109725 15699.015747182175 15622.882912156934 15296.664933149017 16732.355633564272 10401.822640072338 17752.884466755495 103694.40218061082 13737.555636403335
decision_type=2 2 2 2 2 2 2 2 2 2 2 2 2 2 2 2 2 2 2 2 2 2 2 2 2 2 2 2 2 2
left_child=1 2 6 5 9 14 12 16 -5 -2 20 17 18 -7 19 -10 27 28 -1 -3 -8 -12 26 -21 -13 -14 -11 -4 -6 -24
right_child=4 3 7 8 11 13 10 -9 15 22 21 24 25 -15 -16 -17 -18 -19 -20 23 -22 -23 29 -25 -26 -27 -28 -29 -30 -31
leaf_value=-0.0035579187010353701 0.0012350963465957289 -0.00048813728948718767 0.00036848240712850002 0.0014565883333691294 0.0026841035381955426 0.0039299297006436971 -0.0012035451447846312 0.015846143556492668 0.01643391680946717 0.012835229262709618 0.0023337159668296286 0.019363626639951361 -0.00083920407088803467 0.012391479151007139 0.01112436325035312 0.0074966261706879882 0.012708934023976326 0.016624350802573774 -0.0010963475788716745 0.0083392161263951235 0.0052769892046447189 0.011719903626039417 0.015834723196637174 -0.00017706747622566022 0.010631874986244618 0.0055482116920199795 0.0028155138428238306 0.0060555209448590643 0.0095208423045512885 0.0072792992974783097
leaf_weight=2373 212 675 219 54 57 128 543 28 65 20 51 55 327 53 22 61 21 28 435 56 51 36 39 47 37 47 77 63 76 43
leaf_count=2373 212 675 219 54 57 128 543 28 65 20 51 55 327 53 22 61 21 28 435 56 51 36 39 47 37 47 77 63 76 43
internal_value=0 -0.000834051 -0.00181311 0.00270271 0.00693531 0.0015634 -0.00227206 0.00354313 0.00891197 0.00426062 0.000229864 0.0110689 -0.00280751 0.00640762 0.000467397 0.0121071 0.00240621 0.00833577 -0.00317659 0.000166043 -0.000647136 0.00621766 0.00784393 0.00445314 0.0158519 -3.65074e-05 0.00488143 0.00163899 0.00659081 0.0113483
internal_weight=0 5355 4194 1161 644 981 3863 331 180 391 681 253 3182 181 800 126 303 161 2808 778 594 87 179 103 92 374 97 282 133 82
internal_count=5999 5355 4194 1161 644 981 3863 331 180 391 681 253 3182 181 800 126 303 161 2808 778 594 87 179 103 92 374 97 282 133 82
is_linear=0
shrinkage=0.01


Tree=12
num_leaves=31
num_cat=0
split_feature=444 460 589 283 314 246 492 9 85 329 515 85 589 373 476 56 217 186 217 450 373 120 270 235 168 405 520 520 490 69
split_gain=340.236 152.464 129.152 86.3943 71.4549 55.4495 44.1405 34.4396 32.9588 32.9183 32.5673 30.8502 27.3006 26.2164 25.5588 24.5016 21.6058 20.9264 20.5399 19.0151 17.904 17.4971 17.3237 16.7914 16.171 15.9139 15.5989 15.1375 15.1175 15.0431
threshold=12862.708069414046 16779.88077301416 12862.708069414046 16657.441646845236 13117.469942800779 15910.260381556358 8.4335038293948707e-07 15957.682989525061 14778.901135510832 16973.748231509358 21553.301943959235 21590.405732010404 8479.7651930527936 13425.683983197672 962943571.54404032 18416.866255902198 13627.384924362595 3933.530578356022 18592.787823914725 4485.7876044490895 13547.111886877037 15585.900746630548 13098.188622533815 12158.319840642587 16155.714298891204 88634.395404205425 3811.8374563225507 2299.504662856737 -603.92695365323823 4443.0602109854572
decision_type=2 2 2 2 2 2 2 2 2 2 2 2 2 2 2 2 2 2 2 2 2 2 2 2 2 2 2 2 2 2
left_child=2 3 4 10 13 11 14 17 12 21 18 24 -5 22 19 -12 -8 27 26 28 -9 -6 -1 -11 -4 -18 -2 -7 -3 -14
right_child=1 6 5 8 9 7 16 20 -10 23 15 -13 29 -15 -16 -17 25 -19 -20 -21 -22 -23 -24 -25 -26 -27 -28 -29 -30 -31
leaf_value=-0.0035898535570658687 -0.00061331452410195997 0.0024028267937579325 0.0009130866675097543 0.0013139930923812485 -0.001343668413019709 6.3956833852565673e-05 0.0070572692027379728 0.0079001194524352218 0.014235590966876413 0.0026220577403616445 0.0037730531893127289 0.0067437515452703723 0.0037733375359899723 -0.00041804857478426719 -0.0025595639894406001 0.015939826656132937 0.0095373550057411202 0.011647348506697294 0.0080428736854810268 0.013483229092822444 0.018728369864133686 0.0026084716719004413 -0.0011619266853695269 0.010734552780576494 -0.0025499476510065992 0.019287731597466131 0.0041918069053441288 0.0064392427976787785 0.0086473173658374609 0.013253020373757612
leaf_weight=2208 681 56 394 76 404 101 29 37 61 65 96 70 26 370 24 20 22 29 32 54 26 155 339 42 205 70 75 59 126 47
leaf_count=2208 681 56 394 76 404 101 29 37 61 65 96 70 26 370 24 20 22 29 32 54 26 155 339 42 205 70 75 59 126 47
internal_value=0 0.00413361 -0.00137206 0.00226601 -0.00223059 0.00196794 0.00959425 0.00596583 0.00804397 0.000724859 0.000923783 0.000462002 0.00550914 -0.00290537 0.00727225 0.00587077 0.0145837 0.00383147 0.000195546 0.0082721 0.0123689 -0.000247816 -0.0032667 0.0058064 -0.000272092 0.0169561 -0.000136616 0.00241484 0.00672594 0.00987669
internal_weight=0 1495 4504 1114 3583 921 381 252 210 666 904 669 149 2917 260 116 121 189 788 236 63 559 2547 107 599 92 756 160 182 73
internal_count=5999 1495 4504 1114 3583 921 381 252 210 666 904 669 149 2917 260 116 121 189 788 236 63 559 2547 107 599 92 756 160 182 73
is_linear=0
shrinkage=0.01


Tree=13
num_leaves=31
num_cat=0
split_feature=515 373 329 531 390 85 270 246 56 106 577 101 235 324 589 341 117 12 490 120 589 444 314 329 150 85 451 40 455 490
split_gain=334.762 150.676 142.488 77.3369 71.7917 65.5538 59.6076 37.0743 34.8234 34.6406 33.855 33.5953 29.2673 27.3514 25.2214 25.0718 22.5827 23.0872 18.9261 18.5174 18.3092 17.9339 17.284 17.0378 16.5579 15.9113 15.6174 14.8877 14.8105 14.6662
threshold=12862.708069414046 12862.708069414046 15997.40797366804 16656.980935306066 16657.441646845236 12045.353230509716 13098.188622533815 16842.044386738413 8227.8513450045284 15584.806634279756 705584.41676591185 3271.3644995502627 6559.2350567708972 17385.696474271641 13117.469942800779 319111.84695785813 15950.263414604737 5056.3094534395977 -578.26098987463399 16029.113402840472 19371.843900412929 13287.74325720456 18385.838929699443 15204.233610432717 14817.965134866508 19374.048557130827 2251.6988499547329 28824.974410352479 14213.952250586708 -498.26159995262225
decision_type=2 2 2 2 2 2 2 2 2 2 2 2 2 2 2 2 2 2 2 2 2 2 2 2 2 2 2 2 2 2
left_child=1 6 3 16 7 13 14 27 22 -8 19 -9 -7 15 21 24 17 20 -10 26 -2 -1 -5 -11 -4 -20 -6 -3 -21 -14
right_child=2 4 5 8 10 12 9 11 18 23 -12 -13 29 -15 -16 -17 -18 -19 25 28 -22 -23 -24 -25 -26 -27 -28 -29 -30 -31
leaf_value=-0.0035901666186368866 0.00059245053260726321 -0.00056560889596402649 0.0089728994644521706 0.0017798255772616429 0.0035681056085978729 0.0070444455575197941 -0.0010937253817823588 0.0028288608171730019 0.0030532710423523731 0.0018443918069961534 0.00019477243211844729 0.014772605649646251 0.0087369138645008206 -0.00039878088574517859 -0.00067745747308801442 0.015243799030780792 -0.0017192409014788227 0.012082112314445632 0.010507742194779988 0.020866607298021731 0.0059122332803120741 -0.00086471738305365551 0.010759482977015001 0.0080365355231890243 0.0031745483189576651 0.019800974654930609 0.011932526261875088 0.0066606803064544993 0.010200702734291554 0.018141753404718085
leaf_weight=2213 435 574 98 104 49 45 464 98 22 136 45 31 20 55 433 35 276 21 58 23 76 271 27 66 99 27 41 30 30 97
leaf_count=2213 435 574 98 104 49 45 464 98 22 136 45 31 20 55 433 35 276 21 58 23 76 271 27 66 99 27 41 30 30 97
internal_value=0 -0.00136097 0.00410022 0.00207755 0.00224661 0.00881228 -0.00228829 0.00083266 0.00708763 0.000411051 0.00775951 0.00569906 0.0138981 0.00594155 -0.0029046 0.00744464 0.000601806 0.00180596 0.0113201 0.01014 0.00138365 -0.00329282 0.00363059 0.00386757 0.00605901 0.0134597 0.00737856 -0.000206687 0.0148293 0.0165341
internal_weight=0 4504 1495 1046 921 449 3583 733 238 666 188 129 162 287 2917 232 808 532 107 143 511 2484 131 202 197 85 90 604 53 117
internal_count=5999 4504 1495 1046 921 449 3583 733 238 666 188 129 162 287 2917 232 808 532 107 143 511 2484 131 202 197 85 90 604 53 117
is_linear=0
shrinkage=0.01


Tree=14
num_leaves=31
num_cat=0
split_feature=444 515 314 329 531 207 531 390 422 390 79 324 373 85 9 74 0 191 64 12 163 128 78 283 246 331 329 589 283 81
split_gain=330.186 175.536 98.5658 78.2412 67.7558 49.9998 49.4062 44.4836 41.1645 40.4481 34.8018 31.9308 30.6328 25.6692 24.8783 24.3418 24.3205 23.98 23.5046 23.1484 21.58 18.8945 18.2425 17.7797 15.9402 15.5546 15.46 15.3146 16.7831 14.8817
threshold=20645.790184293804 12862.708069414046 20341.05412561772 16732.355633564272 15907.198316056907 13824.297959379792 16973.748231509358 17752.884466755495 5.3129400715573396e-07 15937.873562231985 16872.600196499818 17281.096690136113 14638.651173345053 15413.008980771776 13287.74325720456 4485.7876044490895 14815.884345221812 13425.906209362618 17997.273472731791 5604.8460463734882 13288.313655000169 22316.994122748485 15146.455888363495 15699.015747182175 16732.355633564272 10401.822640072338 15725.357318481796 21890.746216351912 17825.396429036202 9717.7761879478512
decision_type=2 2 2 2 2 2 2 2 2 2 2 2 2 2 2 2 2 2 2 2 2 2 2 2 2 2 2 2 2 2
left_child=1 2 5 6 9 12 14 19 -5 -2 21 15 20 -8 -3 17 -10 -6 -16 27 -1 -7 -12 25 -14 -11 29 28 -4 -19
right_child=4 3 7 8 11 10 13 -9 16 23 22 -13 24 -15 18 -17 -18 26 -20 -21 -22 -23 -24 -25 -26 -27 -28 -29 -30 -31
leaf_value=-0.0034746521476186122 0.0012005540812475924 -0.00047479785921698689 -0.00036897192490304077 0.0013830378002495747 0.0049391439180821181 -0.0011674349527749444 0.0038103316384149365 0.015530470026923078 0.016074660769448829 0.012615840584039688 0.001828128122927054 0.0011116705300907295 -0.00083543967450819398 0.012085985169517545 0.002476783314548237 0.021398459243774415 0.0072834294716842838 0.013592998548410833 0.014008751407265664 0.012485304928961254 -0.0010517811523195111 0.0051986967372781067 0.011001530773426612 0.011084037677089615 0.0053927179322914879 0.0027176664883343431 0.015580810543275281 0.0098179288403618913 0.0058488975856453183 0.0035121744374434155
leaf_weight=2373 212 628 206 54 50 543 128 28 65 20 46 30 327 53 152 25 61 32 20 21 435 51 41 82 47 77 89 21 55 27
leaf_count=2373 212 628 206 54 50 543 128 28 65 20 46 30 327 53 152 25 61 32 20 21 435 51 41 82 47 77 89 21 55 27
internal_value=0 -0.000813586 -0.00176617 0.00262754 0.00676514 -0.00221492 0.00151555 0.003471 0.00868792 0.00415597 0.000244307 0.0107975 -0.00274123 0.00623359 0.000448091 0.0121005 0.0118186 0.0109265 0.00381771 0.0023566 -0.00309931 -0.000620848 0.00615123 0.00765625 -5.27568e-05 0.00475853 0.0129493 0.00160233 0.000941307 0.00897974
internal_weight=0 5355 4194 1161 644 3863 981 331 180 391 681 253 3182 181 800 223 126 198 172 303 2808 594 87 179 374 97 148 282 261 59
internal_count=5999 5355 4194 1161 644 3863 981 331 180 391 681 253 3182 181 800 223 126 198 172 303 2808 594 87 179 374 97 148 282 261 59
is_linear=0
shrinkage=0.01


Tree=15
num_leaves=31
num_cat=0
split_feature=373 515 460 85 589 589 235 145 329 56 314 270 280 283 43 390 128 444 385 43 481 59 106 171 61 106 14 207 385 72
split_gain=324.155 196.556 86.8223 76.7242 74.4357 47.3796 42.1061 39.6239 34.8068 34.5926 32.9574 32.3736 31.8931 31.1493 28.1419 27.4744 25.3142 25.0899 24.9334 26.7595 23.0843 21.1733 19.1174 18.4829 17.6663 17.107 17.562 15.8499 17.3221 15.0978
threshold=20645.790184293804 12862.708069414046 15908.640614984108 17159.371510718913 12162.840317420518 21050.280557030081 13423.279960784736 14786.443915306225 15937.873562231985 5827.9822737316417 20645.790184293804 7402.6991323720886 17281.096690136113 17999.350961228356 3235.7618870895149 15456.101463068117 10734.02884866197 14638.651173345053 16466.523650906169 3478.4011783803398 186070060.99982083 3096.9049094582001 14772.419676928248 15322.762302405035 17074.857231391896 15551.732081270688 14226.330786054828 7401.5591302770326 13317.463074723446 15590.040746452103
decision_type=2 2 2 2 2 2 2 2 2 2 2 2 2 2 2 2 2 2 2 2 2 2 2 2 2 2 2 2 2 2
left_child=1 4 8 5 6 15 17 10 -2 -5 -6 -11 18 -8 -9 -3 -17 -1 19 20 24 29 -15 -18 -4 26 -13 -10 -29 -7
right_child=2 3 12 9 7 21 13 14 27 11 -12 25 -14 22 -16 16 23 -19 -20 -21 -22 -23 -24 -25 -26 -27 -28 28 -30 -31
leaf_value=-0.0033626847783310588 0.001007927740946506 -0.00090583852533460726 0.016388782594709637 0.0010256717443896705 -0.0010754916816104092 0.0031067646048346859 -0.00080587154046525696 0.0027394832002069309 0.0031946971231600935 0.0049683605314588507 0.007306400232163131 0.015883902582255277 0.0015875414659579595 -6.7008425082479205e-05 0.011857895517375235 0.00059493736751096017 0.002443321055661027 -0.00018703449574015052 0.0031596569772809747 0.021978435660853529 0.0055018654441228131 0.013288244528300835 0.012290343565325584 0.010687728961439508 0.0076834866284362733 0.017729031037953164 0.0035145087796263396 0.014588648212142287 0.0063604849573342835 0.01130856603384018
leaf_weight=2443 212 513 94 53 585 133 537 159 68 68 51 22 30 21 43 172 52 277 25 33 40 33 31 57 31 54 24 40 71 27
leaf_count=2443 212 513 94 53 585 133 537 159 68 68 51 22 30 21 43 172 52 277 25 33 40 33 31 57 31 54 24 40 71 27
internal_value=0 -0.00080612 0.00670307 0.00274363 -0.00184014 0.00155109 -0.00251436 0.000822114 0.00374952 0.00806955 -0.000403359 0.0102917 0.0112676 -9.02539e-05 0.00468053 0.000470891 0.00298428 -0.00303928 0.0125699 0.0137581 0.012114 0.00599504 0.00729987 0.00675462 0.0142299 0.0139116 0.00943031 0.00699653 0.00932559 0.00449082
internal_weight=0 5355 644 1208 4147 987 3309 838 391 221 636 168 253 589 202 794 281 2720 223 198 165 193 52 109 125 100 46 179 111 160
internal_count=5999 5355 644 1208 4147 987 3309 838 391 221 636 168 253 589 202 794 281 2720 223 198 165 193 52 109 125 100 46 179 111 160
is_linear=0
shrinkage=0.01


Tree=16
num_leaves=31
num_cat=0
split_feature=444 314 589 329 531 217 25 182 390 43 56 589 324 235 380 74 191 64 112 188 93 112 283 373 283 128 331 412 329 594
split_gain=319.099 169.17 88.7067 88.4419 65.6639 49.0317 42.2618 39.1866 39.1593 35.3801 31.5404 31.3648 31.0469 26.3879 25.3067 23.5782 23.3212 23.0336 22.3328 20.5922 19.7477 18.3464 17.9983 17.4885 17.1995 15.4123 15.0748 14.9865 14.983 14.6379
threshold=20645.790184293804 12862.708069414046 13829.639715415409 16657.441646845236 15907.198316056907 16690.35809671037 13726.24352447425 13288.313655000169 15937.873562231985 4485.7876044490895 14786.443915306225 21553.301943959235 17281.096690136113 13708.845012053069 3272.9394626918588 4485.7876044490895 13425.906209362618 16654.54520959259 12637.185251341545 14911.163210014822 15078.10624706919 10172.923801963809 17911.847627675586 17681.172445701031 15699.015747182175 18693.821832164325 10401.822640072338 167564767.31999719 15725.357318481796 2915.2557761158819
decision_type=2 2 2 2 2 2 2 2 2 2 2 2 2 2 2 2 2 2 2 2 2 2 2 2 2 2 2 2 2 2
left_child=1 2 7 5 8 11 18 13 -2 14 22 -3 15 23 21 16 -6 25 -4 -13 -9 -5 -7 -1 26 -8 -10 -23 -18 -22
right_child=4 3 6 9 12 10 17 20 24 -11 -12 19 -14 -15 -16 -17 28 -19 -20 -21 29 27 -24 -25 -26 -27 -28 -29 -30 -31
leaf_value=-0.0035600737292822639 0.0011740573900224606 -0.00070969894702505075 -0.00096582495011816373 0.0015756564759466724 0.0048450732358731327 0.0014729925939429771 0.0019631889935259766 -0.0014618668448072338 0.012411209075246007 0.018900965119153262 0.012672248832045161 0.010155445509292978 0.0010693781829128662 -0.00050258838071811707 0.01113912135819215 0.02105600025653839 0.0088365938975396817 0.012806692413633336 0.0036884614632359826 -0.00024474813952110711 0.00099322771788468915 0.013892165332300855 0.011847820890136062 0.00021237647259504929 0.010897466617113934 0.010375736245353307 0.0026668826182215631 0.0040767782675767581 0.015335032263080056 0.0076948407376767137
leaf_weight=2246 212 689 447 102 50 102 98 437 20 25 49 47 30 376 77 25 59 37 134 32 176 28 20 130 82 28 77 35 89 40
leaf_count=2246 212 689 447 102 50 102 98 437 20 25 49 47 30 376 77 25 59 37 134 32 176 28 20 130 82 28 77 35 89 40
internal_value=0 -0.000799809 -0.00175807 0.00249689 0.00665059 0.00105286 0.00137001 -0.00244156 0.00408201 0.00757536 0.00589557 -2.54018e-05 0.0106202 -0.00296413 0.00640536 0.0119051 0.0107496 0.0058697 0.000107625 0.00594271 -0.000239256 0.00419627 0.00317378 -0.00335367 0.00752607 0.00383264 0.00467602 0.00843917 0.0127444 0.00223427
internal_weight=0 5355 4149 1206 644 939 744 3405 391 267 171 768 253 2752 242 223 198 163 581 79 653 165 122 2376 179 126 97 63 148 216
internal_count=5999 5355 4149 1206 644 939 744 3405 391 267 171 768 253 2752 242 223 198 163 581 79 653 165 122 2376 179 126 97 63 148 216
is_linear=0
shrinkage=0.01


Tree=17
num_leaves=31
num_cat=0
split_feature=444 460 314 283 589 329 145 25 589 71 153 589 504 56 217 270 554 207 64 271 390 71 98 171 594 329 268 589 531 577
split_gain=313.589 141.27 119.524 80.3163 69.16 55.041 41.543 36.3542 30.7997 30.4493 29.757 28.2253 27.5744 27.1385 30.7089 25.281 23.7911 22.9146 21.629 20.8737 20.2562 20.1251 18.896 17.3338 18.1295 16.3498 14.7594 14.7581 14.719 14.6239
threshold=12862.708069414046 16656.980935306066 12637.185251341545 16657.441646845236 13829.639715415409 16657.441646845236 9964.9412707431711 13139.171047880336 10731.837489302805 11182.698936520732 13963.948614071965 20645.790184293804 803817.74197686824 7203.7300125289612 16504.358811721202 19371.843900412929 420229023.80414605 15413.008980771776 16654.54520959259 22834.35896968337 17911.847627675586 10967.549399558988 12636.326125632077 18589.35566451116 2316.0772355645795 18827.823716434435 6009.0907776916692 7299.1955944250431 15398.618331574804 305999.61072917114
decision_type=2 2 2 2 2 2 2 2 2 2 2 2 2 2 2 2 2 2 2 2 2 2 2 2 2 2 2 2 2 2
left_child=2 3 4 11 15 8 19 -6 -4 20 -8 23 16 -10 -15 22 25 -11 -9 -3 27 29 -1 -2 -25 -7 -13 -5 -28 -12
right_child=1 6 5 9 7 12 10 18 13 17 21 26 -14 14 -16 -17 -18 -19 -20 -21 -22 -23 -24 24 -26 -27 28 -29 -30 -31
leaf_value=-0.0034415852804644048 -0.00026949308027978986 0.0045600721927687785 -0.00077701727672379553 -0.0019480909146368504 -0.00037660967964157048 0.0041229851702595816 0.0050217067291738384 0.003250198251986876 -0.00011978321003954153 0.0079869237306844851 0.014457778546959161 0.00066528663293204517 0.0007559838237497828 0.0033130738101541423 0.013650505462927478 0.00078152209012118242 0.015472312864614651 0.018764241013456792 0.012586752223697576 0.012732646165072525 0.013578468685348828 0.017998792824535807 -0.0013823979647494653 -7.5469084438823519e-05 0.013227848007343709 0.013912265392189677 0.0036098862225070407 0.0058185478333117706 0.012354897480261954 0.0050350541368659055
leaf_weight=2213 725 176 519 40 455 76 42 100 111 47 40 44 58 91 42 186 40 34 33 38 21 79 558 21 20 22 39 63 38 28
leaf_count=2213 725 176 519 40 455 76 42 100 111 47 40 44 58 91 42 186 40 34 33 38 21 79 558 21 20 22 39 63 38 28
internal_value=0 0.00396844 -0.00131723 0.002101 -0.00216452 0.00181481 0.00902859 0.00096773 0.000600581 0.00774226 0.012445 0.00079722 0.00654161 0.0035308 0.00657753 -0.00278737 0.00897326 0.0125107 0.00556679 0.00601128 0.00462736 0.014566 -0.00302692 8.82371e-05 0.00641395 0.00632058 0.00528549 0.00280238 0.00792561 0.0105778
internal_weight=0 1495 4504 1092 3545 959 403 588 763 205 189 887 196 244 133 2957 138 81 133 214 124 147 2771 766 41 98 121 103 77 68
internal_count=5999 1495 4504 1092 3545 959 403 588 763 205 189 887 196 244 133 2957 138 81 133 214 124 147 2771 766 41 98 121 103 77 68
is_linear=0
shrinkage=0.01


Tree=18
num_leaves=31
num_cat=0
split_feature=373 390 515 246 270 531 59 531 85 9 106 182 324 171 589 106 175 460 240 276 26 515 342 320 171 526 444 329 515 143
split_gain=309.267 154.499 138.463 70.3594 55.8699 55.4322 42.3703 34.5724 33.3866 32.8172 32.7867 31.8727 28.5919 23.3999 22.7782 21.8167 21.7963 20.552 20.9231 19.9411 19.7852 19.5186 18.0007 17.9452 17.0336 18.8858 16.1578 16.0255 16.0232 13.533
threshold=12862.708069414046 16657.441646845236 12862.708069414046 16657.441646845236 13098.188622533815 16656.980935306066 4485.7876044490895 18589.35566451116 12255.707090825121 13287.74325720456 15584.806634279756 15957.682989525061 17523.408643003382 20093.34797138198 12862.708069414046 14427.579457420956 124335.34737354169 17907.499144106278 4333.7154078780659 4890.3519414445027 7660.0968617013104 7512.3575053072946 205485.83876553478 1230.8772461647052 13890.333078441838 15647.491726996208 13287.74325720456 15204.233610432717 21050.280557030081 8464.425980287373
decision_type=2 2 2 2 2 2 2 2 2 2 2 2 2 2 2 2 2 2 2 2 2 2 2 2 2 2 2 2 2 2
left_child=2 3 4 7 14 9 12 13 -7 19 -6 21 17 28 26 -11 -9 18 -3 -4 -13 -5 -14 -19 -10 -26 -1 -12 -2 -29
right_child=1 6 5 11 10 8 -8 16 24 15 27 20 22 -15 -16 -17 -18 23 -20 -21 -22 -23 -24 -25 25 -27 -28 29 -30 -31
leaf_value=-0.0034567591427301174 -0.00045056872125884522 0.0064249901395818463 -0.00082614889438626456 0.00036065018978983821 -0.001047680058001537 0.0034917982997280275 0.019593352634045814 0.015804657159994046 0.0034002992622554303 0.0013186057245401644 0.0018168775055571185 0.0063166512031522064 0.0084802255884654093 0.010998547911643982 -0.00073817816082369619 0.0087049887178314699 0.0020245287059382959 0.0054778616810622427 0.016414187792688609 0.0091155441176323654 0.017395523376762867 0.0079213432848796641 -0.0015162038435038655 0.015514689340385832 0.017769298173573821 0.0061998082626433604 -0.00085570268073195677 0.003294064046419931 0.0039365629209552281 0.012350445836923565
leaf_weight=2194 728 166 514 62 464 141 36 24 20 87 136 27 31 20 455 74 22 23 24 21 40 76 43 79 43 21 268 33 94 33
leaf_count=2194 728 166 514 62 464 141 36 24 20 87 136 27 31 20 455 74 22 23 24 21 40 76 43 79 43 21 268 33 94 33
internal_value=0 0.003941 -0.00130812 0.0019914 -0.00219707 0.00215016 0.00924177 0.000772348 0.006465 0.000755278 0.000416277 0.00727197 0.00822358 0.000311157 -0.00279374 0.00471359 0.00921416 0.00963062 0.00768678 -0.000435914 0.0129309 0.00452451 0.00267149 0.0132515 0.0114557 0.0139731 -0.00317362 0.00377903 5.11227e-05 0.00782225
internal_weight=0 1495 4504 1093 3583 921 402 888 225 696 666 205 366 842 2917 161 46 292 190 535 67 138 74 102 84 64 2462 202 822 66
internal_count=5999 1495 4504 1093 3583 921 402 888 225 696 666 205 366 842 2917 161 46 292 190 535 67 138 74 102 84 64 2462 202 822 66
is_linear=0
shrinkage=0.01


Tree=19
num_leaves=31
num_cat=0
split_feature=373 515 460 85 589 589 235 246 56 329 270 280 145 283 390 212 128 385 43 444 390 481 314 59 106 90 362 114 106 14
split_gain=304.004 184.336 81.2453 73.0497 69.2312 44.5759 39.8051 38.1161 33.0206 32.7265 30.7913 30.5723 30.4146 29.4054 25.9272 25.0489 24.5064 24.1467 25.4536 23.1802 22.68 22.0494 20.6874 20.37 18.3134 17.8507 17.2082 26.3289 16.2097 16.8057
threshold=20645.790184293804 12862.708069414046 15908.640614984108 17159.371510718913 12162.840317420518 21050.280557030081 13423.279960784736 17999.350961228356 5827.9822737316417 15843.440518658006 7402.6991323720886 17281.096690136113 14786.443915306225 17999.350961228356 15456.101463068117 2915.2557761158819 10734.02884866197 16466.523650906169 3478.4011783803398 14638.651173345053 15997.40797366804 186070060.99982083 21050.280557030081 3096.9049094582001 14772.419676928248 15428.924634543499 478259.55735776777 2874.4018447844114 15551.732081270688 14226.330786054828
decision_type=2 2 2 2 2 2 2 2 2 2 2 2 2 2 2 2 2 2 2 2 2 2 2 2 2 2 2 2 2 2
left_child=1 4 9 5 6 14 19 12 -5 -2 -10 17 22 -8 -3 -9 -16 18 21 -1 -14 26 -6 -7 -15 -18 27 -4 29 -12
right_child=2 3 11 8 7 23 13 15 10 -11 28 -13 20 24 16 -17 25 -19 -20 -21 -22 -23 -24 -25 -26 -27 -28 -29 -30 -31
leaf_value=-0.0032534733725501181 0.00087849991250124463 -0.00089181688920772668 0.014523486954300372 0.00097182094427001361 -0.0014952946558141156 0.0043283836914633864 -0.0007706029598765488 0.0034163832522766746 0.0048332495599478376 0.006671518510123352 0.015506108558990738 0.0014293802771717309 0.0020122482451053977 -0.00010532717619623458 0.00053626877526471084 0.015852217195928098 0.0096780706739620029 0.0029213289797306065 0.021368480469241287 -0.00020107420434438143 0.011063622992266627 0.0052855185410007836 0.005871313705858661 0.012957317522077849 0.011989373112878492 0.0012817920939996838 0.020276596334672745 0.0018174756806166399 0.017271159981135969 0.0034059872998235124
leaf_weight=2443 205 513 73 53 543 160 537 46 68 186 22 30 149 21 172 25 69 25 33 277 34 40 41 33 31 40 31 21 54 24
leaf_count=2443 205 513 73 53 543 160 537 46 68 186 22 30 149 21 172 25 69 25 33 277 34 40 41 33 31 40 31 21 54 24
internal_value=0 -0.000780662 0.00649138 0.00265697 -0.00178203 0.00149334 -0.00243224 0.000785473 0.00785379 0.00363426 0.0100249 0.0109069 0.000136593 -7.53058e-05 0.000445585 0.0077952 0.00288718 0.0121819 0.0133512 -0.00294262 0.00369392 0.0117477 -0.000978118 0.0058038 0.00710497 0.00659687 0.0138156 0.0116849 0.0135552 0.009193
internal_weight=0 5355 644 1208 4147 987 3309 838 221 391 168 253 767 589 794 71 281 223 198 2720 183 165 584 193 52 109 125 94 100 46
internal_count=5999 5355 644 1208 4147 987 3309 838 221 391 168 253 767 589 794 71 281 223 198 2720 183 165 584 193 52 109 125 94 100 46
is_linear=0
shrinkage=0.01


Tree=20
num_leaves=31
num_cat=0
split_feature=444 314 329 589 531 217 25 182 390 112 56 589 217 235 128 64 112 188 455 93 283 380 373 373 460 572 28 385 128 594
split_gain=298.75 163.976 85.2968 81.9939 58.5691 47.8225 40.2272 37.2922 34.9267 33.2671 31.6095 29.2172 28.2264 25.2201 22.6877 21.8092 21.5743 19.8954 19.0395 18.7858 17.1554 16.7315 16.4368 16.3887 15.9488 15.7812 15.6222 14.8894 14.8005 14.1609
threshold=21050.280557030081 12862.708069414046 16657.441646845236 13829.639715415409 15907.198316056907 16690.35809671037 13726.24352447425 13288.313655000169 15937.873562231985 10172.923801963809 14786.443915306225 21553.301943959235 13857.839759181572 13708.845012053069 12549.754860832347 16654.54520959259 12637.185251341545 14911.163210014822 13483.962681656029 15078.10624706919 17911.847627675586 3321.282863979015 14254.993732955763 17681.172445701031 16779.88077301416 31888.37873050378 1615.6491290079869 13422.909082614247 18693.821832164325 2915.2557761158819
decision_type=2 2 2 2 2 2 2 2 2 2 2 2 2 2 2 2 2 2 2 2 2 2 2 2 2 2 2 2 2 2
left_child=1 3 5 7 8 11 16 13 -2 21 20 -3 25 23 26 28 -5 -13 -11 -9 -7 -4 -10 -1 -20 -6 -14 -24 -8 -21
right_child=4 2 9 6 12 10 15 19 22 18 -12 17 14 -15 -16 -17 -18 -19 24 29 -22 -23 27 -25 -26 -27 -28 -29 -30 -31
leaf_value=-0.0034478107939119556 0.0012825474758481085 -0.00065773007273506507 0.0021417582773050796 -0.00097591589303855364 0.012460965566316862 0.0014218549966109077 0.001877271253639376 -0.0014052918445933366 0.0037983099821753599 0.01597468252182007 0.012523121332377197 0.0099008717062942526 0.005717969023603566 -0.00046491557459250605 0.017295181064894704 0.012441529694038469 0.0035951351604090812 -0.00032183136790990828 0.0050114348671346344 0.00097702034380771005 0.011550824783742428 0.0099428637899659777 0.015513570076136879 0.00020382117443771747 0.014983114008994207 0.0026225334628751235 0.013703214562669094 0.0073272764228065222 0.010121142172387668 0.0075650867694057522
leaf_weight=2252 203 695 107 450 23 102 98 439 74 50 50 47 49 377 66 37 134 32 53 177 20 37 33 130 23 56 49 68 28 40
leaf_count=2252 203 695 107 450 23 102 98 439 74 50 50 47 49 377 66 37 134 32 53 177 20 37 33 130 23 56 49 68 28 40
internal_value=0 -0.000758315 0.00247214 -0.00170215 0.00656718 0.00105721 0.00129891 -0.0023586 0.00410485 0.00742965 0.00582675 -2.68738e-06 0.0103975 -0.00286816 0.0127629 0.00569142 7.29212e-05 0.00576003 0.0111822 -0.000215529 0.00308234 0.00414621 0.00737873 -0.00324852 0.00802918 0.00548689 0.00971059 0.010002 0.00370924 0.00219141
internal_weight=0 5378 1216 4162 621 946 747 3415 378 270 172 774 243 2759 164 163 584 79 126 656 122 144 175 2382 76 79 98 101 126 217
internal_count=5999 5378 1216 4162 621 946 747 3415 378 270 172 774 243 2759 164 163 584 79 126 656 122 144 175 2382 76 79 98 101 126 217
is_linear=0
shrinkage=0.01


Tree=21
num_leaves=31
num_cat=0
split_feature=373 390 515 246 270 531 59 531 85 9 106 182 145 207 171 589 106 175 324 276 26 515 210 163 329 270 515 473 380 143
split_gain=293.75 146.651 131.545 67.5567 53.6361 53.1323 40.5531 33.1512 32.0645 31.7631 31.5399 30.6332 27.6834 23.3394 22.7746 21.2968 21.1319 21.0103 20.992 19.2737 19.1386 18.7682 16.394 15.7439 15.4142 15.3659 15.2877 13.6825 13.5371 13.1205
threshold=12862.708069414046 16657.441646845236 12862.708069414046 16657.441646845236 13098.188622533815 16656.980935306066 4485.7876044490895 18589.35566451116 12255.707090825121 13287.74325720456 15584.806634279756 15957.682989525061 14786.443915306225 12256.949812130939 20093.34797138198 12862.708069414046 14427.579457420956 124335.34737354169 17523.408643003382 4890.3519414445027 7660.0968617013104 7512.3575053072946 1137.4811699449758 13288.313655000169 15204.233610432717 10257.061978432228 21050.280557030081 205002.67477519921 4890.3519414445027 5909.5510631284988
decision_type=2 2 2 2 2 2 2 2 2 2 2 2 2 2 2 2 2 2 2 2 2 2 2 2 2 2 2 2 2 2
left_child=2 3 4 7 15 9 12 14 -7 19 -6 21 13 18 26 23 -11 -9 28 -4 -13 -5 -10 -1 -12 -14 -2 -15 -3 -26
right_child=1 6 5 11 10 8 -8 17 22 16 24 20 25 27 -16 -17 -18 -19 -20 -21 -22 -23 -24 -25 29 -27 -28 -29 -30 -31
leaf_value=-0.0034517791650544782 -0.0004512946178418953 0.0049394226263471605 -0.00082528747865184609 0.00033921703959124223 -0.0010166209330230325 0.0034065444406835323 0.019132425624152852 0.01548394037100176 0.0054347762288225274 0.0012832116960794077 0.0017930594425877857 0.0061582777062775922 0.0075207024571057914 0.0074917347768836831 0.010838912270963192 -0.00073836452120423811 0.0085527538563552746 0.0019545658881014046 -0.0010291936469045194 0.0089486289379142585 0.017054611534811557 0.0077531358951359597 0.014589871932875436 -0.0013095054191082842 0.0023241594364797626 0.015714561400314173 0.0038339624610144963 0.015969330104999246 0.012827647564311822 0.011392597368178077
leaf_weight=2050 728 112 514 62 464 141 36 24 31 87 136 27 37 47 20 455 74 22 51 21 40 76 53 412 27 60 94 32 27 39
leaf_count=2050 728 112 514 62 464 141 36 24 31 87 136 27 37 47 20 455 74 22 51 21 40 76 53 412 27 60 94 32 27 39
internal_value=0 0.00384086 -0.00127488 0.00194142 -0.00214134 0.00209591 0.00900525 0.000746896 0.00632028 0.000730268 0.000419231 0.00711575 0.00800913 0.00635763 0.000295283 -0.00272596 0.00462449 0.00901337 0.00445828 -0.000441638 0.0126636 0.00442224 0.0112112 -0.00309328 0.00371742 0.0125891 3.87469e-05 0.0109257 0.00647167 0.00768278
internal_weight=0 1495 4504 1093 3583 921 402 888 225 696 666 205 366 269 842 2917 161 46 190 535 67 138 84 2462 202 97 822 79 139 66
internal_count=5999 1495 4504 1093 3583 921 402 888 225 696 666 205 366 269 842 2917 161 46 190 535 67 138 84 2462 202 97 822 79 139 66
is_linear=0
shrinkage=0.01


Tree=22
num_leaves=31
num_cat=0
split_feature=444 460 314 283 589 329 145 25 98 515 589 153 504 56 217 296 270 56 554 476 64 71 217 98 71 329 271 520 543 136
split_gain=289.488 130.189 110.713 75.3312 63.1649 50.4646 39.1156 34.2007 30.1599 28.8416 28.3918 28.3143 26.1104 25.9636 28.9496 24.2297 23.7526 22.5307 22.5107 20.6842 20.4943 18.6697 18.6316 18.1078 16.2022 15.4897 14.7239 14.4359 13.7949 13.5639
threshold=12862.708069414046 16779.88077301416 12637.185251341545 16657.441646845236 13829.639715415409 16657.441646845236 9964.9412707431711 13139.171047880336 11395.169762681597 21553.301943959235 10731.837489302805 13963.948614071965 803817.74197686824 7203.7300125289612 16504.358811721202 102609706.48814629 19371.843900412929 18416.866255902198 420229023.80414605 962943571.54404032 16654.54520959259 10967.549399558988 18592.787823914725 12636.326125632077 18230.216745399874 18827.823716434435 22834.35896968337 3811.8374563225507 99732.416415003725 15205.626571114533
decision_type=2 2 2 2 2 2 2 2 2 2 2 2 2 2 2 2 2 2 2 2 2 2 2 2 2 2 2 2 2 2
left_child=2 3 4 9 16 10 19 -6 15 22 29 -8 18 -12 -15 -5 23 -11 25 26 -9 28 27 -1 -10 -7 -3 -2 -13 -4
right_child=1 6 5 8 7 12 11 20 24 17 13 21 -14 14 -16 -17 -18 -19 -20 -21 -22 -23 -24 -25 -26 -27 -28 -29 -30 -31
leaf_value=-0.0033144238634924823 -0.00062649492390037397 0.0055172908223908527 -0.0018846043797574289 0.010944110026583076 -0.00039155896837201996 0.003921711375066814 0.0047035268638044216 0.0031181094072759152 0.0086506991312668043 0.003477600968471961 -0.00017120892794483954 0.0047810697942399063 0.00064487498333870336 0.0032099572136732087 0.013246908007810514 0.001574015190113294 0.00078302804722390584 0.015144780314993113 0.01496280005387962 -0.0035650509715612444 0.012206460745497184 0.017744174701968828 0.0076223490468692034 -0.0012986429162009697 0.017799347159743774 0.01345002797821177 0.012743808624999865 0.0039960161054506897 0.014137595835956744 0.0015398585044875228
leaf_weight=2213 681 145 345 40 455 76 39 100 49 96 111 26 58 91 42 89 186 20 40 21 33 75 32 558 32 22 35 75 40 174
leaf_count=2213 681 145 345 40 455 76 39 100 49 96 111 26 58 91 42 89 186 20 40 21 33 75 32 558 32 22 35 75 40 174
